Language model created by QuickLM on Sat Jun 18 11:31:14 EDT 2016
Copyright (c) 1996-2010 Carnegie Mellon University and Alexander I. Rudnicky

The model is in standard ARPA format, designed by Doug Paul while he was at MITRE.

The code that was used to produce this language model is available in Open Source.
Please visit http://www.speech.cs.cmu.edu/tools/ for more information

The (fixed) discount mass is 0.5. The backoffs are computed using the ratio method.
This model based on a corpus of 321 sentences and 201 words

\data\
ngram 1=201
ngram 2=485
ngram 3=359

\1-grams:
-0.9118 </s> -0.3010
-0.9118 <s> -0.1748
-3.4183 ALBERT -0.2443
-3.4183 ALICE -0.2443
-2.8162 AMANDA -0.2443
-3.4183 AMY -0.2443
-3.4183 ANDREW -0.2443
-3.4183 ANGELA -0.2443
-3.4183 ANGRY -0.2443
-3.4183 ANN -0.2443
-3.4183 ANNA -0.2443
-3.4183 ANTHONY -0.2443
-3.1173 ARMCHAIR -0.2443
-3.4183 ARTHUR -0.2443
-2.9412 ASHLEY -0.2443
-3.1173 BACK -0.2437
-3.4183 BACKWARD -0.2443
-3.4183 BARBARA -0.2443
-3.1173 BATH -0.2435
-3.1173 BED -0.2443
-3.1173 BEDROOM -0.2443
-2.9412 BEER -0.2443
-3.4183 BETTY -0.2443
-2.9412 BISCUITS -0.2443
-3.4183 BRENDA -0.2443
-3.4183 BRIAN -0.2443
-2.0961 BRING -0.2361
-3.4183 CARL -0.2443
-3.4183 CAROL -0.2443
-3.4183 CAROLYN -0.2443
-3.4183 CATHERINE -0.2443
-3.4183 CHARLES -0.2443
-2.9412 CHEESE -0.2443
-3.4183 CHERYL -0.2443
-2.9412 CHIPS -0.2443
-3.4183 CHRISTINE -0.2443
-2.8162 CHRISTOPHER -0.2443
-3.1173 COME -0.2439
-2.9412 CORNFLAKES -0.2443
-3.1173 COUCH -0.2443
-2.5732 CUP -0.2443
-3.4183 CYNTHIA -0.2443
-2.8162 DANIEL -0.2443
-2.8162 DAVID -0.2443
-3.4183 DEBORAH -0.2443
-3.4183 DEBRA -0.2443
-3.4183 DENNIS -0.2443
-3.4183 DIANE -0.2443
-2.9412 DINING -0.2428
-3.4183 DO -0.3007
-3.4183 DONALD -0.2443
-3.4183 DONNA -0.2443
-2.9412 DOOR -0.2443
-3.4183 DORIS -0.2443
-3.4183 DOROTHY -0.2443
-3.4183 DOUGLAS -0.2443
-3.4183 EDWARD -0.2443
-2.8162 ELIZABETH -0.2443
-3.4183 ERIC -0.2443
-3.4183 EVELYN -0.2443
-3.1173 FOLLOW -0.2361
-2.9412 FOOD -0.2443
-2.9412 FOR -0.2332
-3.4183 FOWARD -0.2443
-3.4183 FRANCES -0.2443
-3.4183 FRANK -0.2443
-3.1173 FRONT -0.2437
-3.4183 GARY -0.2443
-3.4183 GEORGE -0.2443
-2.0961 GET -0.2361
-2.9412 GLASS -0.2443
-3.4183 GLORIA -0.2443
-2.3769 GO -0.2420
-3.1173 GOOD -0.2439
-2.9412 GREEN -0.2437
-3.4183 GREGORY -0.2443
-3.4183 HALT -0.2443
-3.4183 HAPPY -0.2443
-3.4183 HAROLD -0.2443
-2.9412 HEAD -0.2437
-2.8162 HEATHER -0.2443
-3.4183 HELEN -0.2443
-2.0759 HELLO -0.2365
-3.4183 HENRY -0.2443
-1.7193 IS -0.2178
-3.4183 JACK -0.2443
-2.8162 JAMES -0.2443
-3.4183 JANET -0.2443
-3.4183 JASON -0.2443
-3.4183 JEAN -0.2443
-3.4183 JEFFREY -0.2443
-2.8162 JENNIFER -0.2443
-3.4183 JERRY -0.2443
-2.8162 JESSICA -0.2443
-3.1173 JOB -0.2443
-3.4183 JOE -0.2443
-2.8162 JOHN -0.2443
-3.4183 JOSE -0.2443
-2.8162 JOSEPH -0.2443
-2.8162 JOSHUA -0.2443
-3.4183 JOYCE -0.2443
-3.4183 JUAN -0.2443
-3.4183 JULIE -0.2443
-3.4183 KAREN -0.2443
-3.4183 KATHLEEN -0.2443
-3.4183 KENNETH -0.2443
-3.4183 KEVIN -0.2443
-3.4183 KIMBERLY -0.2443
-2.9412 KITCHEN -0.2435
-3.4183 LARRY -0.2443
-3.4183 LAURA -0.2443
-3.1173 LEFT -0.2443
-2.9412 LEMON -0.2433
-2.9412 LEMONADE -0.2443
-3.4183 LINDA -0.2443
-3.4183 LISA -0.2443
-3.1173 LIVING -0.2435
-3.4183 MARGARET -0.2443
-3.4183 MARIA -0.2443
-3.4183 MARIE -0.2443
-3.4183 MARK -0.2443
-3.4183 MARTHA -0.2443
-3.4183 MARY -0.2443
-2.8162 MATTHEW -0.2443
-1.7848 ME -0.2332
-2.8162 MELISSA -0.2443
-2.9412 METAL -0.2429
-2.8162 MICHAEL -0.2443
-3.4183 MICHELLE -0.2443
-2.9412 MILK -0.2443
-2.9412 MILO -0.2443
-1.8055 MY -0.2365
-1.8055 NAME -0.2347
-3.4183 NANCY -0.2443
-3.4183 NEUTRAL -0.2443
-2.9412 NICOLE -0.2443
-3.1173 NO -0.2443
-3.4183 ON -0.2913
-2.9412 ORIGINAL -0.2433
-3.4183 PAMELA -0.2443
-2.9412 PAPER -0.2429
-3.4183 PARTY -0.2443
-3.4183 PATRICIA -0.2443
-3.4183 PATRICK -0.2443
-3.4183 PAUL -0.2443
-3.4183 PETER -0.2443
-2.7193 PRINGLES -0.2443
-3.4183 RAYMOND -0.2443
-3.4183 REBECCA -0.2443
-2.9412 RED -0.2429
-3.4183 RICHARDS -0.2443
-3.1173 RIGHT -0.2443
-2.8162 ROBERT -0.2443
-3.4183 ROGER -0.2443
-3.4183 RONALD -0.2443
-2.8162 ROOM -0.2443
-3.4183 ROTATE -0.2443
-3.4183 RUTH -0.2443
-3.4183 RYAN -0.2443
-3.4183 SAD -0.2443
-3.4183 SANDRA -0.2443
-2.8162 SARAH -0.2443
-3.1173 SAY -0.2401
-3.4183 SCOTT -0.2443
-2.9412 SEA -0.2437
-3.4183 SEE -0.3009
-2.9412 SEVEN -0.2437
-3.4183 SHARON -0.2443
-3.4183 SHIRLEY -0.2443
-3.1173 SIDEBOARD -0.2443
-3.1173 SOFA -0.2443
-2.9412 SPOONS -0.2443
-2.8162 STEPHANIE -0.2443
-3.4183 STEPHEN -0.2443
-3.4183 STEVEN -0.2443
-2.9412 STOP -0.2443
-3.1173 STOVE -0.2443
-3.4183 SUPRISED -0.2443
-3.4183 SUSAN -0.2443
-2.8162 TABLE -0.2443
-2.9412 TEA -0.2443
-3.4183 TERESA -0.2443
-3.1173 THANK -0.2439
-1.6549 THE -0.2261
-2.4183 THIS -0.2347
-3.4183 THOMAS -0.2443
-3.4183 TIMOTHY -0.2443
-2.6402 TO -0.2332
-3.1173 TOILET -0.2443
-3.4183 TOUCH -0.2443
-2.9412 UP -0.2443
-3.4183 VIRGINIA -0.2443
-3.4183 WALTER -0.2443
-2.9412 WATER -0.2443
-3.4183 WHAT -0.3009
-3.4183 WILLIAM -0.2443
-3.4183 WINK -0.2443
-3.1173 WITH -0.2361
-3.1173 YES -0.2443
-2.9412 YOGURT -0.2443
-3.1173 YOU -0.2441

\2-grams:
-2.8075 <s> ALBERT 0.0000
-2.8075 <s> ALICE 0.0000
-2.5065 <s> AMANDA 0.0000
-2.8075 <s> AMY 0.0000
-2.8075 <s> ANDREW 0.0000
-2.8075 <s> ANGELA 0.0000
-2.8075 <s> ANGRY 0.0000
-2.8075 <s> ANN 0.0000
-2.8075 <s> ANNA 0.0000
-2.8075 <s> ANTHONY 0.0000
-2.8075 <s> ARMCHAIR 0.0000
-2.8075 <s> ARTHUR 0.0000
-2.8075 <s> ASHLEY 0.0000
-2.8075 <s> BACK -0.1761
-2.8075 <s> BARBARA 0.0000
-2.8075 <s> BATH -0.1761
-2.8075 <s> BED 0.0000
-2.8075 <s> BEDROOM 0.0000
-2.8075 <s> BEER 0.0000
-2.8075 <s> BETTY 0.0000
-2.8075 <s> BISCUITS 0.0000
-2.8075 <s> BRENDA 0.0000
-2.8075 <s> BRIAN 0.0000
-1.4853 <s> BRING 0.0000
-2.8075 <s> CARL 0.0000
-2.8075 <s> CAROL 0.0000
-2.8075 <s> CAROLYN 0.0000
-2.8075 <s> CATHERINE 0.0000
-2.8075 <s> CHARLES 0.0000
-2.8075 <s> CHEESE 0.0000
-2.8075 <s> CHERYL 0.0000
-2.8075 <s> CHIPS 0.0000
-2.8075 <s> CHRISTINE 0.0000
-2.5065 <s> CHRISTOPHER 0.0000
-2.5065 <s> COME 0.0000
-2.8075 <s> CORNFLAKES 0.0000
-2.8075 <s> COUCH 0.0000
-2.8075 <s> CUP 0.0000
-2.8075 <s> CYNTHIA 0.0000
-2.5065 <s> DANIEL 0.0000
-2.5065 <s> DAVID 0.0000
-2.8075 <s> DEBORAH 0.0000
-2.8075 <s> DEBRA 0.0000
-2.8075 <s> DENNIS 0.0000
-2.8075 <s> DIANE 0.0000
-2.8075 <s> DINING -0.2218
-2.8075 <s> DONALD 0.0000
-2.8075 <s> DONNA 0.0000
-2.8075 <s> DOOR 0.0000
-2.8075 <s> DORIS 0.0000
-2.8075 <s> DOROTHY 0.0000
-2.8075 <s> DOUGLAS 0.0000
-2.8075 <s> EDWARD 0.0000
-2.5065 <s> ELIZABETH 0.0000
-2.8075 <s> ERIC 0.0000
-2.8075 <s> EVELYN 0.0000
-2.5065 <s> FOLLOW 0.0000
-2.8075 <s> FOOD 0.0000
-2.8075 <s> FOR -0.2218
-2.8075 <s> FRANCES 0.0000
-2.8075 <s> FRANK 0.0000
-2.8075 <s> FRONT -0.1761
-2.8075 <s> GARY 0.0000
-2.8075 <s> GEORGE 0.0000
-1.4853 <s> GET 0.0000
-2.8075 <s> GLASS 0.0000
-2.8075 <s> GLORIA 0.0000
-1.7661 <s> GO 0.0000
-2.5065 <s> GOOD 0.0000
-2.8075 <s> GREEN -0.2218
-2.8075 <s> GREGORY 0.0000
-2.8075 <s> HALT 0.0000
-2.8075 <s> HAPPY 0.0000
-2.8075 <s> HAROLD 0.0000
-2.3304 <s> HEAD 0.0000
-2.5065 <s> HEATHER 0.0000
-2.8075 <s> HELEN 0.0000
-1.4853 <s> HELLO 0.0000
-2.8075 <s> HENRY 0.0000
-2.8075 <s> IS -0.2967
-2.8075 <s> JACK 0.0000
-2.5065 <s> JAMES 0.0000
-2.8075 <s> JANET 0.0000
-2.8075 <s> JASON 0.0000
-2.8075 <s> JEAN 0.0000
-2.8075 <s> JEFFREY 0.0000
-2.5065 <s> JENNIFER 0.0000
-2.8075 <s> JERRY 0.0000
-2.5065 <s> JESSICA 0.0000
-2.8075 <s> JOB 0.0000
-2.8075 <s> JOE 0.0000
-2.5065 <s> JOHN 0.0000
-2.8075 <s> JOSE 0.0000
-2.5065 <s> JOSEPH 0.0000
-2.5065 <s> JOSHUA 0.0000
-2.8075 <s> JOYCE 0.0000
-2.8075 <s> JUAN 0.0000
-2.8075 <s> JULIE 0.0000
-2.8075 <s> KAREN 0.0000
-2.8075 <s> KATHLEEN 0.0000
-2.8075 <s> KENNETH 0.0000
-2.8075 <s> KEVIN 0.0000
-2.8075 <s> KIMBERLY 0.0000
-2.8075 <s> KITCHEN -0.1249
-2.8075 <s> LARRY 0.0000
-2.8075 <s> LAURA 0.0000
-2.8075 <s> LEFT 0.0000
-2.8075 <s> LEMON -0.2218
-2.8075 <s> LEMONADE 0.0000
-2.8075 <s> LINDA 0.0000
-2.8075 <s> LISA 0.0000
-2.8075 <s> LIVING -0.1761
-2.8075 <s> MARGARET 0.0000
-2.8075 <s> MARIA 0.0000
-2.8075 <s> MARIE 0.0000
-2.8075 <s> MARK 0.0000
-2.8075 <s> MARTHA 0.0000
-2.8075 <s> MARY 0.0000
-2.5065 <s> MATTHEW 0.0000
-2.8075 <s> ME -0.2856
-2.5065 <s> MELISSA 0.0000
-2.8075 <s> METAL -0.2218
-2.5065 <s> MICHAEL 0.0000
-2.8075 <s> MICHELLE 0.0000
-2.8075 <s> MILK 0.0000
-2.8075 <s> MILO 0.0000
-1.4853 <s> MY 0.0000
-2.8075 <s> NAME -0.2957
-2.8075 <s> NANCY 0.0000
-2.8075 <s> NEUTRAL 0.0000
-2.8075 <s> NICOLE 0.0000
-2.5065 <s> NO 0.0000
-2.8075 <s> ORIGINAL -0.2218
-2.8075 <s> PAMELA 0.0000
-2.8075 <s> PAPER -0.2218
-2.8075 <s> PARTY 0.0000
-2.8075 <s> PATRICIA 0.0000
-2.8075 <s> PATRICK 0.0000
-2.8075 <s> PAUL 0.0000
-2.8075 <s> PETER 0.0000
-2.8075 <s> PRINGLES 0.0000
-2.8075 <s> RAYMOND 0.0000
-2.8075 <s> REBECCA 0.0000
-2.8075 <s> RED -0.2218
-2.8075 <s> RICHARDS 0.0000
-2.8075 <s> RIGHT 0.0000
-2.5065 <s> ROBERT 0.0000
-2.8075 <s> ROGER 0.0000
-2.8075 <s> RONALD 0.0000
-2.8075 <s> ROOM 0.0000
-2.8075 <s> ROTATE 0.0000
-2.8075 <s> RUTH 0.0000
-2.8075 <s> RYAN 0.0000
-2.8075 <s> SAD 0.0000
-2.8075 <s> SANDRA 0.0000
-2.5065 <s> SARAH 0.0000
-2.5065 <s> SAY 0.0000
-2.8075 <s> SCOTT 0.0000
-2.8075 <s> SEA -0.2218
-2.8075 <s> SEVEN -0.2218
-2.8075 <s> SHARON 0.0000
-2.8075 <s> SHIRLEY 0.0000
-2.8075 <s> SIDEBOARD 0.0000
-2.8075 <s> SOFA 0.0000
-2.8075 <s> SPOONS 0.0000
-2.5065 <s> STEPHANIE 0.0000
-2.8075 <s> STEPHEN 0.0000
-2.8075 <s> STEVEN 0.0000
-2.3304 <s> STOP 0.0000
-2.8075 <s> STOVE 0.0000
-2.8075 <s> SUPRISED 0.0000
-2.8075 <s> SUSAN 0.0000
-2.8075 <s> TABLE 0.0000
-2.8075 <s> TEA 0.0000
-2.8075 <s> TERESA 0.0000
-2.5065 <s> THANK 0.0000
-2.8075 <s> THE -0.2973
-1.8075 <s> THIS 0.0000
-2.8075 <s> THOMAS 0.0000
-2.8075 <s> TIMOTHY 0.0000
-2.8075 <s> TO -0.2632
-2.8075 <s> TOILET 0.0000
-2.8075 <s> TOUCH 0.0000
-2.8075 <s> UP 0.0000
-2.8075 <s> VIRGINIA 0.0000
-2.8075 <s> WALTER 0.0000
-2.8075 <s> WATER 0.0000
-2.8075 <s> WHAT 0.0000
-2.8075 <s> WILLIAM 0.0000
-2.8075 <s> WINK 0.0000
-2.8075 <s> WITH -0.1761
-2.5065 <s> YES 0.0000
-2.8075 <s> YOGURT 0.0000
-0.3010 ALBERT </s> -0.3010
-0.3010 ALICE </s> -0.3010
-0.3010 AMANDA </s> -0.3010
-0.3010 AMY </s> -0.3010
-0.3010 ANDREW </s> -0.3010
-0.3010 ANGELA </s> -0.3010
-0.3010 ANGRY </s> -0.3010
-0.3010 ANN </s> -0.3010
-0.3010 ANNA </s> -0.3010
-0.3010 ANTHONY </s> -0.3010
-0.3010 ARMCHAIR </s> -0.3010
-0.3010 ARTHUR </s> -0.3010
-0.3010 ASHLEY </s> -0.3010
-0.6021 BACK </s> -0.3010
-0.6021 BACK DOOR 0.0000
-0.3010 BACKWARD </s> -0.3010
-0.3010 BARBARA </s> -0.3010
-0.6021 BATH </s> -0.3010
-0.6021 BATH ROOM 0.0000
-0.3010 BED </s> -0.3010
-0.3010 BEDROOM </s> -0.3010
-0.3010 BEER </s> -0.3010
-0.3010 BETTY </s> -0.3010
-0.3010 BISCUITS </s> -0.3010
-0.3010 BRENDA </s> -0.3010
-0.3010 BRIAN </s> -0.3010
-1.6232 BRING </s> -0.3010
-0.3222 BRING ME -0.0293
-0.3010 CARL </s> -0.3010
-0.3010 CAROL </s> -0.3010
-0.3010 CAROLYN </s> -0.3010
-0.3010 CATHERINE </s> -0.3010
-0.3010 CHARLES </s> -0.3010
-0.3010 CHEESE </s> -0.3010
-0.3010 CHERYL </s> -0.3010
-0.3010 CHIPS </s> -0.3010
-0.3010 CHRISTINE </s> -0.3010
-0.3010 CHRISTOPHER </s> -0.3010
-0.6021 COME </s> -0.3010
-0.6021 COME WITH -0.1761
-0.3010 CORNFLAKES </s> -0.3010
-0.3010 COUCH </s> -0.3010
-0.3010 CUP </s> -0.3010
-0.3010 CYNTHIA </s> -0.3010
-0.3010 DANIEL </s> -0.3010
-0.3010 DAVID </s> -0.3010
-0.3010 DEBORAH </s> -0.3010
-0.3010 DEBRA </s> -0.3010
-0.3010 DENNIS </s> -0.3010
-0.3010 DIANE </s> -0.3010
-0.7782 DINING </s> -0.3010
-0.7782 DINING ROOM 0.0000
-0.7782 DINING TABLE 0.0000
-0.3010 DO YOU -0.1761
-0.3010 DONALD </s> -0.3010
-0.3010 DONNA </s> -0.3010
-0.3010 DOOR </s> -0.3010
-0.3010 DORIS </s> -0.3010
-0.3010 DOROTHY </s> -0.3010
-0.3010 DOUGLAS </s> -0.3010
-0.3010 EDWARD </s> -0.3010
-0.3010 ELIZABETH </s> -0.3010
-0.3010 ERIC </s> -0.3010
-0.3010 EVELYN </s> -0.3010
-0.6021 FOLLOW </s> -0.3010
-0.6021 FOLLOW ME -0.2856
-0.3010 FOOD </s> -0.3010
-0.7782 FOR </s> -0.3010
-0.4771 FOR THE -0.2935
-0.3010 FOWARD </s> -0.3010
-0.3010 FRANCES </s> -0.3010
-0.3010 FRANK </s> -0.3010
-0.6021 FRONT </s> -0.3010
-0.6021 FRONT DOOR 0.0000
-0.3010 GARY </s> -0.3010
-0.3010 GEORGE </s> -0.3010
-1.6232 GET </s> -0.3010
-0.3222 GET ME -0.0293
-0.3010 GLASS </s> -0.3010
-0.3010 GLORIA </s> -0.3010
-1.0414 GO </s> -0.3010
-1.3424 GO BACKWARD 0.0000
-1.3424 GO FOWARD 0.0000
-1.3424 GO LEFT 0.0000
-1.3424 GO RIGHT 0.0000
-0.6435 GO TO -0.0669
-0.6021 GOOD </s> -0.3010
-0.6021 GOOD JOB 0.0000
-0.7782 GREEN </s> -0.3010
-0.4771 GREEN TEA 0.0000
-0.3010 GREGORY </s> -0.3010
-0.3010 HALT </s> -0.3010
-0.3010 HAPPY </s> -0.3010
-0.3010 HAROLD </s> -0.3010
-0.7782 HEAD </s> -0.3010
-0.4771 HEAD FOR -0.1249
-0.3010 HEATHER </s> -0.3010
-0.3010 HELEN </s> -0.3010
-1.3424 HELLO </s> -0.3010
-0.3424 HELLO MY -0.0105
-0.3010 HENRY </s> -0.3010
-2.0000 IS </s> -0.3010
-1.6990 IS AMANDA 0.0000
-1.6990 IS ASHLEY 0.0000
-1.6990 IS CHRISTOPHER 0.0000
-1.6990 IS DANIEL 0.0000
-1.6990 IS DAVID 0.0000
-1.6990 IS ELIZABETH 0.0000
-1.6990 IS HEATHER 0.0000
-1.6990 IS JAMES 0.0000
-1.6990 IS JENNIFER 0.0000
-1.6990 IS JESSICA 0.0000
-1.6990 IS JOHN 0.0000
-1.6990 IS JOSEPH 0.0000
-1.6990 IS JOSHUA 0.0000
-1.6990 IS MATTHEW 0.0000
-1.6990 IS MELISSA 0.0000
-1.6990 IS MICHAEL 0.0000
-1.6990 IS NICOLE 0.0000
-1.6990 IS ROBERT 0.0000
-1.6990 IS SARAH 0.0000
-1.6990 IS STEPHANIE 0.0000
-1.0458 IS THE -0.2578
-0.3010 JACK </s> -0.3010
-0.3010 JAMES </s> -0.3010
-0.3010 JANET </s> -0.3010
-0.3010 JASON </s> -0.3010
-0.3010 JEAN </s> -0.3010
-0.3010 JEFFREY </s> -0.3010
-0.3010 JENNIFER </s> -0.3010
-0.3010 JERRY </s> -0.3010
-0.3010 JESSICA </s> -0.3010
-0.3010 JOB </s> -0.3010
-0.3010 JOE </s> -0.3010
-0.3010 JOHN </s> -0.3010
-0.3010 JOSE </s> -0.3010
-0.3010 JOSEPH </s> -0.3010
-0.3010 JOSHUA </s> -0.3010
-0.3010 JOYCE </s> -0.3010
-0.3010 JUAN </s> -0.3010
-0.3010 JULIE </s> -0.3010
-0.3010 KAREN </s> -0.3010
-0.3010 KATHLEEN </s> -0.3010
-0.3010 KENNETH </s> -0.3010
-0.3010 KEVIN </s> -0.3010
-0.3010 KIMBERLY </s> -0.3010
-0.4771 KITCHEN </s> -0.3010
-0.7782 KITCHEN TABLE 0.0000
-0.3010 LARRY </s> -0.3010
-0.3010 LAURA </s> -0.3010
-0.3010 LEFT </s> -0.3010
-0.7782 LEMON </s> -0.3010
-0.4771 LEMON PRINGLES 0.0000
-0.3010 LEMONADE </s> -0.3010
-0.3010 LINDA </s> -0.3010
-0.3010 LISA </s> -0.3010
-0.6021 LIVING </s> -0.3010
-0.6021 LIVING ROOM 0.0000
-0.3010 MARGARET </s> -0.3010
-0.3010 MARIA </s> -0.3010
-0.3010 MARIE </s> -0.3010
-0.3010 MARK </s> -0.3010
-0.3010 MARTHA </s> -0.3010
-0.3010 MARY </s> -0.3010
-0.3010 MATTHEW </s> -0.3010
-1.4574 ME </s> -0.3010
-0.3324 ME THE -0.1174
-0.3010 MELISSA </s> -0.3010
-0.7782 METAL </s> -0.3010
-0.4771 METAL CUP 0.0000
-0.3010 MICHAEL </s> -0.3010
-0.3010 MICHELLE </s> -0.3010
-0.3010 MILK </s> -0.3010
-0.3010 MILO </s> -0.3010
-1.9138 MY </s> -0.3010
-0.3118 MY NAME -0.0105
-1.9138 NAME </s> -0.3010
-0.3118 NAME IS -0.0792
-0.3010 NANCY </s> -0.3010
-0.3010 NEUTRAL </s> -0.3010
-0.3010 NICOLE </s> -0.3010
-0.3010 NO </s> -0.3010
-0.3010 ON THE -0.2973
-0.7782 ORIGINAL </s> -0.3010
-0.4771 ORIGINAL PRINGLES 0.0000
-0.3010 PAMELA </s> -0.3010
-0.7782 PAPER </s> -0.3010
-0.4771 PAPER CUP 0.0000
-0.3010 PARTY </s> -0.3010
-0.3010 PATRICIA </s> -0.3010
-0.3010 PATRICK </s> -0.3010
-0.3010 PAUL </s> -0.3010
-0.3010 PETER </s> -0.3010
-0.3010 PRINGLES </s> -0.3010
-0.3010 RAYMOND </s> -0.3010
-0.3010 REBECCA </s> -0.3010
-0.7782 RED </s> -0.3010
-0.4771 RED CUP 0.0000
-0.3010 RICHARDS </s> -0.3010
-0.3010 RIGHT </s> -0.3010
-0.3010 ROBERT </s> -0.3010
-0.3010 ROGER </s> -0.3010
-0.3010 RONALD </s> -0.3010
-0.3010 ROOM </s> -0.3010
-0.3010 ROTATE </s> -0.3010
-0.3010 RUTH </s> -0.3010
-0.3010 RYAN </s> -0.3010
-0.3010 SAD </s> -0.3010
-0.3010 SANDRA </s> -0.3010
-0.3010 SARAH </s> -0.3010
-0.6021 SAY </s> -0.3010
-0.6021 SAY HELLO -0.2808
-0.3010 SCOTT </s> -0.3010
-0.7782 SEA </s> -0.3010
-0.4771 SEA FOOD 0.0000
-0.3010 SEE ON 0.0000
-0.7782 SEVEN </s> -0.3010
-0.4771 SEVEN UP 0.0000
-0.3010 SHARON </s> -0.3010
-0.3010 SHIRLEY </s> -0.3010
-0.3010 SIDEBOARD </s> -0.3010
-0.3010 SOFA </s> -0.3010
-0.3010 SPOONS </s> -0.3010
-0.3010 STEPHANIE </s> -0.3010
-0.3010 STEPHEN </s> -0.3010
-0.3010 STEVEN </s> -0.3010
-0.3010 STOP </s> -0.3010
-0.3010 STOVE </s> -0.3010
-0.3010 SUPRISED </s> -0.3010
-0.3010 SUSAN </s> -0.3010
-0.3010 TABLE </s> -0.3010
-0.3010 TEA </s> -0.3010
-0.3010 TERESA </s> -0.3010
-0.6021 THANK </s> -0.3010
-0.6021 THANK YOU -0.1761
-2.0645 THE </s> -0.3010
-2.0645 THE ARMCHAIR 0.0000
-2.0645 THE BACK -0.1761
-2.0645 THE BATH -0.1761
-2.0645 THE BED 0.0000
-2.0645 THE BEDROOM 0.0000
-1.7634 THE BEER 0.0000
-1.7634 THE BISCUITS 0.0000
-1.7634 THE CHEESE 0.0000
-1.7634 THE CHIPS 0.0000
-1.7634 THE CORNFLAKES 0.0000
-2.0645 THE COUCH 0.0000
-1.7634 THE DINING -0.1249
-2.0645 THE FRONT -0.1761
-1.7634 THE GLASS 0.0000
-1.7634 THE GREEN -0.1249
-1.7634 THE KITCHEN 0.0000
-1.7634 THE LEMON -0.1249
-1.7634 THE LEMONADE 0.0000
-2.0645 THE LIVING -0.1761
-1.7634 THE METAL -0.1249
-1.7634 THE MILK 0.0000
-1.7634 THE MILO 0.0000
-1.7634 THE ORIGINAL -0.1249
-1.7634 THE PAPER -0.1249
-1.7634 THE RED -0.1249
-1.7634 THE SEA -0.1249
-1.7634 THE SEVEN -0.1249
-2.0645 THE SIDEBOARD 0.0000
-2.0645 THE SOFA 0.0000
-1.7634 THE SPOONS 0.0000
-2.0645 THE STOVE 0.0000
-2.0645 THE TABLE 0.0000
-2.0645 THE TOILET 0.0000
-1.7634 THE WATER 0.0000
-1.7634 THE YOGURT 0.0000
-1.3010 THIS </s> -0.3010
-0.3468 THIS IS -0.2601
-0.3010 THOMAS </s> -0.3010
-0.3010 TIMOTHY </s> -0.3010
-1.0792 TO </s> -0.3010
-0.3802 TO THE -0.2740
-0.3010 TOILET </s> -0.3010
-0.3010 TOUCH </s> -0.3010
-0.3010 UP </s> -0.3010
-0.3010 VIRGINIA </s> -0.3010
-0.3010 WALTER </s> -0.3010
-0.3010 WATER </s> -0.3010
-0.3010 WHAT DO 0.0000
-0.3010 WILLIAM </s> -0.3010
-0.3010 WINK </s> -0.3010
-0.6021 WITH </s> -0.3010
-0.6021 WITH ME -0.2856
-0.3010 YES </s> -0.3010
-0.3010 YOGURT </s> -0.3010
-0.6021 YOU </s> -0.3010
-0.6021 YOU SEE 0.0000

\3-grams:
-0.3010 <s> ALBERT </s>
-0.3010 <s> ALICE </s>
-0.3010 <s> AMANDA </s>
-0.3010 <s> AMY </s>
-0.3010 <s> ANDREW </s>
-0.3010 <s> ANGELA </s>
-0.3010 <s> ANGRY </s>
-0.3010 <s> ANN </s>
-0.3010 <s> ANNA </s>
-0.3010 <s> ANTHONY </s>
-0.3010 <s> ARMCHAIR </s>
-0.3010 <s> ARTHUR </s>
-0.3010 <s> ASHLEY </s>
-0.3010 <s> BACK </s>
-0.3010 <s> BARBARA </s>
-0.3010 <s> BATH </s>
-0.3010 <s> BED </s>
-0.3010 <s> BEDROOM </s>
-0.3010 <s> BEER </s>
-0.3010 <s> BETTY </s>
-0.3010 <s> BISCUITS </s>
-0.3010 <s> BRENDA </s>
-0.3010 <s> BRIAN </s>
-1.6232 <s> BRING </s>
-0.3222 <s> BRING ME
-0.3010 <s> CARL </s>
-0.3010 <s> CAROL </s>
-0.3010 <s> CAROLYN </s>
-0.3010 <s> CATHERINE </s>
-0.3010 <s> CHARLES </s>
-0.3010 <s> CHEESE </s>
-0.3010 <s> CHERYL </s>
-0.3010 <s> CHIPS </s>
-0.3010 <s> CHRISTINE </s>
-0.3010 <s> CHRISTOPHER </s>
-0.6021 <s> COME </s>
-0.6021 <s> COME WITH
-0.3010 <s> CORNFLAKES </s>
-0.3010 <s> COUCH </s>
-0.3010 <s> CUP </s>
-0.3010 <s> CYNTHIA </s>
-0.3010 <s> DANIEL </s>
-0.3010 <s> DAVID </s>
-0.3010 <s> DEBORAH </s>
-0.3010 <s> DEBRA </s>
-0.3010 <s> DENNIS </s>
-0.3010 <s> DIANE </s>
-0.3010 <s> DINING </s>
-0.3010 <s> DONALD </s>
-0.3010 <s> DONNA </s>
-0.3010 <s> DOOR </s>
-0.3010 <s> DORIS </s>
-0.3010 <s> DOROTHY </s>
-0.3010 <s> DOUGLAS </s>
-0.3010 <s> EDWARD </s>
-0.3010 <s> ELIZABETH </s>
-0.3010 <s> ERIC </s>
-0.3010 <s> EVELYN </s>
-0.6021 <s> FOLLOW </s>
-0.6021 <s> FOLLOW ME
-0.3010 <s> FOOD </s>
-0.3010 <s> FOR </s>
-0.3010 <s> FRANCES </s>
-0.3010 <s> FRANK </s>
-0.3010 <s> FRONT </s>
-0.3010 <s> GARY </s>
-0.3010 <s> GEORGE </s>
-1.6232 <s> GET </s>
-0.3222 <s> GET ME
-0.3010 <s> GLASS </s>
-0.3010 <s> GLORIA </s>
-1.0414 <s> GO </s>
-1.3424 <s> GO BACKWARD
-1.3424 <s> GO FOWARD
-1.3424 <s> GO LEFT
-1.3424 <s> GO RIGHT
-0.6435 <s> GO TO
-0.6021 <s> GOOD </s>
-0.6021 <s> GOOD JOB
-0.3010 <s> GREEN </s>
-0.3010 <s> GREGORY </s>
-0.3010 <s> HALT </s>
-0.3010 <s> HAPPY </s>
-0.3010 <s> HAROLD </s>
-0.7782 <s> HEAD </s>
-0.4771 <s> HEAD FOR
-0.3010 <s> HEATHER </s>
-0.3010 <s> HELEN </s>
-1.6232 <s> HELLO </s>
-0.3222 <s> HELLO MY
-0.3010 <s> HENRY </s>
-0.3010 <s> IS </s>
-0.3010 <s> JACK </s>
-0.3010 <s> JAMES </s>
-0.3010 <s> JANET </s>
-0.3010 <s> JASON </s>
-0.3010 <s> JEAN </s>
-0.3010 <s> JEFFREY </s>
-0.3010 <s> JENNIFER </s>
-0.3010 <s> JERRY </s>
-0.3010 <s> JESSICA </s>
-0.3010 <s> JOB </s>
-0.3010 <s> JOE </s>
-0.3010 <s> JOHN </s>
-0.3010 <s> JOSE </s>
-0.3010 <s> JOSEPH </s>
-0.3010 <s> JOSHUA </s>
-0.3010 <s> JOYCE </s>
-0.3010 <s> JUAN </s>
-0.3010 <s> JULIE </s>
-0.3010 <s> KAREN </s>
-0.3010 <s> KATHLEEN </s>
-0.3010 <s> KENNETH </s>
-0.3010 <s> KEVIN </s>
-0.3010 <s> KIMBERLY </s>
-0.3010 <s> KITCHEN </s>
-0.3010 <s> LARRY </s>
-0.3010 <s> LAURA </s>
-0.3010 <s> LEFT </s>
-0.3010 <s> LEMON </s>
-0.3010 <s> LEMONADE </s>
-0.3010 <s> LINDA </s>
-0.3010 <s> LISA </s>
-0.3010 <s> LIVING </s>
-0.3010 <s> MARGARET </s>
-0.3010 <s> MARIA </s>
-0.3010 <s> MARIE </s>
-0.3010 <s> MARK </s>
-0.3010 <s> MARTHA </s>
-0.3010 <s> MARY </s>
-0.3010 <s> MATTHEW </s>
-0.3010 <s> ME </s>
-0.3010 <s> MELISSA </s>
-0.3010 <s> METAL </s>
-0.3010 <s> MICHAEL </s>
-0.3010 <s> MICHELLE </s>
-0.3010 <s> MILK </s>
-0.3010 <s> MILO </s>
-1.6232 <s> MY </s>
-0.3222 <s> MY NAME
-0.3010 <s> NAME </s>
-0.3010 <s> NANCY </s>
-0.3010 <s> NEUTRAL </s>
-0.3010 <s> NICOLE </s>
-0.3010 <s> NO </s>
-0.3010 <s> ORIGINAL </s>
-0.3010 <s> PAMELA </s>
-0.3010 <s> PAPER </s>
-0.3010 <s> PARTY </s>
-0.3010 <s> PATRICIA </s>
-0.3010 <s> PATRICK </s>
-0.3010 <s> PAUL </s>
-0.3010 <s> PETER </s>
-0.3010 <s> PRINGLES </s>
-0.3010 <s> RAYMOND </s>
-0.3010 <s> REBECCA </s>
-0.3010 <s> RED </s>
-0.3010 <s> RICHARDS </s>
-0.3010 <s> RIGHT </s>
-0.3010 <s> ROBERT </s>
-0.3010 <s> ROGER </s>
-0.3010 <s> RONALD </s>
-0.3010 <s> ROOM </s>
-0.3010 <s> ROTATE </s>
-0.3010 <s> RUTH </s>
-0.3010 <s> RYAN </s>
-0.3010 <s> SAD </s>
-0.3010 <s> SANDRA </s>
-0.3010 <s> SARAH </s>
-0.6021 <s> SAY </s>
-0.6021 <s> SAY HELLO
-0.3010 <s> SCOTT </s>
-0.3010 <s> SEA </s>
-0.3010 <s> SEVEN </s>
-0.3010 <s> SHARON </s>
-0.3010 <s> SHIRLEY </s>
-0.3010 <s> SIDEBOARD </s>
-0.3010 <s> SOFA </s>
-0.3010 <s> SPOONS </s>
-0.3010 <s> STEPHANIE </s>
-0.3010 <s> STEPHEN </s>
-0.3010 <s> STEVEN </s>
-0.3010 <s> STOP </s>
-0.3010 <s> STOVE </s>
-0.3010 <s> SUPRISED </s>
-0.3010 <s> SUSAN </s>
-0.3010 <s> TABLE </s>
-0.3010 <s> TEA </s>
-0.3010 <s> TERESA </s>
-0.6021 <s> THANK </s>
-0.6021 <s> THANK YOU
-0.3010 <s> THE </s>
-1.3010 <s> THIS </s>
-0.3468 <s> THIS IS
-0.3010 <s> THOMAS </s>
-0.3010 <s> TIMOTHY </s>
-0.3010 <s> TO </s>
-0.3010 <s> TOILET </s>
-0.3010 <s> TOUCH </s>
-0.3010 <s> UP </s>
-0.3010 <s> VIRGINIA </s>
-0.3010 <s> WALTER </s>
-0.3010 <s> WATER </s>
-0.3010 <s> WHAT DO
-0.3010 <s> WILLIAM </s>
-0.3010 <s> WINK </s>
-0.3010 <s> WITH </s>
-0.3010 <s> YES </s>
-0.3010 <s> YOGURT </s>
-0.3010 BACK DOOR </s>
-0.3010 BATH ROOM </s>
-0.3010 BRING ME THE
-0.3010 COME WITH ME
-0.3010 DINING ROOM </s>
-0.3010 DINING TABLE </s>
-0.3010 DO YOU SEE
-0.3010 FOLLOW ME </s>
-0.6021 FOR THE BACK
-0.6021 FOR THE FRONT
-0.3010 FRONT DOOR </s>
-0.3010 GET ME THE
-0.3010 GO BACKWARD </s>
-0.3010 GO FOWARD </s>
-0.3010 GO LEFT </s>
-0.3010 GO RIGHT </s>
-0.3010 GO TO THE
-0.3010 GOOD JOB </s>
-0.3010 GREEN TEA </s>
-0.3010 HEAD FOR THE
-0.3010 HELLO MY NAME
-0.3010 IS AMANDA </s>
-0.3010 IS ASHLEY </s>
-0.3010 IS CHRISTOPHER </s>
-0.3010 IS DANIEL </s>
-0.3010 IS DAVID </s>
-0.3010 IS ELIZABETH </s>
-0.3010 IS HEATHER </s>
-0.3010 IS JAMES </s>
-0.3010 IS JENNIFER </s>
-0.3010 IS JESSICA </s>
-0.3010 IS JOHN </s>
-0.3010 IS JOSEPH </s>
-0.3010 IS JOSHUA </s>
-0.3010 IS MATTHEW </s>
-0.3010 IS MELISSA </s>
-0.3010 IS MICHAEL </s>
-0.3010 IS NICOLE </s>
-0.3010 IS ROBERT </s>
-0.3010 IS SARAH </s>
-0.3010 IS STEPHANIE </s>
-1.2553 IS THE ARMCHAIR
-1.2553 IS THE BED
-1.2553 IS THE COUCH
-1.2553 IS THE DINING
-1.2553 IS THE KITCHEN
-1.2553 IS THE SIDEBOARD
-1.2553 IS THE SOFA
-1.2553 IS THE STOVE
-1.2553 IS THE TOILET
-0.3010 KITCHEN TABLE </s>
-0.3010 LEMON PRINGLES </s>
-0.3010 LIVING ROOM </s>
-1.6021 ME THE BEER
-1.6021 ME THE BISCUITS
-1.6021 ME THE CHEESE
-1.6021 ME THE CHIPS
-1.6021 ME THE CORNFLAKES
-1.6021 ME THE GLASS
-1.6021 ME THE GREEN
-1.6021 ME THE LEMON
-1.6021 ME THE LEMONADE
-1.6021 ME THE METAL
-1.6021 ME THE MILK
-1.6021 ME THE MILO
-1.6021 ME THE ORIGINAL
-1.6021 ME THE PAPER
-1.6021 ME THE RED
-1.6021 ME THE SEA
-1.6021 ME THE SEVEN
-1.6021 ME THE SPOONS
-1.6021 ME THE WATER
-1.6021 ME THE YOGURT
-0.3010 METAL CUP </s>
-0.3010 MY NAME IS
-1.6021 NAME IS AMANDA
-1.6021 NAME IS ASHLEY
-1.6021 NAME IS CHRISTOPHER
-1.6021 NAME IS DANIEL
-1.6021 NAME IS DAVID
-1.6021 NAME IS ELIZABETH
-1.6021 NAME IS HEATHER
-1.6021 NAME IS JAMES
-1.6021 NAME IS JENNIFER
-1.6021 NAME IS JESSICA
-1.6021 NAME IS JOHN
-1.6021 NAME IS JOSEPH
-1.6021 NAME IS JOSHUA
-1.6021 NAME IS MATTHEW
-1.6021 NAME IS MELISSA
-1.6021 NAME IS MICHAEL
-1.6021 NAME IS NICOLE
-1.6021 NAME IS ROBERT
-1.6021 NAME IS SARAH
-1.6021 NAME IS STEPHANIE
-0.3010 ON THE TABLE
-0.3010 ORIGINAL PRINGLES </s>
-0.3010 PAPER CUP </s>
-0.3010 RED CUP </s>
-0.3010 SAY HELLO </s>
-0.3010 SEA FOOD </s>
-0.3010 SEE ON THE
-0.3010 SEVEN UP </s>
-0.3010 THANK YOU </s>
-0.3010 THE ARMCHAIR </s>
-0.3010 THE BACK DOOR
-0.3010 THE BATH ROOM
-0.3010 THE BED </s>
-0.3010 THE BEDROOM </s>
-0.3010 THE BEER </s>
-0.3010 THE BISCUITS </s>
-0.3010 THE CHEESE </s>
-0.3010 THE CHIPS </s>
-0.3010 THE CORNFLAKES </s>
-0.3010 THE COUCH </s>
-0.6021 THE DINING ROOM
-0.6021 THE DINING TABLE
-0.3010 THE FRONT DOOR
-0.3010 THE GLASS </s>
-0.3010 THE GREEN TEA
-0.6021 THE KITCHEN </s>
-0.6021 THE KITCHEN TABLE
-0.3010 THE LEMON PRINGLES
-0.3010 THE LEMONADE </s>
-0.3010 THE LIVING ROOM
-0.3010 THE METAL CUP
-0.3010 THE MILK </s>
-0.3010 THE MILO </s>
-0.3010 THE ORIGINAL PRINGLES
-0.3010 THE PAPER CUP
-0.3010 THE RED CUP
-0.3010 THE SEA FOOD
-0.3010 THE SEVEN UP
-0.3010 THE SIDEBOARD </s>
-0.3010 THE SOFA </s>
-0.3010 THE SPOONS </s>
-0.3010 THE STOVE </s>
-0.3010 THE TABLE </s>
-0.3010 THE TOILET </s>
-0.3010 THE WATER </s>
-0.3010 THE YOGURT </s>
-0.3010 THIS IS THE
-1.0000 TO THE BATH
-1.0000 TO THE BEDROOM
-1.0000 TO THE DINING
-1.0000 TO THE KITCHEN
-1.0000 TO THE LIVING
-0.3010 WHAT DO YOU
-0.3010 WITH ME </s>
-0.3010 YOU SEE ON

\end\
