Language model created by QuickLM on Mon Oct 31 00:28:27 EDT 2016
Copyright (c) 1996-2010 Carnegie Mellon University and Alexander I. Rudnicky

The model is in standard ARPA format, designed by Doug Paul while he was at MITRE.

The code that was used to produce this language model is available in Open Source.
Please visit http://www.speech.cs.cmu.edu/tools/ for more information

The (fixed) discount mass is 0.5. The backoffs are computed using the ratio method.
This model based on a corpus of 927 sentences and 913 words

\data\
ngram 1=913
ngram 2=1822
ngram 3=911

\1-grams:
-0.7782 </s> -0.3010
-0.7782 <s> -0.2218
-3.7452 AARON -0.2218
-3.7452 ABDON -0.2218
-3.7452 ABDONIE -0.2218
-3.7452 ABEL -0.2218
-3.7452 ABELIN -0.2218
-3.7452 ABELINE -0.2218
-3.7452 ABIGAELLE -0.2218
-3.7452 ABIGAïL -0.2218
-3.7452 ABONDANCE -0.2218
-3.7452 ABRAHAM -0.2218
-3.7452 ABSALON -0.2218
-3.7452 ABéLARD -0.2218
-3.7452 ACACE -0.2218
-3.7452 ACACIE -0.2218
-3.7452 ACANTHE -0.2218
-3.7452 ACHAIRE -0.2218
-3.7452 ACHILLE -0.2218
-3.7452 ADALARD -0.2218
-3.7452 ADALBALD -0.2218
-3.7452 ADALBAUDE -0.2218
-3.7452 ADALBERT -0.2218
-3.7452 ADALBéRON -0.2218
-3.7452 ADALRIC -0.2218
-3.7452 ADALSINDE -0.2218
-3.7452 ADAM -0.2218
-3.7452 ADEGRIN -0.2218
-3.7452 ADEGRINE -0.2218
-3.7452 ADEL -0.2218
-3.7452 ADELIN -0.2218
-3.7452 ADELINE -0.2218
-3.7452 ADELPHE -0.2218
-3.7452 ADELTRUDE -0.2218
-3.7452 ADENET -0.2218
-3.7452 ADHéMAR -0.2218
-3.7452 ADJUTOR -0.2218
-3.7452 ADOLPHE -0.2218
-3.7452 ADOLPHIE -0.2218
-3.7452 ADONIS -0.2218
-3.7452 ADONISE -0.2218
-3.7452 ADRASTéE -0.2218
-3.7452 ADREHILDE -0.2218
-3.7452 ADRIEN -0.2218
-3.7452 ADRIENNE -0.2218
-3.7452 ADèLE -0.2218
-3.7452 ADéLAïDE -0.2218
-3.7452 ADéLIE -0.2218
-3.7452 ADéODAT -0.2218
-3.7452 AGAPET -0.2218
-3.7452 AGATHANGE -0.2218
-3.7452 AGATHE -0.2218
-3.7452 AGATHON -0.2218
-3.7452 AGILBERT -0.2218
-3.7452 AGILBERTE -0.2218
-3.7452 AGLAé -0.2218
-3.7452 AGNAN -0.2218
-3.7452 AGNANE -0.2218
-3.7452 AGNEFLèTE -0.2218
-3.7452 AGNèS -0.2218
-3.7452 AGRIPPIN -0.2218
-3.7452 AGRIPPINE -0.2218
-3.7452 AIMABLE -0.2218
-3.7452 AIMé -0.2218
-3.7452 AIMéE -0.2218
-3.7452 ALAIN -0.2218
-3.7452 ALAINE -0.2218
-3.7452 ALAïS1 -0.2218
-3.7452 ALBAN -0.2218
-3.7452 ALBANE -0.2218
-3.7452 ALBERT -0.2218
-3.7452 ALBERTE -0.2218
-3.7452 ALBéRADE -0.2218
-3.7452 ALBéRIC -0.2218
-3.7452 ALCIBIADE -0.2218
-3.7452 ALCIDE -0.2218
-3.7452 ALCIDIE -0.2218
-3.7452 ALCIME -0.2218
-3.7452 ALCINE -0.2218
-3.7452 ALCYONE -0.2218
-3.7452 ALDEGONDE -0.2218
-3.7452 ALDONCE -0.2218
-3.7452 ALDRIC -0.2218
-3.7452 ALEAUME -0.2218
-3.7452 ALETH -0.2218
-3.7452 ALEXANDRE -0.2218
-3.7452 ALEXANDRINE -0.2218
-3.7452 ALEXINE -0.2218
-3.7452 ALEXIS -0.2218
-3.7452 ALICE -0.2218
-3.7452 ALIETTE -0.2218
-3.7452 ALINE -0.2218
-3.4442 ALIX -0.2218
-3.7452 ALIZé -0.2218
-3.7452 ALIéNOR -0.2218
-3.7452 ALLIAUME: -0.2218
-3.7452 ALMINE -0.2218
-3.7452 ALMIRE -0.2218
-3.7452 ALOYSE -0.2218
-3.7452 ALOïS -0.2218
-3.7452 ALOïSE -0.2218
-3.7452 ALPHONSE -0.2218
-3.7452 ALPHONSINE -0.2218
-3.7452 ALPHéE -0.2218
-3.7452 ALPINIEN -0.2218
-3.7452 ALTHéE -0.2218
-3.7452 ALVERèDE -0.2218
-3.7452 AMALIANE -0.2218
-3.7452 AMALRIC -0.2218
-3.7452 AMALTHéE -0.2218
-3.7452 AMANDE -0.2218
-3.7452 AMANDIN -0.2218
-3.7452 AMANDINE -0.2218
-3.7452 AMANT -0.2218
-3.7452 AMANTE -0.2218
-3.7452 AMARANDE -0.2218
-3.7452 AMARANTHE -0.2218
-3.7452 AMARYLLIS -0.2218
-3.7452 AMBRE -0.2218
-3.7452 AMBROISE -0.2218
-3.7452 AMBROISIE -0.2218
-3.7452 AMELINE -0.2218
-3.7452 AMIEL -0.2218
-3.7452 AMINTE -0.2218
-3.7452 AMOUR -0.2218
-3.7452 AMéDéE -0.2218
-3.7452 AMéLIANE -0.2218
-3.7452 AMéLIE -0.2218
-3.7452 AMéLIEN -0.2218
-3.7452 AMéTHYSTE -0.2218
-3.7452 ANASTASE -0.2218
-3.7452 ANASTASIE -0.2218
-3.7452 ANATOLE -0.2218
-3.7452 ANATOLIE -0.2218
-3.7452 ANAëL -0.2218
-3.7452 ANAëLLE -0.2218
-3.7452 ANAïS -0.2218
-3.7452 ANCELIN -0.2218
-3.7452 ANCELINE -0.2218
-3.7452 ANDOCHE -0.2218
-3.7452 ANDRé -0.2218
-3.7452 ANDRéE -0.2218
-3.7452 ANDéOL -0.2218
-3.7452 ANGADRêME -0.2218
-3.7452 ANGE -0.2218
-3.7452 ANGELINE -0.2218
-3.7452 ANGILBE -0.2218
-3.7452 ANGILBERTE -0.2218
-3.7452 ANGILRAN -0.2218
-3.7452 ANGOUSTAN -0.2218
-3.7452 ANGèLE -0.2218
-3.7452 ANGéLIQUE -0.2218
-3.7452 ANICET -0.2218
-3.7452 ANICETTE -0.2218
-3.7452 ANICéE -0.2218
-3.7452 ANNABELLE -0.2218
-3.4442 ANNE -0.2218
-3.7452 ANNETTE -0.2218
-3.7452 ANNIBAL -0.2218
-3.7452 ANNONCIADE, -0.2218
-3.7452 ANSBERT -0.2218
-3.7452 ANSBERTE -0.2218
-3.7452 ANSELME -0.2218
-3.7452 ANSTRUDIE -0.2218
-3.7452 ANTHELME -0.2218
-3.7452 ANTHELMETTE -0.2218
-3.7452 ANTIDE -0.2218
-3.7452 ANTIGONE -0.2218
-3.7452 ANTOINE -0.2218
-3.7452 ANTOINETTE -0.2218
-3.7452 ANTONIN -0.2218
-3.7452 ANTONINE -0.2218
-3.7452 ANéMONE -0.2218
-3.7452 APHéLIE -0.2218
-3.7452 APOLLINAIRE -0.2218
-3.7452 APOLLINE -0.2218
-3.7452 AQUILIN -0.2218
-3.7452 AQUILINE -0.2218
-3.7452 ARABELLE -0.2218
-3.7452 ARCADE -0.2218
-3.7452 ARCADIE -0.2218
-3.7452 ARCHAMBAUD -0.2218
-3.4442 ARCHANGE -0.2218
-3.7452 ARCHIBALD -0.2218
-3.7452 ARGINE -0.2218
-3.7452 ARIAN -0.2218
-3.7452 ARIANE -0.2218
-3.7452 ARICIE -0.2218
-3.4442 ARIEL -0.2218
-3.7452 ARIELLE -0.2218
-3.7452 ARISTE -0.2218
-3.7452 ARISTIDE -0.2218
-3.7452 ARLETTE -0.2218
-3.7452 ARMANCE -0.2218
-3.7452 ARMAND -0.2218
-3.7452 ARMANDE -0.2218
-3.7452 ARMANDINE -0.2218
-3.7452 ARMEL -0.2218
-3.7452 ARMELINE -0.2218
-3.7452 ARMELLE -0.2218
-3.7452 ARMIDE -0.2218
-3.7452 ARMIN -0.2218
-3.7452 ARMINE -0.2218
-3.7452 ARNAUD, -0.2218
-3.7452 ARNAUDE -0.2218
-3.7452 ARNOULD, -0.2218
-3.7452 AROLDE -0.2218
-3.4442 ARSINOé -0.2218
-3.7452 ARSèNE -0.2218
-3.7452 ARSèNIE -0.2218
-3.7452 ARTHAUD -0.2218
-3.7452 ARTHUR -0.2218
-3.7452 ARTHURINE -0.2218
-3.7452 ARTHèME -0.2218
-3.7452 ARTéMIS -0.2218
-3.7452 ASCELIN -0.2218
-3.7452 ASCELINE -0.2218
-3.7452 ASCENSION -0.2218
-3.7452 ASSOMPTION -0.2218
-3.7452 ASTARTé -0.2218
-3.7452 ASTRIDE -0.2218
-3.7452 ASTRéE -0.2218
-3.7452 ASTéRIE -0.2218
-3.7452 ATHALIE -0.2218
-3.7452 ATHANASE -0.2218
-3.7452 ATHANASIE -0.2218
-3.7452 ATHINA -0.2218
-3.7452 ATHéNAïS -0.2218
-3.7452 AUBE -0.2218
-3.7452 AUBERTINE -0.2218
-3.7452 AUBRY -0.2218
-3.7452 AUDE -0.2218
-3.7452 AUDEBERT -0.2218
-3.7452 AUDELINE -0.2218
-3.7452 AUDOUIN -0.2218
-3.7452 AUDRAN -0.2218
-3.7452 AUDREY -0.2218
-3.7452 AUGUSTE -0.2218
-3.7452 AUGUSTINE -0.2218
-3.7452 AURE -0.2218
-3.7452 AURELLE -0.2218
-3.7452 AURIAN -0.2218
-3.7452 AURIANE -0.2218
-3.7452 AURORE -0.2218
-3.7452 AURèLE -0.2218
-3.7452 AURéLIE -0.2218
-3.7452 AURéLIENNE -0.2218
-3.7452 AUXANE -0.2218
-3.7452 AUXENCE -0.2218
-3.7452 AVELINE -0.2218
-3.7452 AVIGAëLLE -0.2218
-3.7452 AVOYE -0.2218
-3.7452 AXEL -0.2218
-3.7452 AXELINE -0.2218
-3.7452 AXELLE -0.2218
-3.7452 AYMARD -0.2218
-3.7452 AYMARDINE -0.2218
-3.7452 AYMERIC -0.2218
-3.7452 AYMON -0.2218
-3.7452 AYMONDE -0.2218
-3.7452 AZALéE -0.2218
-3.7452 AZELINE -0.2218
-3.7452 AZéLIE -0.2218
-3.7452 BALTHAZAR -0.2218
-3.7452 BAPTISTE -0.2218
-3.7452 BARBE -0.2218
-3.7452 BARNABé -0.2218
-3.7452 BARTHéLEMY -0.2218
-3.7452 BARTIMéE -0.2218
-3.7452 BASILE -0.2218
-3.7452 BASILISSE -0.2218
-3.7452 BASTIEN -0.2218
-3.7452 BATHILDE -0.2218
-3.7452 BAUDOUIN -0.2218
-3.7452 BENJAMIN -0.2218
-3.7452 BENOîT -0.2218
-3.7452 BERNADETTE -0.2218
-3.7452 BERNARD -0.2218
-3.7452 BERTHE -0.2218
-3.7452 BERTILLE -0.2218
-3.7452 BERTRAND -0.2218
-3.7452 BEUVE -0.2218
-3.7452 BLAISE -0.2218
-3.7452 BLANCHE -0.2218
-3.7452 BLANDINE -0.2218
-3.7452 BON -0.2218
-3.7452 BONIFACE -0.2218
-3.7452 BOUCHARD -0.2218
-3.7452 BRICE -0.2218
-3.7452 BRIEUC -0.2218
-3.7452 BRIGITTE -0.2218
-3.7452 BRUNEHAUT -0.2218
-3.7452 BRUNEHILDE -0.2218
-3.7452 BRUNO -0.2218
-3.7452 BéATRICE -0.2218
-3.7452 BéNIGNE -0.2218
-3.7452 BéNéDICTE -0.2218
-3.7452 BéRANGER -0.2218
-3.7452 BéRANGèRE -0.2218
-3.7452 BéRARD -0.2218
-3.7452 CALIXTE -0.2218
-3.4442 CAMILLE -0.2218
-3.7452 CAMILLIEN -0.2218
-3.7452 CAMéLIEN -0.2218
-3.7452 CANDIDE -0.2218
-3.7452 CAPUCINE -0.2218
-3.7452 CARIBERT -0.2218
-3.7452 CARINE -0.2218
-3.7452 CARLOMAN -0.2218
-3.7452 CAROLINE -0.2218
-3.4442 CASSANDRE -0.2218
-3.7452 CASSIEN -0.2218
-3.7452 CATHERINE -0.2218
-3.7452 CHANTAL -0.2218
-3.7452 CHARLAINE -0.2218
-3.7452 CHARLEMAGNE -0.2218
-3.7452 CHARLES -0.2218
-3.7452 CHARLINE -0.2218
-3.7452 CHARLOTTE -0.2218
-3.7452 CHILDEBERT -0.2218
-3.7452 CHILPéRIC -0.2218
-3.7452 CHLOé -0.2218
-3.7452 CHRISTELLE -0.2218
-3.7452 CHRISTIAN -0.2218
-3.7452 CHRISTIANE -0.2218
-3.7452 CHRISTINE -0.2218
-3.7452 CHRISTODULE -0.2218
-3.7452 CHRISTOPHE -0.2218
-3.7452 CHRYSOSTOME -0.2218
-3.7452 CHRéTIEN -0.2218
-3.7452 CLAIRE -0.2218
-3.7452 CLARA -0.2218
-3.7452 CLARENCE -0.2218
-3.7452 CLARISSE -0.2218
-3.4442 CLAUDE -0.2218
-3.7452 CLAUDIEN -0.2218
-3.7452 CLAUDINE -0.2218
-3.7452 CLIO: -0.2218
-3.7452 CLOTAIRE -0.2218
-3.7452 CLOTILDE -0.2218
-3.7452 CLOVIS -0.2218
-3.7452 CLéANDRE -0.2218
-3.7452 CLéMENCE -0.2218
-3.7452 CLéMENT -0.2218
-3.7452 CLéMENTINE -0.2218
-3.7452 COLIN -0.2218
-3.7452 COLINE -0.2218
-3.7452 CONCEPTION: -0.2218
-3.7452 CONSTANCE -0.2218
-3.7452 CONSTANT -0.2218
-3.7452 CONSTANTIN -0.2218
-3.7452 CORALIE -0.2218
-3.7452 CORALINE -0.2218
-3.7452 CORENTIN -0.2218
-3.7452 CORENTINE -0.2218
-3.7452 CORINNE -0.2218
-3.7452 CYPRIEN -0.2218
-3.7452 CYRIAQUE -0.2218
-3.7452 CYRIELLE -0.2218
-3.7452 CYRILLE -0.2218
-3.7452 CéCILE -0.2218
-3.7452 CéDRIC -0.2218
-3.4442 CéLESTE -0.2218
-3.7452 CéLESTIN -0.2218
-3.7452 CéLESTINE -0.2218
-3.7452 CéLIEN -0.2218
-3.7452 CéLINE -0.2218
-3.7452 CéSAIRE -0.2218
-3.7452 CéSAR -0.2218
-3.7452 CôME -0.2218
-3.7452 DAMIEN -0.2218
-3.7452 DANIEL -0.2218
-3.7452 DANIELLE -0.2218
-3.7452 DAPHNé -0.2218
-3.7452 DAVID -0.2218
-3.7452 DELPHIN -0.2218
-3.7452 DELPHINE -0.2218
-3.7452 DENIS -0.2218
-3.7452 DENISE -0.2218
-3.7452 DIANE -0.2218
-3.7452 DIDIER -0.2218
-3.7452 DIEUDONNé -0.2218
-3.7452 DIEUDONNéE -0.2218
-3.7452 DIMITRI -0.2218
-3.4442 DOMINIQUE -0.2218
-3.7452 DORIAN -0.2218
-3.7452 DORIANE -0.2218
-3.7452 DORINE -0.2218
-3.4442 DOROTHéE -0.2218
-3.7452 DOUCE -0.2218
-3.7452 DOVE -0.2218
-3.7452 DéBORA -0.2218
-3.7452 DéSIRé -0.2218
-3.7452 EDGARD -0.2218
-3.7452 EDMOND -0.2218
-3.7452 EDMéE -0.2218
-3.7452 ELLA -0.2218
-3.7452 ELSA -0.2218
-3.7452 EMMA -0.2218
-3.7452 EMMANUEL -0.2218
-3.7452 EMMANUELLE -0.2218
-3.7452 EMMELIE -0.2218
-3.7452 ERNEST -0.2218
-3.7452 ERNESTINE -0.2218
-3.7452 ESTELLE -0.2218
-3.7452 ESTHER -0.2218
-3.7452 EUBERT -0.2218
-3.7452 EUDES -0.2218
-3.7452 EUDOXE -0.2218
-3.7452 EUDOXIE -0.2218
-3.7452 EUGèNE -0.2218
-3.7452 EUGéNIE -0.2218
-3.7452 EULALIE -0.2218
-3.7452 EUPHRASIE -0.2218
-3.7452 EUSTACHE -0.2218
-3.7452 EUSèBE -0.2218
-3.7452 EUSéBIE -0.2218
-3.7452 FABIEN -0.2218
-3.7452 FABRICE -0.2218
-3.7452 FALBA -0.2218
-3.7452 FANNY -0.2218
-3.7452 FANTINE -0.2218
-3.7452 FAUSTINE -0.2218
-3.7452 FERDINAND -0.2218
-3.7452 FERNANDE -0.2218
-3.7452 FIACRE -0.2218
-3.7452 FIDèLE -0.2218
-3.7452 FIRMIN -0.2218
-3.7452 FLAVIE -0.2218
-3.7452 FLAVIEN -0.2218
-3.7452 FLEUR -0.2218
-3.7452 FLODOARD -0.2218
-3.7452 FLORE -0.2218
-3.7452 FLORENCE -0.2218
-3.7452 FLORENT, -0.2218
-3.7452 FLORIAN -0.2218
-3.7452 FLORIE -0.2218
-3.7452 FORTUNé -0.2218
-3.7452 FORTUNéE -0.2218
-3.7452 FOULQUES -0.2218
-3.7452 FRANCE -0.2218
-3.7452 FRANCIA -0.2218
-3.7452 FRANCISQUE -0.2218
-3.7452 FRANçOIS -0.2218
-3.7452 FRANçOISE -0.2218
-3.7452 FRéDéRIC -0.2218
-3.7452 FULBERT -0.2218
-3.7452 FULCRAN -0.2218
-3.7452 FULGENCE -0.2218
-3.7452 FéLICIE -0.2218
-3.7452 FéLICITé -0.2218
-3.7452 FéLIX -0.2218
-3.7452 GABIN -0.2218
-3.7452 GABRIEL -0.2218
-3.7452 GABRIELLE -0.2218
-3.7452 GARANCE -0.2218
-3.7452 GARNIER -0.2218
-3.7452 GASPARD -0.2218
-3.7452 GASTON -0.2218
-3.7452 GATIEN -0.2218
-3.7452 GAUD -0.2218
-3.7452 GAUTIER -0.2218
-3.7452 GAëL -0.2218
-3.7452 GAëLLE -0.2218
-3.7452 GENEVIèVE -0.2218
-3.7452 GEOFFROY -0.2218
-3.7452 GEORGES -0.2218
-3.7452 GEORGETTE -0.2218
-3.7452 GERBERGE -0.2218
-3.7452 GERBERT -0.2218
-3.7452 GERMAIN -0.2218
-3.7452 GERMAINE -0.2218
-3.7452 GERTRUDE -0.2218
-3.7452 GERVAIS -0.2218
-3.7452 GHISLAIN -0.2218
-3.7452 GILBERT -0.2218
-3.7452 GILLES -0.2218
-3.7452 GIRART -0.2218
-3.7452 GISLEBERT -0.2218
-3.7452 GISèLE -0.2218
-3.7452 GONDEBAUD -0.2218
-3.7452 GONTHIER -0.2218
-3.7452 GONTRAN -0.2218
-3.7452 GONZAGUE -0.2218
-3.7452 GRéGOIRE -0.2218
-3.7452 GUENIèVRE -0.2218
-3.7452 GUI -0.2218
-3.7452 GUILHEMINE -0.2218
-3.7452 GUILLAUME -0.2218
-3.7452 GUILLEMETTE -0.2218
-3.7452 GUSTAVE -0.2218
-3.7452 GUSTAVINE -0.2218
-3.7452 GUY -0.2218
-3.7452 GUYOT -0.2218
-3.7452 GUéRIN -0.2218
-3.7452 GWENAëLLE -0.2218
-3.7452 GéDéON -0.2218
-3.7452 GéRARD -0.2218
-3.7452 GéRAUD -0.2218
-3.7452 HARDOUIN -0.2218
-3.7452 HECTOR -0.2218
-3.7452 HENRI -0.2218
-3.7452 HENRIETTE -0.2218
-3.7452 HERBERT -0.2218
-3.7452 HERLUIN -0.2218
-3.7452 HERMINE -0.2218
-3.7452 HERVé -0.2218
-3.7452 HILAIRE -0.2218
-3.7452 HILDEBERT -0.2218
-3.7452 HINCMAR -0.2218
-3.4442 HIPPOLYTE -0.2218
-3.7452 HONORINE -0.2218
-3.7452 HONORé -0.2218
-3.7452 HORTENSE -0.2218
-3.7452 HUBERT -0.2218
-3.7452 HUGUES -0.2218
-3.7452 HUGUETTE -0.2218
-3.7452 HéDELIN -0.2218
-3.7452 HéLIER -0.2218
-3.7452 HéLOïSE -0.2218
-3.7452 HéLèNE -0.2218
-3.7452 INNOCENT -0.2218
-3.7452 INèS -0.2218
-3.7452 IRINA -0.2218
-3.7452 IRIS -0.2218
-3.7452 IRèNE -0.2218
-3.4442 ISABEAU -0.2218
-3.7452 ISABELLE -0.2218
-3.7452 ISEULT -0.2218
-3.7452 ISIDORE -0.2218
-3.7452 ISMéRIE -0.2218
-3.7452 JACINTHE -0.2218
-3.7452 JACQUELINE -0.2218
-3.7452 JACQUES -0.2218
-3.7452 JADE -0.2218
-3.7452 JANINE, -0.2218
-3.7452 JAPHET -0.2218
-3.7452 JASON -0.2218
-3.7452 JEAN -0.2218
-3.7452 JEANNE -0.2218
-3.7452 JEANNEL -0.2218
-3.7452 JEANNOT -0.2218
-3.7452 JEHANNE, -0.2218
-3.7452 JOACHIM -0.2218
-3.7452 JOANNY -0.2218
-3.7452 JOB -0.2218
-3.7452 JOCELYN -0.2218
-3.7452 JOCELYNE -0.2218
-3.7452 JOHAN -0.2218
-3.7452 JONAS -0.2218
-3.7452 JONATHAN -0.2218
-3.7452 JOSEPH -0.2218
-3.7452 JOSSE -0.2218
-3.7452 JOSSELIN -0.2218
-3.7452 JOSéPHINE -0.2218
-3.7452 JOURDAIN -0.2218
-3.7452 JOëL -0.2218
-3.7452 JOëLLE -0.2218
-3.7452 JUDE -0.2218
-3.7452 JUDICAëL -0.2218
-3.7452 JUDITH -0.2218
-3.7452 JULES -0.2218
-3.7452 JULIE -0.2218
-3.7452 JULIEN -0.2218
-3.7452 JULIETTE -0.2218
-3.7452 JUSTE -0.2218
-3.7452 JUSTIN -0.2218
-3.7452 JUSTINE -0.2218
-3.7452 JéRéMIE -0.2218
-3.7452 JéRôME -0.2218
-3.7452 KéVIN -0.2218
-3.7452 LAMBERT -0.2218
-3.7452 LANDRY -0.2218
-3.7452 LAURA -0.2218
-3.7452 LAURANE -0.2218
-3.7452 LAURE -0.2218
-3.7452 LAURELINE -0.2218
-3.7452 LAURENCE -0.2218
-3.7452 LAURENT -0.2218
-3.7452 LAURIANE -0.2218
-3.7452 LAURINE -0.2218
-3.7452 LAURèNE -0.2218
-3.7452 LAZARE -0.2218
-3.7452 LEU -0.2218
-3.7452 LEUFROY -0.2218
-3.7452 LIBèRE -0.2218
-3.7452 LIONEL -0.2218
-3.7452 LIéTALD -0.2218
-3.7452 LONGIN -0.2218
-3.7452 LORRAIN -0.2218
-3.7452 LORRAINE -0.2218
-3.7452 LOTHAIRE -0.2218
-3.7452 LOUIS -0.2218
-3.7452 LOUP -0.2218
-3.7452 LOïC -0.2218
-3.7452 LUC -0.2218
-3.7452 LUCAS -0.2218
-3.7452 LUCIE -0.2218
-3.7452 LUCIEN -0.2218
-3.7452 LUCIENNE -0.2218
-3.7452 LUCILLE -0.2218
-3.7452 LUDIVINE -0.2218
-3.7452 LUDOLPHE -0.2218
-3.7452 LUDOVIC -0.2218
-3.7452 LYDIE -0.2218
-3.7452 LéA -0.2218
-3.7452 LéANDRE -0.2218
-3.7452 LéNA -0.2218
-3.7452 LéON -0.2218
-3.7452 LéONARD -0.2218
-3.7452 LéONIE -0.2218
-3.7452 LéONNE -0.2218
-3.7452 LéOPOLD -0.2218
-3.7452 LéOPOLDINE -0.2218
-3.7452 MACAIRE -0.2218
-3.7452 MADELEINE -0.2218
-3.7452 MAGALI -0.2218
-3.7452 MAGUELONE -0.2218
-3.7452 MAHAUT -0.2218
-3.7452 MALLAURY -0.2218
-3.7452 MALO -0.2218
-3.7452 MAMERT -0.2218
-3.7452 MANASSé, -0.2218
-3.7452 MANON -0.2218
-3.7452 MARC -0.2218
-3.7452 MARCEAU -0.2218
-3.7452 MARCEL -0.2218
-3.7452 MARCELIN -0.2218
-3.7452 MARCELINE -0.2218
-3.7452 MARGOT -0.2218
-3.7452 MARGUERITE -0.2218
-3.7452 MARIANNE -0.2218
-3.7452 MARIE -0.2218
-3.7452 MARINE -0.2218
-3.7452 MARION -0.2218
-3.7452 MARIUS -0.2218
-3.7452 MARLèNE -0.2218
-3.7452 MARTHE -0.2218
-3.7452 MARTIAL -0.2218
-3.7452 MARTIN -0.2218
-3.7452 MARTINE -0.2218
-3.7452 MATHILDE -0.2218
-3.7452 MATHURIN -0.2218
-3.7452 MATTHIAS -0.2218
-3.7452 MATTHIEU -0.2218
-3.7452 MAUD -0.2218
-3.7452 MAUGIS -0.2218
-3.7452 MAUREEN -0.2218
-3.7452 MAURICE -0.2218
-3.7452 MAURICETTE -0.2218
-3.7452 MAXENCE -0.2218
-3.4442 MAXIME -0.2218
-3.7452 MAXIMILIEN -0.2218
-3.7452 MAYEUL -0.2218
-3.7452 MELCHIOR -0.2218
-3.7452 MENCE -0.2218
-3.7452 MERLIN -0.2218
-3.7452 MICHEL -0.2218
-3.7452 MICHèLE -0.2218
-3.7452 MIREILLE -0.2218
-3.7452 MIRIAM -0.2218
-3.7452 MONIQUE -0.2218
-3.7452 MORGAN -0.2218
-3.7452 MORGANE -0.2218
-3.7452 MOïSE -0.2218
-3.7452 MOïSETTE -0.2218
-3.7452 MURIEL -0.2218
-3.7452 MYLèNE -0.2218
-3.7452 MéDéRIC -0.2218
-3.7452 MéGANE -0.2218
-3.7452 MéLANIE -0.2218
-3.7452 MéLISANDE -0.2218
-3.7452 MéLISSA -0.2218
-3.7452 MéLISSANDRE -0.2218
-3.7452 MéLODIE -0.2218
-3.7452 MéROVéE -0.2218
-3.7452 NADINE -0.2218
-3.7452 NADèGE -0.2218
-3.7452 NARCISSE -0.2218
-3.7452 NATHALIE -0.2218
-3.7452 NATHAN -0.2218
-3.7452 NATHANAëL -0.2218
-3.7452 NAUDET -0.2218
-3.7452 NESTOR -0.2218
-3.7452 NICOLAS -0.2218
-3.7452 NICOLE -0.2218
-3.7452 NICéPHORE -0.2218
-3.7452 NINE -0.2218
-3.7452 NORBERT -0.2218
-3.7452 NORMAND -0.2218
-3.7452 NOé -0.2218
-3.7452 NOéMIE -0.2218
-3.7452 NOëL -0.2218
-3.7452 NOëLLE -0.2218
-3.7452 NéHéMIE -0.2218
-3.7452 OCTAVE -0.2218
-3.7452 OCéANE -0.2218
-3.7452 ODETTE -0.2218
-3.7452 ODILE -0.2218
-3.7452 ODILON -0.2218
-3.7452 ODON -0.2218
-3.7452 OGER -0.2218
-3.7452 OLIVE -0.2218
-3.7452 OLIVIER -0.2218
-3.7452 OLYMPE -0.2218
-3.7452 OMBLINE -0.2218
-3.7452 OPHéLIE -0.2218
-3.7452 ORIANDE -0.2218
-3.7452 ORIANE -0.2218
-3.7452 ORLANE -0.2218
-3.7452 OURY -0.2218
-3.7452 OXLENE -0.2218
-3.7452 OZANNE -0.2218
-3.7452 PACôME -0.2218
-3.7452 PALéMON -0.2218
-3.7452 PARFAIT -0.2218
-3.7452 PASCAL -0.2218
-3.7452 PASCALE -0.2218
-3.7452 PATERNE -0.2218
-3.7452 PATRICE -0.2218
-3.7452 PAUL -0.2218
-3.7452 PAULE -0.2218
-3.7452 PAULETTE -0.2218
-3.7452 PAULINE -0.2218
-3.7452 PERCEVAL -0.2218
-3.7452 PERRINE -0.2218
-3.7452 PHILIBERT -0.2218
-3.7452 PHILIPPE -0.2218
-3.7452 PHILIPPINE -0.2218
-3.7452 PHILOMèNE -0.2218
-3.4442 PHILOTHéE -0.2218
-3.7452 PHILéMON -0.2218
-3.7452 PIE -0.2218
-3.7452 PIERRE -0.2218
-3.7452 PIERRICK -0.2218
-3.7452 PRIMEROSE -0.2218
-3.7452 PRISCILLE, -0.2218
-3.7452 PROSPER -0.2218
-3.7452 PRUDENCE -0.2218
-3.7452 PULCHéRIE -0.2218
-3.7452 PéCINE -0.2218
-3.7452 PéLAGIE -0.2218
-3.7452 PéNéLOPE -0.2218
-3.7452 PéPIN -0.2218
-3.7452 PéTRONILLE -0.2218
-3.7452 QUENTIN -0.2218
-3.7452 QUENTINE -0.2218
-3.7452 QUINTIA -0.2218
-3.7452 QUIéTA -0.2218
-3.7452 RACHEL -0.2218
-3.7452 RAOUL -0.2218
-3.7452 RAPHAëL -0.2218
-3.7452 RAPHAëLLE -0.2218
-3.7452 RAYMOND -0.2218
-3.7452 RAYMONDE -0.2218
-3.7452 REBECCA -0.2218
-3.7452 REINE -0.2218
-3.7452 RENAUD -0.2218
-3.7452 RENé -0.2218
-3.7452 RENéE -0.2218
-3.7452 REYBAUD -0.2218
-3.7452 RICHARD -0.2218
-3.7452 RITA -0.2218
-3.7452 ROBERT -0.2218
-3.7452 ROCH -0.2218
-3.7452 RODOLPHE -0.2218
-3.7452 RODRIGUE -0.2218
-3.7452 ROGER -0.2218
-3.7452 ROLAND -0.2218
-3.7452 ROLANDE -0.2218
-3.7452 ROMAIN -0.2218
-3.7452 ROMANE -0.2218
-3.7452 ROMUALD -0.2218
-3.7452 ROMéO -0.2218
-3.7452 RONAN -0.2218
-3.7452 ROSALIE -0.2218
-3.7452 ROSE -0.2218
-3.7452 ROSELIN -0.2218
-3.7452 ROSELINE -0.2218
-3.7452 RéGINE -0.2218
-3.7452 RéGIS -0.2218
-3.7452 RéJEAN -0.2218
-3.7452 RéJEANNE -0.2218
-3.7452 RéMI -0.2218
-3.7452 SABINE -0.2218
-3.7452 SALOMON -0.2218
-3.7452 SALOMé -0.2218
-3.7452 SAMUEL -0.2218
-3.7452 SANDRA -0.2218
-3.7452 SANDRINE -0.2218
-3.7452 SARAH -0.2218
-3.7452 SAUVEUR -0.2218
-3.7452 SAVIN -0.2218
-3.4442 SCHOLASTIQUE -0.2218
-3.7452 SERGE -0.2218
-3.7452 SIBYLLE -0.2218
-3.7452 SIDOINE -0.2218
-3.7452 SIGEBERT -0.2218
-3.7452 SIGISMOND -0.2218
-3.7452 SILVèRE, -0.2218
-3.7452 SIMON -0.2218
-3.7452 SIMONE -0.2218
-3.7452 SIXTE -0.2218
-3.7452 SIXTINE -0.2218
-3.7452 SOLANGE -0.2218
-3.7452 SOLINE -0.2218
-3.7452 SOPHIE -0.2218
-3.7452 STANISLAS -0.2218
-3.7452 STéPHANE -0.2218
-3.7452 STéPHANIE -0.2218
-3.7452 SUZANNE -0.2218
-3.7452 SUZON, -0.2218
-3.7452 SYLVAIN -0.2218
-3.7452 SYLVESTRE -0.2218
-3.7452 SYLVIANE -0.2218
-3.7452 SYLVIE -0.2218
-3.7452 SéBASTIEN -0.2218
-3.7452 SéGOLèNE -0.2218
-3.7452 SéRAPHIN -0.2218
-3.7452 SéVERIN -0.2218
-3.7452 SéVERINE -0.2218
-3.7452 TANCRèDE -0.2218
-3.7452 TANGUY -0.2218
-3.7452 TATIANA -0.2218
-3.7452 TAURIN -0.2218
-3.7452 THAïS -0.2218
-3.7452 THIBAULT -0.2218
-3.7452 THIBERT -0.2218
-3.7452 THIERRY -0.2218
-3.7452 THOMAS -0.2218
-3.7452 THéODORA -0.2218
-3.7452 THéODORE -0.2218
-3.7452 THéODOSE -0.2218
-3.7452 THéOPHILE -0.2218
-3.7452 THéOPHRASTE -0.2218
-3.7452 THéRèSE -0.2218
-3.7452 TIMOLéON -0.2218
-3.7452 TIMOTHéE -0.2218
-3.7452 TIPHAINE -0.2218
-3.7452 TITIEN -0.2218
-3.7452 TONNIN -0.2218
-3.7452 TOUSSAINT -0.2218
-3.7452 TRAJAN -0.2218
-3.7452 TRISTAN -0.2218
-3.7452 TUROLD -0.2218
-3.7452 ULYSSE -0.2218
-3.7452 URBAIN -0.2218
-3.7452 URSULE -0.2218
-3.7452 VALENTIN -0.2218
-3.7452 VALENTINE -0.2218
-3.7452 VALèRE -0.2218
-3.7452 VALéRIE -0.2218
-3.7452 VALéRY -0.2218
-3.7452 VENANCE -0.2218
-3.7452 VENCESLAS -0.2218
-3.7452 VIANNEY -0.2218
-3.7452 VICTOIRE -0.2218
-3.7452 VICTOR -0.2218
-3.7452 VICTORIEN -0.2218
-3.7452 VICTORIN -0.2218
-3.7452 VIGILE -0.2218
-3.7452 VINCENT -0.2218
-3.7452 VINCIANE -0.2218
-3.7452 VIOLETTE -0.2218
-3.7452 VIRGINIE -0.2218
-3.7452 VITAL -0.2218
-3.7452 VIVIANE -0.2218
-3.7452 VIVIEN -0.2218
-3.7452 VéRONIQUE -0.2218
-3.7452 WALERAN -0.2218
-3.7452 WANDRILLE -0.2218
-3.7452 XAVIER -0.2218
-3.7452 XAVIèRE -0.2218
-3.7452 XéNOPHON -0.2218
-3.7452 YOLANDE -0.2218
-3.7452 YSALINE -0.2218
-3.7452 YSEULT -0.2218
-3.7452 YVES -0.2218
-3.7452 YVETTE -0.2218
-3.7452 YVONNE -0.2218
-3.7452 ZACHARIE -0.2218
-3.7452 ZACHé -0.2218
-3.7452 ZITA -0.2218
-3.7452 ZOé -0.2218
-3.7452 ZéLIE -0.2218
-3.7452 ZéPHIRIN -0.2218
-3.7452 ÈVE -0.2218
-3.7452 ÉDITH -0.2218
-3.7452 ÉDOUARD -0.2218
-3.7452 ÉLEUTHèRE -0.2218
-3.7452 ÉLIA -0.2218
-3.7452 ÉLIANE -0.2218
-3.7452 ÉLIE -0.2218
-3.7452 ÉLISABETH -0.2218
-3.7452 ÉLISE -0.2218
-3.7452 ÉLISéE -0.2218
-3.7452 ÉLODIE -0.2218
-3.7452 ÉLOïSE -0.2218
-3.7452 ÉLéONORE -0.2218
-3.7452 ÉMELINE -0.2218
-3.7452 ÉMERIC -0.2218
-3.7452 ÉMILE -0.2218
-3.7452 ÉMILIE -0.2218
-3.7452 ÉMéRANCE -0.2218
-3.7452 ÉMéRENCIE -0.2218
-3.7452 ÉPIPHANE -0.2218
-3.7452 ÉRIC -0.2218
-3.7452 ÉTIENNE -0.2218
-3.7452 ÉVA -0.2218
-3.7452 ÉVANGéLINE -0.2218
-3.7452 ÉVARISTE -0.2218
-3.7452 ÉVELYNE -0.2218
-3.7452 ÉVRARD -0.2218

\2-grams:
-3.2681 <s> AARON 0.0000
-3.2681 <s> ABDON 0.0000
-3.2681 <s> ABDONIE 0.0000
-3.2681 <s> ABEL 0.0000
-3.2681 <s> ABELIN 0.0000
-3.2681 <s> ABELINE 0.0000
-3.2681 <s> ABIGAELLE 0.0000
-3.2681 <s> ABIGAïL 0.0000
-3.2681 <s> ABONDANCE 0.0000
-3.2681 <s> ABRAHAM 0.0000
-3.2681 <s> ABSALON 0.0000
-3.2681 <s> ABéLARD 0.0000
-3.2681 <s> ACACE 0.0000
-3.2681 <s> ACACIE 0.0000
-3.2681 <s> ACANTHE 0.0000
-3.2681 <s> ACHAIRE 0.0000
-3.2681 <s> ACHILLE 0.0000
-3.2681 <s> ADALARD 0.0000
-3.2681 <s> ADALBALD 0.0000
-3.2681 <s> ADALBAUDE 0.0000
-3.2681 <s> ADALBERT 0.0000
-3.2681 <s> ADALBéRON 0.0000
-3.2681 <s> ADALRIC 0.0000
-3.2681 <s> ADALSINDE 0.0000
-3.2681 <s> ADAM 0.0000
-3.2681 <s> ADEGRIN 0.0000
-3.2681 <s> ADEGRINE 0.0000
-3.2681 <s> ADEL 0.0000
-3.2681 <s> ADELIN 0.0000
-3.2681 <s> ADELINE 0.0000
-3.2681 <s> ADELPHE 0.0000
-3.2681 <s> ADELTRUDE 0.0000
-3.2681 <s> ADENET 0.0000
-3.2681 <s> ADHéMAR 0.0000
-3.2681 <s> ADJUTOR 0.0000
-3.2681 <s> ADOLPHE 0.0000
-3.2681 <s> ADOLPHIE 0.0000
-3.2681 <s> ADONIS 0.0000
-3.2681 <s> ADONISE 0.0000
-3.2681 <s> ADRASTéE 0.0000
-3.2681 <s> ADREHILDE 0.0000
-3.2681 <s> ADRIEN 0.0000
-3.2681 <s> ADRIENNE 0.0000
-3.2681 <s> ADèLE 0.0000
-3.2681 <s> ADéLAïDE 0.0000
-3.2681 <s> ADéLIE 0.0000
-3.2681 <s> ADéODAT 0.0000
-3.2681 <s> AGAPET 0.0000
-3.2681 <s> AGATHANGE 0.0000
-3.2681 <s> AGATHE 0.0000
-3.2681 <s> AGATHON 0.0000
-3.2681 <s> AGILBERT 0.0000
-3.2681 <s> AGILBERTE 0.0000
-3.2681 <s> AGLAé 0.0000
-3.2681 <s> AGNAN 0.0000
-3.2681 <s> AGNANE 0.0000
-3.2681 <s> AGNEFLèTE 0.0000
-3.2681 <s> AGNèS 0.0000
-3.2681 <s> AGRIPPIN 0.0000
-3.2681 <s> AGRIPPINE 0.0000
-3.2681 <s> AIMABLE 0.0000
-3.2681 <s> AIMé 0.0000
-3.2681 <s> AIMéE 0.0000
-3.2681 <s> ALAIN 0.0000
-3.2681 <s> ALAINE 0.0000
-3.2681 <s> ALAïS1 0.0000
-3.2681 <s> ALBAN 0.0000
-3.2681 <s> ALBANE 0.0000
-3.2681 <s> ALBERT 0.0000
-3.2681 <s> ALBERTE 0.0000
-3.2681 <s> ALBéRADE 0.0000
-3.2681 <s> ALBéRIC 0.0000
-3.2681 <s> ALCIBIADE 0.0000
-3.2681 <s> ALCIDE 0.0000
-3.2681 <s> ALCIDIE 0.0000
-3.2681 <s> ALCIME 0.0000
-3.2681 <s> ALCINE 0.0000
-3.2681 <s> ALCYONE 0.0000
-3.2681 <s> ALDEGONDE 0.0000
-3.2681 <s> ALDONCE 0.0000
-3.2681 <s> ALDRIC 0.0000
-3.2681 <s> ALEAUME 0.0000
-3.2681 <s> ALETH 0.0000
-3.2681 <s> ALEXANDRE 0.0000
-3.2681 <s> ALEXANDRINE 0.0000
-3.2681 <s> ALEXINE 0.0000
-3.2681 <s> ALEXIS 0.0000
-3.2681 <s> ALICE 0.0000
-3.2681 <s> ALIETTE 0.0000
-3.2681 <s> ALINE 0.0000
-2.9671 <s> ALIX 0.0000
-3.2681 <s> ALIZé 0.0000
-3.2681 <s> ALIéNOR 0.0000
-3.2681 <s> ALLIAUME: 0.0000
-3.2681 <s> ALMINE 0.0000
-3.2681 <s> ALMIRE 0.0000
-3.2681 <s> ALOYSE 0.0000
-3.2681 <s> ALOïS 0.0000
-3.2681 <s> ALOïSE 0.0000
-3.2681 <s> ALPHONSE 0.0000
-3.2681 <s> ALPHONSINE 0.0000
-3.2681 <s> ALPHéE 0.0000
-3.2681 <s> ALPINIEN 0.0000
-3.2681 <s> ALTHéE 0.0000
-3.2681 <s> ALVERèDE 0.0000
-3.2681 <s> AMALIANE 0.0000
-3.2681 <s> AMALRIC 0.0000
-3.2681 <s> AMALTHéE 0.0000
-3.2681 <s> AMANDE 0.0000
-3.2681 <s> AMANDIN 0.0000
-3.2681 <s> AMANDINE 0.0000
-3.2681 <s> AMANT 0.0000
-3.2681 <s> AMANTE 0.0000
-3.2681 <s> AMARANDE 0.0000
-3.2681 <s> AMARANTHE 0.0000
-3.2681 <s> AMARYLLIS 0.0000
-3.2681 <s> AMBRE 0.0000
-3.2681 <s> AMBROISE 0.0000
-3.2681 <s> AMBROISIE 0.0000
-3.2681 <s> AMELINE 0.0000
-3.2681 <s> AMIEL 0.0000
-3.2681 <s> AMINTE 0.0000
-3.2681 <s> AMOUR 0.0000
-3.2681 <s> AMéDéE 0.0000
-3.2681 <s> AMéLIANE 0.0000
-3.2681 <s> AMéLIE 0.0000
-3.2681 <s> AMéLIEN 0.0000
-3.2681 <s> AMéTHYSTE 0.0000
-3.2681 <s> ANASTASE 0.0000
-3.2681 <s> ANASTASIE 0.0000
-3.2681 <s> ANATOLE 0.0000
-3.2681 <s> ANATOLIE 0.0000
-3.2681 <s> ANAëL 0.0000
-3.2681 <s> ANAëLLE 0.0000
-3.2681 <s> ANAïS 0.0000
-3.2681 <s> ANCELIN 0.0000
-3.2681 <s> ANCELINE 0.0000
-3.2681 <s> ANDOCHE 0.0000
-3.2681 <s> ANDRé 0.0000
-3.2681 <s> ANDRéE 0.0000
-3.2681 <s> ANDéOL 0.0000
-3.2681 <s> ANGADRêME 0.0000
-3.2681 <s> ANGE 0.0000
-3.2681 <s> ANGELINE 0.0000
-3.2681 <s> ANGILBE 0.0000
-3.2681 <s> ANGILBERTE 0.0000
-3.2681 <s> ANGILRAN 0.0000
-3.2681 <s> ANGOUSTAN 0.0000
-3.2681 <s> ANGèLE 0.0000
-3.2681 <s> ANGéLIQUE 0.0000
-3.2681 <s> ANICET 0.0000
-3.2681 <s> ANICETTE 0.0000
-3.2681 <s> ANICéE 0.0000
-3.2681 <s> ANNABELLE 0.0000
-2.9671 <s> ANNE 0.0000
-3.2681 <s> ANNETTE 0.0000
-3.2681 <s> ANNIBAL 0.0000
-3.2681 <s> ANNONCIADE, 0.0000
-3.2681 <s> ANSBERT 0.0000
-3.2681 <s> ANSBERTE 0.0000
-3.2681 <s> ANSELME 0.0000
-3.2681 <s> ANSTRUDIE 0.0000
-3.2681 <s> ANTHELME 0.0000
-3.2681 <s> ANTHELMETTE 0.0000
-3.2681 <s> ANTIDE 0.0000
-3.2681 <s> ANTIGONE 0.0000
-3.2681 <s> ANTOINE 0.0000
-3.2681 <s> ANTOINETTE 0.0000
-3.2681 <s> ANTONIN 0.0000
-3.2681 <s> ANTONINE 0.0000
-3.2681 <s> ANéMONE 0.0000
-3.2681 <s> APHéLIE 0.0000
-3.2681 <s> APOLLINAIRE 0.0000
-3.2681 <s> APOLLINE 0.0000
-3.2681 <s> AQUILIN 0.0000
-3.2681 <s> AQUILINE 0.0000
-3.2681 <s> ARABELLE 0.0000
-3.2681 <s> ARCADE 0.0000
-3.2681 <s> ARCADIE 0.0000
-3.2681 <s> ARCHAMBAUD 0.0000
-2.9671 <s> ARCHANGE 0.0000
-3.2681 <s> ARCHIBALD 0.0000
-3.2681 <s> ARGINE 0.0000
-3.2681 <s> ARIAN 0.0000
-3.2681 <s> ARIANE 0.0000
-3.2681 <s> ARICIE 0.0000
-2.9671 <s> ARIEL 0.0000
-3.2681 <s> ARIELLE 0.0000
-3.2681 <s> ARISTE 0.0000
-3.2681 <s> ARISTIDE 0.0000
-3.2681 <s> ARLETTE 0.0000
-3.2681 <s> ARMANCE 0.0000
-3.2681 <s> ARMAND 0.0000
-3.2681 <s> ARMANDE 0.0000
-3.2681 <s> ARMANDINE 0.0000
-3.2681 <s> ARMEL 0.0000
-3.2681 <s> ARMELINE 0.0000
-3.2681 <s> ARMELLE 0.0000
-3.2681 <s> ARMIDE 0.0000
-3.2681 <s> ARMIN 0.0000
-3.2681 <s> ARMINE 0.0000
-3.2681 <s> ARNAUD, 0.0000
-3.2681 <s> ARNAUDE 0.0000
-3.2681 <s> ARNOULD, 0.0000
-3.2681 <s> AROLDE 0.0000
-2.9671 <s> ARSINOé 0.0000
-3.2681 <s> ARSèNE 0.0000
-3.2681 <s> ARSèNIE 0.0000
-3.2681 <s> ARTHAUD 0.0000
-3.2681 <s> ARTHUR 0.0000
-3.2681 <s> ARTHURINE 0.0000
-3.2681 <s> ARTHèME 0.0000
-3.2681 <s> ARTéMIS 0.0000
-3.2681 <s> ASCELIN 0.0000
-3.2681 <s> ASCELINE 0.0000
-3.2681 <s> ASCENSION 0.0000
-3.2681 <s> ASSOMPTION 0.0000
-3.2681 <s> ASTARTé 0.0000
-3.2681 <s> ASTRIDE 0.0000
-3.2681 <s> ASTRéE 0.0000
-3.2681 <s> ASTéRIE 0.0000
-3.2681 <s> ATHALIE 0.0000
-3.2681 <s> ATHANASE 0.0000
-3.2681 <s> ATHANASIE 0.0000
-3.2681 <s> ATHINA 0.0000
-3.2681 <s> ATHéNAïS 0.0000
-3.2681 <s> AUBE 0.0000
-3.2681 <s> AUBERTINE 0.0000
-3.2681 <s> AUBRY 0.0000
-3.2681 <s> AUDE 0.0000
-3.2681 <s> AUDEBERT 0.0000
-3.2681 <s> AUDELINE 0.0000
-3.2681 <s> AUDOUIN 0.0000
-3.2681 <s> AUDRAN 0.0000
-3.2681 <s> AUDREY 0.0000
-3.2681 <s> AUGUSTE 0.0000
-3.2681 <s> AUGUSTINE 0.0000
-3.2681 <s> AURE 0.0000
-3.2681 <s> AURELLE 0.0000
-3.2681 <s> AURIAN 0.0000
-3.2681 <s> AURIANE 0.0000
-3.2681 <s> AURORE 0.0000
-3.2681 <s> AURèLE 0.0000
-3.2681 <s> AURéLIE 0.0000
-3.2681 <s> AURéLIENNE 0.0000
-3.2681 <s> AUXANE 0.0000
-3.2681 <s> AUXENCE 0.0000
-3.2681 <s> AVELINE 0.0000
-3.2681 <s> AVIGAëLLE 0.0000
-3.2681 <s> AVOYE 0.0000
-3.2681 <s> AXEL 0.0000
-3.2681 <s> AXELINE 0.0000
-3.2681 <s> AXELLE 0.0000
-3.2681 <s> AYMARD 0.0000
-3.2681 <s> AYMARDINE 0.0000
-3.2681 <s> AYMERIC 0.0000
-3.2681 <s> AYMON 0.0000
-3.2681 <s> AYMONDE 0.0000
-3.2681 <s> AZALéE 0.0000
-3.2681 <s> AZELINE 0.0000
-3.2681 <s> AZéLIE 0.0000
-3.2681 <s> BALTHAZAR 0.0000
-3.2681 <s> BAPTISTE 0.0000
-3.2681 <s> BARBE 0.0000
-3.2681 <s> BARNABé 0.0000
-3.2681 <s> BARTHéLEMY 0.0000
-3.2681 <s> BARTIMéE 0.0000
-3.2681 <s> BASILE 0.0000
-3.2681 <s> BASILISSE 0.0000
-3.2681 <s> BASTIEN 0.0000
-3.2681 <s> BATHILDE 0.0000
-3.2681 <s> BAUDOUIN 0.0000
-3.2681 <s> BENJAMIN 0.0000
-3.2681 <s> BENOîT 0.0000
-3.2681 <s> BERNADETTE 0.0000
-3.2681 <s> BERNARD 0.0000
-3.2681 <s> BERTHE 0.0000
-3.2681 <s> BERTILLE 0.0000
-3.2681 <s> BERTRAND 0.0000
-3.2681 <s> BEUVE 0.0000
-3.2681 <s> BLAISE 0.0000
-3.2681 <s> BLANCHE 0.0000
-3.2681 <s> BLANDINE 0.0000
-3.2681 <s> BON 0.0000
-3.2681 <s> BONIFACE 0.0000
-3.2681 <s> BOUCHARD 0.0000
-3.2681 <s> BRICE 0.0000
-3.2681 <s> BRIEUC 0.0000
-3.2681 <s> BRIGITTE 0.0000
-3.2681 <s> BRUNEHAUT 0.0000
-3.2681 <s> BRUNEHILDE 0.0000
-3.2681 <s> BRUNO 0.0000
-3.2681 <s> BéATRICE 0.0000
-3.2681 <s> BéNIGNE 0.0000
-3.2681 <s> BéNéDICTE 0.0000
-3.2681 <s> BéRANGER 0.0000
-3.2681 <s> BéRANGèRE 0.0000
-3.2681 <s> BéRARD 0.0000
-3.2681 <s> CALIXTE 0.0000
-2.9671 <s> CAMILLE 0.0000
-3.2681 <s> CAMILLIEN 0.0000
-3.2681 <s> CAMéLIEN 0.0000
-3.2681 <s> CANDIDE 0.0000
-3.2681 <s> CAPUCINE 0.0000
-3.2681 <s> CARIBERT 0.0000
-3.2681 <s> CARINE 0.0000
-3.2681 <s> CARLOMAN 0.0000
-3.2681 <s> CAROLINE 0.0000
-2.9671 <s> CASSANDRE 0.0000
-3.2681 <s> CASSIEN 0.0000
-3.2681 <s> CATHERINE 0.0000
-3.2681 <s> CHANTAL 0.0000
-3.2681 <s> CHARLAINE 0.0000
-3.2681 <s> CHARLEMAGNE 0.0000
-3.2681 <s> CHARLES 0.0000
-3.2681 <s> CHARLINE 0.0000
-3.2681 <s> CHARLOTTE 0.0000
-3.2681 <s> CHILDEBERT 0.0000
-3.2681 <s> CHILPéRIC 0.0000
-3.2681 <s> CHLOé 0.0000
-3.2681 <s> CHRISTELLE 0.0000
-3.2681 <s> CHRISTIAN 0.0000
-3.2681 <s> CHRISTIANE 0.0000
-3.2681 <s> CHRISTINE 0.0000
-3.2681 <s> CHRISTODULE 0.0000
-3.2681 <s> CHRISTOPHE 0.0000
-3.2681 <s> CHRYSOSTOME 0.0000
-3.2681 <s> CHRéTIEN 0.0000
-3.2681 <s> CLAIRE 0.0000
-3.2681 <s> CLARA 0.0000
-3.2681 <s> CLARENCE 0.0000
-3.2681 <s> CLARISSE 0.0000
-2.9671 <s> CLAUDE 0.0000
-3.2681 <s> CLAUDIEN 0.0000
-3.2681 <s> CLAUDINE 0.0000
-3.2681 <s> CLIO: 0.0000
-3.2681 <s> CLOTAIRE 0.0000
-3.2681 <s> CLOTILDE 0.0000
-3.2681 <s> CLOVIS 0.0000
-3.2681 <s> CLéANDRE 0.0000
-3.2681 <s> CLéMENCE 0.0000
-3.2681 <s> CLéMENT 0.0000
-3.2681 <s> CLéMENTINE 0.0000
-3.2681 <s> COLIN 0.0000
-3.2681 <s> COLINE 0.0000
-3.2681 <s> CONCEPTION: 0.0000
-3.2681 <s> CONSTANCE 0.0000
-3.2681 <s> CONSTANT 0.0000
-3.2681 <s> CONSTANTIN 0.0000
-3.2681 <s> CORALIE 0.0000
-3.2681 <s> CORALINE 0.0000
-3.2681 <s> CORENTIN 0.0000
-3.2681 <s> CORENTINE 0.0000
-3.2681 <s> CORINNE 0.0000
-3.2681 <s> CYPRIEN 0.0000
-3.2681 <s> CYRIAQUE 0.0000
-3.2681 <s> CYRIELLE 0.0000
-3.2681 <s> CYRILLE 0.0000
-3.2681 <s> CéCILE 0.0000
-3.2681 <s> CéDRIC 0.0000
-2.9671 <s> CéLESTE 0.0000
-3.2681 <s> CéLESTIN 0.0000
-3.2681 <s> CéLESTINE 0.0000
-3.2681 <s> CéLIEN 0.0000
-3.2681 <s> CéLINE 0.0000
-3.2681 <s> CéSAIRE 0.0000
-3.2681 <s> CéSAR 0.0000
-3.2681 <s> CôME 0.0000
-3.2681 <s> DAMIEN 0.0000
-3.2681 <s> DANIEL 0.0000
-3.2681 <s> DANIELLE 0.0000
-3.2681 <s> DAPHNé 0.0000
-3.2681 <s> DAVID 0.0000
-3.2681 <s> DELPHIN 0.0000
-3.2681 <s> DELPHINE 0.0000
-3.2681 <s> DENIS 0.0000
-3.2681 <s> DENISE 0.0000
-3.2681 <s> DIANE 0.0000
-3.2681 <s> DIDIER 0.0000
-3.2681 <s> DIEUDONNé 0.0000
-3.2681 <s> DIEUDONNéE 0.0000
-3.2681 <s> DIMITRI 0.0000
-2.9671 <s> DOMINIQUE 0.0000
-3.2681 <s> DORIAN 0.0000
-3.2681 <s> DORIANE 0.0000
-3.2681 <s> DORINE 0.0000
-2.9671 <s> DOROTHéE 0.0000
-3.2681 <s> DOUCE 0.0000
-3.2681 <s> DOVE 0.0000
-3.2681 <s> DéBORA 0.0000
-3.2681 <s> DéSIRé 0.0000
-3.2681 <s> EDGARD 0.0000
-3.2681 <s> EDMOND 0.0000
-3.2681 <s> EDMéE 0.0000
-3.2681 <s> ELLA 0.0000
-3.2681 <s> ELSA 0.0000
-3.2681 <s> EMMA 0.0000
-3.2681 <s> EMMANUEL 0.0000
-3.2681 <s> EMMANUELLE 0.0000
-3.2681 <s> EMMELIE 0.0000
-3.2681 <s> ERNEST 0.0000
-3.2681 <s> ERNESTINE 0.0000
-3.2681 <s> ESTELLE 0.0000
-3.2681 <s> ESTHER 0.0000
-3.2681 <s> EUBERT 0.0000
-3.2681 <s> EUDES 0.0000
-3.2681 <s> EUDOXE 0.0000
-3.2681 <s> EUDOXIE 0.0000
-3.2681 <s> EUGèNE 0.0000
-3.2681 <s> EUGéNIE 0.0000
-3.2681 <s> EULALIE 0.0000
-3.2681 <s> EUPHRASIE 0.0000
-3.2681 <s> EUSTACHE 0.0000
-3.2681 <s> EUSèBE 0.0000
-3.2681 <s> EUSéBIE 0.0000
-3.2681 <s> FABIEN 0.0000
-3.2681 <s> FABRICE 0.0000
-3.2681 <s> FALBA 0.0000
-3.2681 <s> FANNY 0.0000
-3.2681 <s> FANTINE 0.0000
-3.2681 <s> FAUSTINE 0.0000
-3.2681 <s> FERDINAND 0.0000
-3.2681 <s> FERNANDE 0.0000
-3.2681 <s> FIACRE 0.0000
-3.2681 <s> FIDèLE 0.0000
-3.2681 <s> FIRMIN 0.0000
-3.2681 <s> FLAVIE 0.0000
-3.2681 <s> FLAVIEN 0.0000
-3.2681 <s> FLEUR 0.0000
-3.2681 <s> FLODOARD 0.0000
-3.2681 <s> FLORE 0.0000
-3.2681 <s> FLORENCE 0.0000
-3.2681 <s> FLORENT, 0.0000
-3.2681 <s> FLORIAN 0.0000
-3.2681 <s> FLORIE 0.0000
-3.2681 <s> FORTUNé 0.0000
-3.2681 <s> FORTUNéE 0.0000
-3.2681 <s> FOULQUES 0.0000
-3.2681 <s> FRANCE 0.0000
-3.2681 <s> FRANCIA 0.0000
-3.2681 <s> FRANCISQUE 0.0000
-3.2681 <s> FRANçOIS 0.0000
-3.2681 <s> FRANçOISE 0.0000
-3.2681 <s> FRéDéRIC 0.0000
-3.2681 <s> FULBERT 0.0000
-3.2681 <s> FULCRAN 0.0000
-3.2681 <s> FULGENCE 0.0000
-3.2681 <s> FéLICIE 0.0000
-3.2681 <s> FéLICITé 0.0000
-3.2681 <s> FéLIX 0.0000
-3.2681 <s> GABIN 0.0000
-3.2681 <s> GABRIEL 0.0000
-3.2681 <s> GABRIELLE 0.0000
-3.2681 <s> GARANCE 0.0000
-3.2681 <s> GARNIER 0.0000
-3.2681 <s> GASPARD 0.0000
-3.2681 <s> GASTON 0.0000
-3.2681 <s> GATIEN 0.0000
-3.2681 <s> GAUD 0.0000
-3.2681 <s> GAUTIER 0.0000
-3.2681 <s> GAëL 0.0000
-3.2681 <s> GAëLLE 0.0000
-3.2681 <s> GENEVIèVE 0.0000
-3.2681 <s> GEOFFROY 0.0000
-3.2681 <s> GEORGES 0.0000
-3.2681 <s> GEORGETTE 0.0000
-3.2681 <s> GERBERGE 0.0000
-3.2681 <s> GERBERT 0.0000
-3.2681 <s> GERMAIN 0.0000
-3.2681 <s> GERMAINE 0.0000
-3.2681 <s> GERTRUDE 0.0000
-3.2681 <s> GERVAIS 0.0000
-3.2681 <s> GHISLAIN 0.0000
-3.2681 <s> GILBERT 0.0000
-3.2681 <s> GILLES 0.0000
-3.2681 <s> GIRART 0.0000
-3.2681 <s> GISLEBERT 0.0000
-3.2681 <s> GISèLE 0.0000
-3.2681 <s> GONDEBAUD 0.0000
-3.2681 <s> GONTHIER 0.0000
-3.2681 <s> GONTRAN 0.0000
-3.2681 <s> GONZAGUE 0.0000
-3.2681 <s> GRéGOIRE 0.0000
-3.2681 <s> GUENIèVRE 0.0000
-3.2681 <s> GUI 0.0000
-3.2681 <s> GUILHEMINE 0.0000
-3.2681 <s> GUILLAUME 0.0000
-3.2681 <s> GUILLEMETTE 0.0000
-3.2681 <s> GUSTAVE 0.0000
-3.2681 <s> GUSTAVINE 0.0000
-3.2681 <s> GUY 0.0000
-3.2681 <s> GUYOT 0.0000
-3.2681 <s> GUéRIN 0.0000
-3.2681 <s> GWENAëLLE 0.0000
-3.2681 <s> GéDéON 0.0000
-3.2681 <s> GéRARD 0.0000
-3.2681 <s> GéRAUD 0.0000
-3.2681 <s> HARDOUIN 0.0000
-3.2681 <s> HECTOR 0.0000
-3.2681 <s> HENRI 0.0000
-3.2681 <s> HENRIETTE 0.0000
-3.2681 <s> HERBERT 0.0000
-3.2681 <s> HERLUIN 0.0000
-3.2681 <s> HERMINE 0.0000
-3.2681 <s> HERVé 0.0000
-3.2681 <s> HILAIRE 0.0000
-3.2681 <s> HILDEBERT 0.0000
-3.2681 <s> HINCMAR 0.0000
-2.9671 <s> HIPPOLYTE 0.0000
-3.2681 <s> HONORINE 0.0000
-3.2681 <s> HONORé 0.0000
-3.2681 <s> HORTENSE 0.0000
-3.2681 <s> HUBERT 0.0000
-3.2681 <s> HUGUES 0.0000
-3.2681 <s> HUGUETTE 0.0000
-3.2681 <s> HéDELIN 0.0000
-3.2681 <s> HéLIER 0.0000
-3.2681 <s> HéLOïSE 0.0000
-3.2681 <s> HéLèNE 0.0000
-3.2681 <s> INNOCENT 0.0000
-3.2681 <s> INèS 0.0000
-3.2681 <s> IRINA 0.0000
-3.2681 <s> IRIS 0.0000
-3.2681 <s> IRèNE 0.0000
-2.9671 <s> ISABEAU 0.0000
-3.2681 <s> ISABELLE 0.0000
-3.2681 <s> ISEULT 0.0000
-3.2681 <s> ISIDORE 0.0000
-3.2681 <s> ISMéRIE 0.0000
-3.2681 <s> JACINTHE 0.0000
-3.2681 <s> JACQUELINE 0.0000
-3.2681 <s> JACQUES 0.0000
-3.2681 <s> JADE 0.0000
-3.2681 <s> JANINE, 0.0000
-3.2681 <s> JAPHET 0.0000
-3.2681 <s> JASON 0.0000
-3.2681 <s> JEAN 0.0000
-3.2681 <s> JEANNE 0.0000
-3.2681 <s> JEANNEL 0.0000
-3.2681 <s> JEANNOT 0.0000
-3.2681 <s> JEHANNE, 0.0000
-3.2681 <s> JOACHIM 0.0000
-3.2681 <s> JOANNY 0.0000
-3.2681 <s> JOB 0.0000
-3.2681 <s> JOCELYN 0.0000
-3.2681 <s> JOCELYNE 0.0000
-3.2681 <s> JOHAN 0.0000
-3.2681 <s> JONAS 0.0000
-3.2681 <s> JONATHAN 0.0000
-3.2681 <s> JOSEPH 0.0000
-3.2681 <s> JOSSE 0.0000
-3.2681 <s> JOSSELIN 0.0000
-3.2681 <s> JOSéPHINE 0.0000
-3.2681 <s> JOURDAIN 0.0000
-3.2681 <s> JOëL 0.0000
-3.2681 <s> JOëLLE 0.0000
-3.2681 <s> JUDE 0.0000
-3.2681 <s> JUDICAëL 0.0000
-3.2681 <s> JUDITH 0.0000
-3.2681 <s> JULES 0.0000
-3.2681 <s> JULIE 0.0000
-3.2681 <s> JULIEN 0.0000
-3.2681 <s> JULIETTE 0.0000
-3.2681 <s> JUSTE 0.0000
-3.2681 <s> JUSTIN 0.0000
-3.2681 <s> JUSTINE 0.0000
-3.2681 <s> JéRéMIE 0.0000
-3.2681 <s> JéRôME 0.0000
-3.2681 <s> KéVIN 0.0000
-3.2681 <s> LAMBERT 0.0000
-3.2681 <s> LANDRY 0.0000
-3.2681 <s> LAURA 0.0000
-3.2681 <s> LAURANE 0.0000
-3.2681 <s> LAURE 0.0000
-3.2681 <s> LAURELINE 0.0000
-3.2681 <s> LAURENCE 0.0000
-3.2681 <s> LAURENT 0.0000
-3.2681 <s> LAURIANE 0.0000
-3.2681 <s> LAURINE 0.0000
-3.2681 <s> LAURèNE 0.0000
-3.2681 <s> LAZARE 0.0000
-3.2681 <s> LEU 0.0000
-3.2681 <s> LEUFROY 0.0000
-3.2681 <s> LIBèRE 0.0000
-3.2681 <s> LIONEL 0.0000
-3.2681 <s> LIéTALD 0.0000
-3.2681 <s> LONGIN 0.0000
-3.2681 <s> LORRAIN 0.0000
-3.2681 <s> LORRAINE 0.0000
-3.2681 <s> LOTHAIRE 0.0000
-3.2681 <s> LOUIS 0.0000
-3.2681 <s> LOUP 0.0000
-3.2681 <s> LOïC 0.0000
-3.2681 <s> LUC 0.0000
-3.2681 <s> LUCAS 0.0000
-3.2681 <s> LUCIE 0.0000
-3.2681 <s> LUCIEN 0.0000
-3.2681 <s> LUCIENNE 0.0000
-3.2681 <s> LUCILLE 0.0000
-3.2681 <s> LUDIVINE 0.0000
-3.2681 <s> LUDOLPHE 0.0000
-3.2681 <s> LUDOVIC 0.0000
-3.2681 <s> LYDIE 0.0000
-3.2681 <s> LéA 0.0000
-3.2681 <s> LéANDRE 0.0000
-3.2681 <s> LéNA 0.0000
-3.2681 <s> LéON 0.0000
-3.2681 <s> LéONARD 0.0000
-3.2681 <s> LéONIE 0.0000
-3.2681 <s> LéONNE 0.0000
-3.2681 <s> LéOPOLD 0.0000
-3.2681 <s> LéOPOLDINE 0.0000
-3.2681 <s> MACAIRE 0.0000
-3.2681 <s> MADELEINE 0.0000
-3.2681 <s> MAGALI 0.0000
-3.2681 <s> MAGUELONE 0.0000
-3.2681 <s> MAHAUT 0.0000
-3.2681 <s> MALLAURY 0.0000
-3.2681 <s> MALO 0.0000
-3.2681 <s> MAMERT 0.0000
-3.2681 <s> MANASSé, 0.0000
-3.2681 <s> MANON 0.0000
-3.2681 <s> MARC 0.0000
-3.2681 <s> MARCEAU 0.0000
-3.2681 <s> MARCEL 0.0000
-3.2681 <s> MARCELIN 0.0000
-3.2681 <s> MARCELINE 0.0000
-3.2681 <s> MARGOT 0.0000
-3.2681 <s> MARGUERITE 0.0000
-3.2681 <s> MARIANNE 0.0000
-3.2681 <s> MARIE 0.0000
-3.2681 <s> MARINE 0.0000
-3.2681 <s> MARION 0.0000
-3.2681 <s> MARIUS 0.0000
-3.2681 <s> MARLèNE 0.0000
-3.2681 <s> MARTHE 0.0000
-3.2681 <s> MARTIAL 0.0000
-3.2681 <s> MARTIN 0.0000
-3.2681 <s> MARTINE 0.0000
-3.2681 <s> MATHILDE 0.0000
-3.2681 <s> MATHURIN 0.0000
-3.2681 <s> MATTHIAS 0.0000
-3.2681 <s> MATTHIEU 0.0000
-3.2681 <s> MAUD 0.0000
-3.2681 <s> MAUGIS 0.0000
-3.2681 <s> MAUREEN 0.0000
-3.2681 <s> MAURICE 0.0000
-3.2681 <s> MAURICETTE 0.0000
-3.2681 <s> MAXENCE 0.0000
-2.9671 <s> MAXIME 0.0000
-3.2681 <s> MAXIMILIEN 0.0000
-3.2681 <s> MAYEUL 0.0000
-3.2681 <s> MELCHIOR 0.0000
-3.2681 <s> MENCE 0.0000
-3.2681 <s> MERLIN 0.0000
-3.2681 <s> MICHEL 0.0000
-3.2681 <s> MICHèLE 0.0000
-3.2681 <s> MIREILLE 0.0000
-3.2681 <s> MIRIAM 0.0000
-3.2681 <s> MONIQUE 0.0000
-3.2681 <s> MORGAN 0.0000
-3.2681 <s> MORGANE 0.0000
-3.2681 <s> MOïSE 0.0000
-3.2681 <s> MOïSETTE 0.0000
-3.2681 <s> MURIEL 0.0000
-3.2681 <s> MYLèNE 0.0000
-3.2681 <s> MéDéRIC 0.0000
-3.2681 <s> MéGANE 0.0000
-3.2681 <s> MéLANIE 0.0000
-3.2681 <s> MéLISANDE 0.0000
-3.2681 <s> MéLISSA 0.0000
-3.2681 <s> MéLISSANDRE 0.0000
-3.2681 <s> MéLODIE 0.0000
-3.2681 <s> MéROVéE 0.0000
-3.2681 <s> NADINE 0.0000
-3.2681 <s> NADèGE 0.0000
-3.2681 <s> NARCISSE 0.0000
-3.2681 <s> NATHALIE 0.0000
-3.2681 <s> NATHAN 0.0000
-3.2681 <s> NATHANAëL 0.0000
-3.2681 <s> NAUDET 0.0000
-3.2681 <s> NESTOR 0.0000
-3.2681 <s> NICOLAS 0.0000
-3.2681 <s> NICOLE 0.0000
-3.2681 <s> NICéPHORE 0.0000
-3.2681 <s> NINE 0.0000
-3.2681 <s> NORBERT 0.0000
-3.2681 <s> NORMAND 0.0000
-3.2681 <s> NOé 0.0000
-3.2681 <s> NOéMIE 0.0000
-3.2681 <s> NOëL 0.0000
-3.2681 <s> NOëLLE 0.0000
-3.2681 <s> NéHéMIE 0.0000
-3.2681 <s> OCTAVE 0.0000
-3.2681 <s> OCéANE 0.0000
-3.2681 <s> ODETTE 0.0000
-3.2681 <s> ODILE 0.0000
-3.2681 <s> ODILON 0.0000
-3.2681 <s> ODON 0.0000
-3.2681 <s> OGER 0.0000
-3.2681 <s> OLIVE 0.0000
-3.2681 <s> OLIVIER 0.0000
-3.2681 <s> OLYMPE 0.0000
-3.2681 <s> OMBLINE 0.0000
-3.2681 <s> OPHéLIE 0.0000
-3.2681 <s> ORIANDE 0.0000
-3.2681 <s> ORIANE 0.0000
-3.2681 <s> ORLANE 0.0000
-3.2681 <s> OURY 0.0000
-3.2681 <s> OXLENE 0.0000
-3.2681 <s> OZANNE 0.0000
-3.2681 <s> PACôME 0.0000
-3.2681 <s> PALéMON 0.0000
-3.2681 <s> PARFAIT 0.0000
-3.2681 <s> PASCAL 0.0000
-3.2681 <s> PASCALE 0.0000
-3.2681 <s> PATERNE 0.0000
-3.2681 <s> PATRICE 0.0000
-3.2681 <s> PAUL 0.0000
-3.2681 <s> PAULE 0.0000
-3.2681 <s> PAULETTE 0.0000
-3.2681 <s> PAULINE 0.0000
-3.2681 <s> PERCEVAL 0.0000
-3.2681 <s> PERRINE 0.0000
-3.2681 <s> PHILIBERT 0.0000
-3.2681 <s> PHILIPPE 0.0000
-3.2681 <s> PHILIPPINE 0.0000
-3.2681 <s> PHILOMèNE 0.0000
-2.9671 <s> PHILOTHéE 0.0000
-3.2681 <s> PHILéMON 0.0000
-3.2681 <s> PIE 0.0000
-3.2681 <s> PIERRE 0.0000
-3.2681 <s> PIERRICK 0.0000
-3.2681 <s> PRIMEROSE 0.0000
-3.2681 <s> PRISCILLE, 0.0000
-3.2681 <s> PROSPER 0.0000
-3.2681 <s> PRUDENCE 0.0000
-3.2681 <s> PULCHéRIE 0.0000
-3.2681 <s> PéCINE 0.0000
-3.2681 <s> PéLAGIE 0.0000
-3.2681 <s> PéNéLOPE 0.0000
-3.2681 <s> PéPIN 0.0000
-3.2681 <s> PéTRONILLE 0.0000
-3.2681 <s> QUENTIN 0.0000
-3.2681 <s> QUENTINE 0.0000
-3.2681 <s> QUINTIA 0.0000
-3.2681 <s> QUIéTA 0.0000
-3.2681 <s> RACHEL 0.0000
-3.2681 <s> RAOUL 0.0000
-3.2681 <s> RAPHAëL 0.0000
-3.2681 <s> RAPHAëLLE 0.0000
-3.2681 <s> RAYMOND 0.0000
-3.2681 <s> RAYMONDE 0.0000
-3.2681 <s> REBECCA 0.0000
-3.2681 <s> REINE 0.0000
-3.2681 <s> RENAUD 0.0000
-3.2681 <s> RENé 0.0000
-3.2681 <s> RENéE 0.0000
-3.2681 <s> REYBAUD 0.0000
-3.2681 <s> RICHARD 0.0000
-3.2681 <s> RITA 0.0000
-3.2681 <s> ROBERT 0.0000
-3.2681 <s> ROCH 0.0000
-3.2681 <s> RODOLPHE 0.0000
-3.2681 <s> RODRIGUE 0.0000
-3.2681 <s> ROGER 0.0000
-3.2681 <s> ROLAND 0.0000
-3.2681 <s> ROLANDE 0.0000
-3.2681 <s> ROMAIN 0.0000
-3.2681 <s> ROMANE 0.0000
-3.2681 <s> ROMUALD 0.0000
-3.2681 <s> ROMéO 0.0000
-3.2681 <s> RONAN 0.0000
-3.2681 <s> ROSALIE 0.0000
-3.2681 <s> ROSE 0.0000
-3.2681 <s> ROSELIN 0.0000
-3.2681 <s> ROSELINE 0.0000
-3.2681 <s> RéGINE 0.0000
-3.2681 <s> RéGIS 0.0000
-3.2681 <s> RéJEAN 0.0000
-3.2681 <s> RéJEANNE 0.0000
-3.2681 <s> RéMI 0.0000
-3.2681 <s> SABINE 0.0000
-3.2681 <s> SALOMON 0.0000
-3.2681 <s> SALOMé 0.0000
-3.2681 <s> SAMUEL 0.0000
-3.2681 <s> SANDRA 0.0000
-3.2681 <s> SANDRINE 0.0000
-3.2681 <s> SARAH 0.0000
-3.2681 <s> SAUVEUR 0.0000
-3.2681 <s> SAVIN 0.0000
-2.9671 <s> SCHOLASTIQUE 0.0000
-3.2681 <s> SERGE 0.0000
-3.2681 <s> SIBYLLE 0.0000
-3.2681 <s> SIDOINE 0.0000
-3.2681 <s> SIGEBERT 0.0000
-3.2681 <s> SIGISMOND 0.0000
-3.2681 <s> SILVèRE, 0.0000
-3.2681 <s> SIMON 0.0000
-3.2681 <s> SIMONE 0.0000
-3.2681 <s> SIXTE 0.0000
-3.2681 <s> SIXTINE 0.0000
-3.2681 <s> SOLANGE 0.0000
-3.2681 <s> SOLINE 0.0000
-3.2681 <s> SOPHIE 0.0000
-3.2681 <s> STANISLAS 0.0000
-3.2681 <s> STéPHANE 0.0000
-3.2681 <s> STéPHANIE 0.0000
-3.2681 <s> SUZANNE 0.0000
-3.2681 <s> SUZON, 0.0000
-3.2681 <s> SYLVAIN 0.0000
-3.2681 <s> SYLVESTRE 0.0000
-3.2681 <s> SYLVIANE 0.0000
-3.2681 <s> SYLVIE 0.0000
-3.2681 <s> SéBASTIEN 0.0000
-3.2681 <s> SéGOLèNE 0.0000
-3.2681 <s> SéRAPHIN 0.0000
-3.2681 <s> SéVERIN 0.0000
-3.2681 <s> SéVERINE 0.0000
-3.2681 <s> TANCRèDE 0.0000
-3.2681 <s> TANGUY 0.0000
-3.2681 <s> TATIANA 0.0000
-3.2681 <s> TAURIN 0.0000
-3.2681 <s> THAïS 0.0000
-3.2681 <s> THIBAULT 0.0000
-3.2681 <s> THIBERT 0.0000
-3.2681 <s> THIERRY 0.0000
-3.2681 <s> THOMAS 0.0000
-3.2681 <s> THéODORA 0.0000
-3.2681 <s> THéODORE 0.0000
-3.2681 <s> THéODOSE 0.0000
-3.2681 <s> THéOPHILE 0.0000
-3.2681 <s> THéOPHRASTE 0.0000
-3.2681 <s> THéRèSE 0.0000
-3.2681 <s> TIMOLéON 0.0000
-3.2681 <s> TIMOTHéE 0.0000
-3.2681 <s> TIPHAINE 0.0000
-3.2681 <s> TITIEN 0.0000
-3.2681 <s> TONNIN 0.0000
-3.2681 <s> TOUSSAINT 0.0000
-3.2681 <s> TRAJAN 0.0000
-3.2681 <s> TRISTAN 0.0000
-3.2681 <s> TUROLD 0.0000
-3.2681 <s> ULYSSE 0.0000
-3.2681 <s> URBAIN 0.0000
-3.2681 <s> URSULE 0.0000
-3.2681 <s> VALENTIN 0.0000
-3.2681 <s> VALENTINE 0.0000
-3.2681 <s> VALèRE 0.0000
-3.2681 <s> VALéRIE 0.0000
-3.2681 <s> VALéRY 0.0000
-3.2681 <s> VENANCE 0.0000
-3.2681 <s> VENCESLAS 0.0000
-3.2681 <s> VIANNEY 0.0000
-3.2681 <s> VICTOIRE 0.0000
-3.2681 <s> VICTOR 0.0000
-3.2681 <s> VICTORIEN 0.0000
-3.2681 <s> VICTORIN 0.0000
-3.2681 <s> VIGILE 0.0000
-3.2681 <s> VINCENT 0.0000
-3.2681 <s> VINCIANE 0.0000
-3.2681 <s> VIOLETTE 0.0000
-3.2681 <s> VIRGINIE 0.0000
-3.2681 <s> VITAL 0.0000
-3.2681 <s> VIVIANE 0.0000
-3.2681 <s> VIVIEN 0.0000
-3.2681 <s> VéRONIQUE 0.0000
-3.2681 <s> WALERAN 0.0000
-3.2681 <s> WANDRILLE 0.0000
-3.2681 <s> XAVIER 0.0000
-3.2681 <s> XAVIèRE 0.0000
-3.2681 <s> XéNOPHON 0.0000
-3.2681 <s> YOLANDE 0.0000
-3.2681 <s> YSALINE 0.0000
-3.2681 <s> YSEULT 0.0000
-3.2681 <s> YVES 0.0000
-3.2681 <s> YVETTE 0.0000
-3.2681 <s> YVONNE 0.0000
-3.2681 <s> ZACHARIE 0.0000
-3.2681 <s> ZACHé 0.0000
-3.2681 <s> ZITA 0.0000
-3.2681 <s> ZOé 0.0000
-3.2681 <s> ZéLIE 0.0000
-3.2681 <s> ZéPHIRIN 0.0000
-3.2681 <s> ÈVE 0.0000
-3.2681 <s> ÉDITH 0.0000
-3.2681 <s> ÉDOUARD 0.0000
-3.2681 <s> ÉLEUTHèRE 0.0000
-3.2681 <s> ÉLIA 0.0000
-3.2681 <s> ÉLIANE 0.0000
-3.2681 <s> ÉLIE 0.0000
-3.2681 <s> ÉLISABETH 0.0000
-3.2681 <s> ÉLISE 0.0000
-3.2681 <s> ÉLISéE 0.0000
-3.2681 <s> ÉLODIE 0.0000
-3.2681 <s> ÉLOïSE 0.0000
-3.2681 <s> ÉLéONORE 0.0000
-3.2681 <s> ÉMELINE 0.0000
-3.2681 <s> ÉMERIC 0.0000
-3.2681 <s> ÉMILE 0.0000
-3.2681 <s> ÉMILIE 0.0000
-3.2681 <s> ÉMéRANCE 0.0000
-3.2681 <s> ÉMéRENCIE 0.0000
-3.2681 <s> ÉPIPHANE 0.0000
-3.2681 <s> ÉRIC 0.0000
-3.2681 <s> ÉTIENNE 0.0000
-3.2681 <s> ÉVA 0.0000
-3.2681 <s> ÉVANGéLINE 0.0000
-3.2681 <s> ÉVARISTE 0.0000
-3.2681 <s> ÉVELYNE 0.0000
-3.2681 <s> ÉVRARD 0.0000
-0.3010 AARON </s> -0.3010
-0.3010 ABDON </s> -0.3010
-0.3010 ABDONIE </s> -0.3010
-0.3010 ABEL </s> -0.3010
-0.3010 ABELIN </s> -0.3010
-0.3010 ABELINE </s> -0.3010
-0.3010 ABIGAELLE </s> -0.3010
-0.3010 ABIGAïL </s> -0.3010
-0.3010 ABONDANCE </s> -0.3010
-0.3010 ABRAHAM </s> -0.3010
-0.3010 ABSALON </s> -0.3010
-0.3010 ABéLARD </s> -0.3010
-0.3010 ACACE </s> -0.3010
-0.3010 ACACIE </s> -0.3010
-0.3010 ACANTHE </s> -0.3010
-0.3010 ACHAIRE </s> -0.3010
-0.3010 ACHILLE </s> -0.3010
-0.3010 ADALARD </s> -0.3010
-0.3010 ADALBALD </s> -0.3010
-0.3010 ADALBAUDE </s> -0.3010
-0.3010 ADALBERT </s> -0.3010
-0.3010 ADALBéRON </s> -0.3010
-0.3010 ADALRIC </s> -0.3010
-0.3010 ADALSINDE </s> -0.3010
-0.3010 ADAM </s> -0.3010
-0.3010 ADEGRIN </s> -0.3010
-0.3010 ADEGRINE </s> -0.3010
-0.3010 ADEL </s> -0.3010
-0.3010 ADELIN </s> -0.3010
-0.3010 ADELINE </s> -0.3010
-0.3010 ADELPHE </s> -0.3010
-0.3010 ADELTRUDE </s> -0.3010
-0.3010 ADENET </s> -0.3010
-0.3010 ADHéMAR </s> -0.3010
-0.3010 ADJUTOR </s> -0.3010
-0.3010 ADOLPHE </s> -0.3010
-0.3010 ADOLPHIE </s> -0.3010
-0.3010 ADONIS </s> -0.3010
-0.3010 ADONISE </s> -0.3010
-0.3010 ADRASTéE </s> -0.3010
-0.3010 ADREHILDE </s> -0.3010
-0.3010 ADRIEN </s> -0.3010
-0.3010 ADRIENNE </s> -0.3010
-0.3010 ADèLE </s> -0.3010
-0.3010 ADéLAïDE </s> -0.3010
-0.3010 ADéLIE </s> -0.3010
-0.3010 ADéODAT </s> -0.3010
-0.3010 AGAPET </s> -0.3010
-0.3010 AGATHANGE </s> -0.3010
-0.3010 AGATHE </s> -0.3010
-0.3010 AGATHON </s> -0.3010
-0.3010 AGILBERT </s> -0.3010
-0.3010 AGILBERTE </s> -0.3010
-0.3010 AGLAé </s> -0.3010
-0.3010 AGNAN </s> -0.3010
-0.3010 AGNANE </s> -0.3010
-0.3010 AGNEFLèTE </s> -0.3010
-0.3010 AGNèS </s> -0.3010
-0.3010 AGRIPPIN </s> -0.3010
-0.3010 AGRIPPINE </s> -0.3010
-0.3010 AIMABLE </s> -0.3010
-0.3010 AIMé </s> -0.3010
-0.3010 AIMéE </s> -0.3010
-0.3010 ALAIN </s> -0.3010
-0.3010 ALAINE </s> -0.3010
-0.3010 ALAïS1 </s> -0.3010
-0.3010 ALBAN </s> -0.3010
-0.3010 ALBANE </s> -0.3010
-0.3010 ALBERT </s> -0.3010
-0.3010 ALBERTE </s> -0.3010
-0.3010 ALBéRADE </s> -0.3010
-0.3010 ALBéRIC </s> -0.3010
-0.3010 ALCIBIADE </s> -0.3010
-0.3010 ALCIDE </s> -0.3010
-0.3010 ALCIDIE </s> -0.3010
-0.3010 ALCIME </s> -0.3010
-0.3010 ALCINE </s> -0.3010
-0.3010 ALCYONE </s> -0.3010
-0.3010 ALDEGONDE </s> -0.3010
-0.3010 ALDONCE </s> -0.3010
-0.3010 ALDRIC </s> -0.3010
-0.3010 ALEAUME </s> -0.3010
-0.3010 ALETH </s> -0.3010
-0.3010 ALEXANDRE </s> -0.3010
-0.3010 ALEXANDRINE </s> -0.3010
-0.3010 ALEXINE </s> -0.3010
-0.3010 ALEXIS </s> -0.3010
-0.3010 ALICE </s> -0.3010
-0.3010 ALIETTE </s> -0.3010
-0.3010 ALINE </s> -0.3010
-0.3010 ALIX </s> -0.3010
-0.3010 ALIZé </s> -0.3010
-0.3010 ALIéNOR </s> -0.3010
-0.3010 ALLIAUME: </s> -0.3010
-0.3010 ALMINE </s> -0.3010
-0.3010 ALMIRE </s> -0.3010
-0.3010 ALOYSE </s> -0.3010
-0.3010 ALOïS </s> -0.3010
-0.3010 ALOïSE </s> -0.3010
-0.3010 ALPHONSE </s> -0.3010
-0.3010 ALPHONSINE </s> -0.3010
-0.3010 ALPHéE </s> -0.3010
-0.3010 ALPINIEN </s> -0.3010
-0.3010 ALTHéE </s> -0.3010
-0.3010 ALVERèDE </s> -0.3010
-0.3010 AMALIANE </s> -0.3010
-0.3010 AMALRIC </s> -0.3010
-0.3010 AMALTHéE </s> -0.3010
-0.3010 AMANDE </s> -0.3010
-0.3010 AMANDIN </s> -0.3010
-0.3010 AMANDINE </s> -0.3010
-0.3010 AMANT </s> -0.3010
-0.3010 AMANTE </s> -0.3010
-0.3010 AMARANDE </s> -0.3010
-0.3010 AMARANTHE </s> -0.3010
-0.3010 AMARYLLIS </s> -0.3010
-0.3010 AMBRE </s> -0.3010
-0.3010 AMBROISE </s> -0.3010
-0.3010 AMBROISIE </s> -0.3010
-0.3010 AMELINE </s> -0.3010
-0.3010 AMIEL </s> -0.3010
-0.3010 AMINTE </s> -0.3010
-0.3010 AMOUR </s> -0.3010
-0.3010 AMéDéE </s> -0.3010
-0.3010 AMéLIANE </s> -0.3010
-0.3010 AMéLIE </s> -0.3010
-0.3010 AMéLIEN </s> -0.3010
-0.3010 AMéTHYSTE </s> -0.3010
-0.3010 ANASTASE </s> -0.3010
-0.3010 ANASTASIE </s> -0.3010
-0.3010 ANATOLE </s> -0.3010
-0.3010 ANATOLIE </s> -0.3010
-0.3010 ANAëL </s> -0.3010
-0.3010 ANAëLLE </s> -0.3010
-0.3010 ANAïS </s> -0.3010
-0.3010 ANCELIN </s> -0.3010
-0.3010 ANCELINE </s> -0.3010
-0.3010 ANDOCHE </s> -0.3010
-0.3010 ANDRé </s> -0.3010
-0.3010 ANDRéE </s> -0.3010
-0.3010 ANDéOL </s> -0.3010
-0.3010 ANGADRêME </s> -0.3010
-0.3010 ANGE </s> -0.3010
-0.3010 ANGELINE </s> -0.3010
-0.3010 ANGILBE </s> -0.3010
-0.3010 ANGILBERTE </s> -0.3010
-0.3010 ANGILRAN </s> -0.3010
-0.3010 ANGOUSTAN </s> -0.3010
-0.3010 ANGèLE </s> -0.3010
-0.3010 ANGéLIQUE </s> -0.3010
-0.3010 ANICET </s> -0.3010
-0.3010 ANICETTE </s> -0.3010
-0.3010 ANICéE </s> -0.3010
-0.3010 ANNABELLE </s> -0.3010
-0.3010 ANNE </s> -0.3010
-0.3010 ANNETTE </s> -0.3010
-0.3010 ANNIBAL </s> -0.3010
-0.3010 ANNONCIADE, </s> -0.3010
-0.3010 ANSBERT </s> -0.3010
-0.3010 ANSBERTE </s> -0.3010
-0.3010 ANSELME </s> -0.3010
-0.3010 ANSTRUDIE </s> -0.3010
-0.3010 ANTHELME </s> -0.3010
-0.3010 ANTHELMETTE </s> -0.3010
-0.3010 ANTIDE </s> -0.3010
-0.3010 ANTIGONE </s> -0.3010
-0.3010 ANTOINE </s> -0.3010
-0.3010 ANTOINETTE </s> -0.3010
-0.3010 ANTONIN </s> -0.3010
-0.3010 ANTONINE </s> -0.3010
-0.3010 ANéMONE </s> -0.3010
-0.3010 APHéLIE </s> -0.3010
-0.3010 APOLLINAIRE </s> -0.3010
-0.3010 APOLLINE </s> -0.3010
-0.3010 AQUILIN </s> -0.3010
-0.3010 AQUILINE </s> -0.3010
-0.3010 ARABELLE </s> -0.3010
-0.3010 ARCADE </s> -0.3010
-0.3010 ARCADIE </s> -0.3010
-0.3010 ARCHAMBAUD </s> -0.3010
-0.3010 ARCHANGE </s> -0.3010
-0.3010 ARCHIBALD </s> -0.3010
-0.3010 ARGINE </s> -0.3010
-0.3010 ARIAN </s> -0.3010
-0.3010 ARIANE </s> -0.3010
-0.3010 ARICIE </s> -0.3010
-0.3010 ARIEL </s> -0.3010
-0.3010 ARIELLE </s> -0.3010
-0.3010 ARISTE </s> -0.3010
-0.3010 ARISTIDE </s> -0.3010
-0.3010 ARLETTE </s> -0.3010
-0.3010 ARMANCE </s> -0.3010
-0.3010 ARMAND </s> -0.3010
-0.3010 ARMANDE </s> -0.3010
-0.3010 ARMANDINE </s> -0.3010
-0.3010 ARMEL </s> -0.3010
-0.3010 ARMELINE </s> -0.3010
-0.3010 ARMELLE </s> -0.3010
-0.3010 ARMIDE </s> -0.3010
-0.3010 ARMIN </s> -0.3010
-0.3010 ARMINE </s> -0.3010
-0.3010 ARNAUD, </s> -0.3010
-0.3010 ARNAUDE </s> -0.3010
-0.3010 ARNOULD, </s> -0.3010
-0.3010 AROLDE </s> -0.3010
-0.3010 ARSINOé </s> -0.3010
-0.3010 ARSèNE </s> -0.3010
-0.3010 ARSèNIE </s> -0.3010
-0.3010 ARTHAUD </s> -0.3010
-0.3010 ARTHUR </s> -0.3010
-0.3010 ARTHURINE </s> -0.3010
-0.3010 ARTHèME </s> -0.3010
-0.3010 ARTéMIS </s> -0.3010
-0.3010 ASCELIN </s> -0.3010
-0.3010 ASCELINE </s> -0.3010
-0.3010 ASCENSION </s> -0.3010
-0.3010 ASSOMPTION </s> -0.3010
-0.3010 ASTARTé </s> -0.3010
-0.3010 ASTRIDE </s> -0.3010
-0.3010 ASTRéE </s> -0.3010
-0.3010 ASTéRIE </s> -0.3010
-0.3010 ATHALIE </s> -0.3010
-0.3010 ATHANASE </s> -0.3010
-0.3010 ATHANASIE </s> -0.3010
-0.3010 ATHINA </s> -0.3010
-0.3010 ATHéNAïS </s> -0.3010
-0.3010 AUBE </s> -0.3010
-0.3010 AUBERTINE </s> -0.3010
-0.3010 AUBRY </s> -0.3010
-0.3010 AUDE </s> -0.3010
-0.3010 AUDEBERT </s> -0.3010
-0.3010 AUDELINE </s> -0.3010
-0.3010 AUDOUIN </s> -0.3010
-0.3010 AUDRAN </s> -0.3010
-0.3010 AUDREY </s> -0.3010
-0.3010 AUGUSTE </s> -0.3010
-0.3010 AUGUSTINE </s> -0.3010
-0.3010 AURE </s> -0.3010
-0.3010 AURELLE </s> -0.3010
-0.3010 AURIAN </s> -0.3010
-0.3010 AURIANE </s> -0.3010
-0.3010 AURORE </s> -0.3010
-0.3010 AURèLE </s> -0.3010
-0.3010 AURéLIE </s> -0.3010
-0.3010 AURéLIENNE </s> -0.3010
-0.3010 AUXANE </s> -0.3010
-0.3010 AUXENCE </s> -0.3010
-0.3010 AVELINE </s> -0.3010
-0.3010 AVIGAëLLE </s> -0.3010
-0.3010 AVOYE </s> -0.3010
-0.3010 AXEL </s> -0.3010
-0.3010 AXELINE </s> -0.3010
-0.3010 AXELLE </s> -0.3010
-0.3010 AYMARD </s> -0.3010
-0.3010 AYMARDINE </s> -0.3010
-0.3010 AYMERIC </s> -0.3010
-0.3010 AYMON </s> -0.3010
-0.3010 AYMONDE </s> -0.3010
-0.3010 AZALéE </s> -0.3010
-0.3010 AZELINE </s> -0.3010
-0.3010 AZéLIE </s> -0.3010
-0.3010 BALTHAZAR </s> -0.3010
-0.3010 BAPTISTE </s> -0.3010
-0.3010 BARBE </s> -0.3010
-0.3010 BARNABé </s> -0.3010
-0.3010 BARTHéLEMY </s> -0.3010
-0.3010 BARTIMéE </s> -0.3010
-0.3010 BASILE </s> -0.3010
-0.3010 BASILISSE </s> -0.3010
-0.3010 BASTIEN </s> -0.3010
-0.3010 BATHILDE </s> -0.3010
-0.3010 BAUDOUIN </s> -0.3010
-0.3010 BENJAMIN </s> -0.3010
-0.3010 BENOîT </s> -0.3010
-0.3010 BERNADETTE </s> -0.3010
-0.3010 BERNARD </s> -0.3010
-0.3010 BERTHE </s> -0.3010
-0.3010 BERTILLE </s> -0.3010
-0.3010 BERTRAND </s> -0.3010
-0.3010 BEUVE </s> -0.3010
-0.3010 BLAISE </s> -0.3010
-0.3010 BLANCHE </s> -0.3010
-0.3010 BLANDINE </s> -0.3010
-0.3010 BON </s> -0.3010
-0.3010 BONIFACE </s> -0.3010
-0.3010 BOUCHARD </s> -0.3010
-0.3010 BRICE </s> -0.3010
-0.3010 BRIEUC </s> -0.3010
-0.3010 BRIGITTE </s> -0.3010
-0.3010 BRUNEHAUT </s> -0.3010
-0.3010 BRUNEHILDE </s> -0.3010
-0.3010 BRUNO </s> -0.3010
-0.3010 BéATRICE </s> -0.3010
-0.3010 BéNIGNE </s> -0.3010
-0.3010 BéNéDICTE </s> -0.3010
-0.3010 BéRANGER </s> -0.3010
-0.3010 BéRANGèRE </s> -0.3010
-0.3010 BéRARD </s> -0.3010
-0.3010 CALIXTE </s> -0.3010
-0.3010 CAMILLE </s> -0.3010
-0.3010 CAMILLIEN </s> -0.3010
-0.3010 CAMéLIEN </s> -0.3010
-0.3010 CANDIDE </s> -0.3010
-0.3010 CAPUCINE </s> -0.3010
-0.3010 CARIBERT </s> -0.3010
-0.3010 CARINE </s> -0.3010
-0.3010 CARLOMAN </s> -0.3010
-0.3010 CAROLINE </s> -0.3010
-0.3010 CASSANDRE </s> -0.3010
-0.3010 CASSIEN </s> -0.3010
-0.3010 CATHERINE </s> -0.3010
-0.3010 CHANTAL </s> -0.3010
-0.3010 CHARLAINE </s> -0.3010
-0.3010 CHARLEMAGNE </s> -0.3010
-0.3010 CHARLES </s> -0.3010
-0.3010 CHARLINE </s> -0.3010
-0.3010 CHARLOTTE </s> -0.3010
-0.3010 CHILDEBERT </s> -0.3010
-0.3010 CHILPéRIC </s> -0.3010
-0.3010 CHLOé </s> -0.3010
-0.3010 CHRISTELLE </s> -0.3010
-0.3010 CHRISTIAN </s> -0.3010
-0.3010 CHRISTIANE </s> -0.3010
-0.3010 CHRISTINE </s> -0.3010
-0.3010 CHRISTODULE </s> -0.3010
-0.3010 CHRISTOPHE </s> -0.3010
-0.3010 CHRYSOSTOME </s> -0.3010
-0.3010 CHRéTIEN </s> -0.3010
-0.3010 CLAIRE </s> -0.3010
-0.3010 CLARA </s> -0.3010
-0.3010 CLARENCE </s> -0.3010
-0.3010 CLARISSE </s> -0.3010
-0.3010 CLAUDE </s> -0.3010
-0.3010 CLAUDIEN </s> -0.3010
-0.3010 CLAUDINE </s> -0.3010
-0.3010 CLIO: </s> -0.3010
-0.3010 CLOTAIRE </s> -0.3010
-0.3010 CLOTILDE </s> -0.3010
-0.3010 CLOVIS </s> -0.3010
-0.3010 CLéANDRE </s> -0.3010
-0.3010 CLéMENCE </s> -0.3010
-0.3010 CLéMENT </s> -0.3010
-0.3010 CLéMENTINE </s> -0.3010
-0.3010 COLIN </s> -0.3010
-0.3010 COLINE </s> -0.3010
-0.3010 CONCEPTION: </s> -0.3010
-0.3010 CONSTANCE </s> -0.3010
-0.3010 CONSTANT </s> -0.3010
-0.3010 CONSTANTIN </s> -0.3010
-0.3010 CORALIE </s> -0.3010
-0.3010 CORALINE </s> -0.3010
-0.3010 CORENTIN </s> -0.3010
-0.3010 CORENTINE </s> -0.3010
-0.3010 CORINNE </s> -0.3010
-0.3010 CYPRIEN </s> -0.3010
-0.3010 CYRIAQUE </s> -0.3010
-0.3010 CYRIELLE </s> -0.3010
-0.3010 CYRILLE </s> -0.3010
-0.3010 CéCILE </s> -0.3010
-0.3010 CéDRIC </s> -0.3010
-0.3010 CéLESTE </s> -0.3010
-0.3010 CéLESTIN </s> -0.3010
-0.3010 CéLESTINE </s> -0.3010
-0.3010 CéLIEN </s> -0.3010
-0.3010 CéLINE </s> -0.3010
-0.3010 CéSAIRE </s> -0.3010
-0.3010 CéSAR </s> -0.3010
-0.3010 CôME </s> -0.3010
-0.3010 DAMIEN </s> -0.3010
-0.3010 DANIEL </s> -0.3010
-0.3010 DANIELLE </s> -0.3010
-0.3010 DAPHNé </s> -0.3010
-0.3010 DAVID </s> -0.3010
-0.3010 DELPHIN </s> -0.3010
-0.3010 DELPHINE </s> -0.3010
-0.3010 DENIS </s> -0.3010
-0.3010 DENISE </s> -0.3010
-0.3010 DIANE </s> -0.3010
-0.3010 DIDIER </s> -0.3010
-0.3010 DIEUDONNé </s> -0.3010
-0.3010 DIEUDONNéE </s> -0.3010
-0.3010 DIMITRI </s> -0.3010
-0.3010 DOMINIQUE </s> -0.3010
-0.3010 DORIAN </s> -0.3010
-0.3010 DORIANE </s> -0.3010
-0.3010 DORINE </s> -0.3010
-0.3010 DOROTHéE </s> -0.3010
-0.3010 DOUCE </s> -0.3010
-0.3010 DOVE </s> -0.3010
-0.3010 DéBORA </s> -0.3010
-0.3010 DéSIRé </s> -0.3010
-0.3010 EDGARD </s> -0.3010
-0.3010 EDMOND </s> -0.3010
-0.3010 EDMéE </s> -0.3010
-0.3010 ELLA </s> -0.3010
-0.3010 ELSA </s> -0.3010
-0.3010 EMMA </s> -0.3010
-0.3010 EMMANUEL </s> -0.3010
-0.3010 EMMANUELLE </s> -0.3010
-0.3010 EMMELIE </s> -0.3010
-0.3010 ERNEST </s> -0.3010
-0.3010 ERNESTINE </s> -0.3010
-0.3010 ESTELLE </s> -0.3010
-0.3010 ESTHER </s> -0.3010
-0.3010 EUBERT </s> -0.3010
-0.3010 EUDES </s> -0.3010
-0.3010 EUDOXE </s> -0.3010
-0.3010 EUDOXIE </s> -0.3010
-0.3010 EUGèNE </s> -0.3010
-0.3010 EUGéNIE </s> -0.3010
-0.3010 EULALIE </s> -0.3010
-0.3010 EUPHRASIE </s> -0.3010
-0.3010 EUSTACHE </s> -0.3010
-0.3010 EUSèBE </s> -0.3010
-0.3010 EUSéBIE </s> -0.3010
-0.3010 FABIEN </s> -0.3010
-0.3010 FABRICE </s> -0.3010
-0.3010 FALBA </s> -0.3010
-0.3010 FANNY </s> -0.3010
-0.3010 FANTINE </s> -0.3010
-0.3010 FAUSTINE </s> -0.3010
-0.3010 FERDINAND </s> -0.3010
-0.3010 FERNANDE </s> -0.3010
-0.3010 FIACRE </s> -0.3010
-0.3010 FIDèLE </s> -0.3010
-0.3010 FIRMIN </s> -0.3010
-0.3010 FLAVIE </s> -0.3010
-0.3010 FLAVIEN </s> -0.3010
-0.3010 FLEUR </s> -0.3010
-0.3010 FLODOARD </s> -0.3010
-0.3010 FLORE </s> -0.3010
-0.3010 FLORENCE </s> -0.3010
-0.3010 FLORENT, </s> -0.3010
-0.3010 FLORIAN </s> -0.3010
-0.3010 FLORIE </s> -0.3010
-0.3010 FORTUNé </s> -0.3010
-0.3010 FORTUNéE </s> -0.3010
-0.3010 FOULQUES </s> -0.3010
-0.3010 FRANCE </s> -0.3010
-0.3010 FRANCIA </s> -0.3010
-0.3010 FRANCISQUE </s> -0.3010
-0.3010 FRANçOIS </s> -0.3010
-0.3010 FRANçOISE </s> -0.3010
-0.3010 FRéDéRIC </s> -0.3010
-0.3010 FULBERT </s> -0.3010
-0.3010 FULCRAN </s> -0.3010
-0.3010 FULGENCE </s> -0.3010
-0.3010 FéLICIE </s> -0.3010
-0.3010 FéLICITé </s> -0.3010
-0.3010 FéLIX </s> -0.3010
-0.3010 GABIN </s> -0.3010
-0.3010 GABRIEL </s> -0.3010
-0.3010 GABRIELLE </s> -0.3010
-0.3010 GARANCE </s> -0.3010
-0.3010 GARNIER </s> -0.3010
-0.3010 GASPARD </s> -0.3010
-0.3010 GASTON </s> -0.3010
-0.3010 GATIEN </s> -0.3010
-0.3010 GAUD </s> -0.3010
-0.3010 GAUTIER </s> -0.3010
-0.3010 GAëL </s> -0.3010
-0.3010 GAëLLE </s> -0.3010
-0.3010 GENEVIèVE </s> -0.3010
-0.3010 GEOFFROY </s> -0.3010
-0.3010 GEORGES </s> -0.3010
-0.3010 GEORGETTE </s> -0.3010
-0.3010 GERBERGE </s> -0.3010
-0.3010 GERBERT </s> -0.3010
-0.3010 GERMAIN </s> -0.3010
-0.3010 GERMAINE </s> -0.3010
-0.3010 GERTRUDE </s> -0.3010
-0.3010 GERVAIS </s> -0.3010
-0.3010 GHISLAIN </s> -0.3010
-0.3010 GILBERT </s> -0.3010
-0.3010 GILLES </s> -0.3010
-0.3010 GIRART </s> -0.3010
-0.3010 GISLEBERT </s> -0.3010
-0.3010 GISèLE </s> -0.3010
-0.3010 GONDEBAUD </s> -0.3010
-0.3010 GONTHIER </s> -0.3010
-0.3010 GONTRAN </s> -0.3010
-0.3010 GONZAGUE </s> -0.3010
-0.3010 GRéGOIRE </s> -0.3010
-0.3010 GUENIèVRE </s> -0.3010
-0.3010 GUI </s> -0.3010
-0.3010 GUILHEMINE </s> -0.3010
-0.3010 GUILLAUME </s> -0.3010
-0.3010 GUILLEMETTE </s> -0.3010
-0.3010 GUSTAVE </s> -0.3010
-0.3010 GUSTAVINE </s> -0.3010
-0.3010 GUY </s> -0.3010
-0.3010 GUYOT </s> -0.3010
-0.3010 GUéRIN </s> -0.3010
-0.3010 GWENAëLLE </s> -0.3010
-0.3010 GéDéON </s> -0.3010
-0.3010 GéRARD </s> -0.3010
-0.3010 GéRAUD </s> -0.3010
-0.3010 HARDOUIN </s> -0.3010
-0.3010 HECTOR </s> -0.3010
-0.3010 HENRI </s> -0.3010
-0.3010 HENRIETTE </s> -0.3010
-0.3010 HERBERT </s> -0.3010
-0.3010 HERLUIN </s> -0.3010
-0.3010 HERMINE </s> -0.3010
-0.3010 HERVé </s> -0.3010
-0.3010 HILAIRE </s> -0.3010
-0.3010 HILDEBERT </s> -0.3010
-0.3010 HINCMAR </s> -0.3010
-0.3010 HIPPOLYTE </s> -0.3010
-0.3010 HONORINE </s> -0.3010
-0.3010 HONORé </s> -0.3010
-0.3010 HORTENSE </s> -0.3010
-0.3010 HUBERT </s> -0.3010
-0.3010 HUGUES </s> -0.3010
-0.3010 HUGUETTE </s> -0.3010
-0.3010 HéDELIN </s> -0.3010
-0.3010 HéLIER </s> -0.3010
-0.3010 HéLOïSE </s> -0.3010
-0.3010 HéLèNE </s> -0.3010
-0.3010 INNOCENT </s> -0.3010
-0.3010 INèS </s> -0.3010
-0.3010 IRINA </s> -0.3010
-0.3010 IRIS </s> -0.3010
-0.3010 IRèNE </s> -0.3010
-0.3010 ISABEAU </s> -0.3010
-0.3010 ISABELLE </s> -0.3010
-0.3010 ISEULT </s> -0.3010
-0.3010 ISIDORE </s> -0.3010
-0.3010 ISMéRIE </s> -0.3010
-0.3010 JACINTHE </s> -0.3010
-0.3010 JACQUELINE </s> -0.3010
-0.3010 JACQUES </s> -0.3010
-0.3010 JADE </s> -0.3010
-0.3010 JANINE, </s> -0.3010
-0.3010 JAPHET </s> -0.3010
-0.3010 JASON </s> -0.3010
-0.3010 JEAN </s> -0.3010
-0.3010 JEANNE </s> -0.3010
-0.3010 JEANNEL </s> -0.3010
-0.3010 JEANNOT </s> -0.3010
-0.3010 JEHANNE, </s> -0.3010
-0.3010 JOACHIM </s> -0.3010
-0.3010 JOANNY </s> -0.3010
-0.3010 JOB </s> -0.3010
-0.3010 JOCELYN </s> -0.3010
-0.3010 JOCELYNE </s> -0.3010
-0.3010 JOHAN </s> -0.3010
-0.3010 JONAS </s> -0.3010
-0.3010 JONATHAN </s> -0.3010
-0.3010 JOSEPH </s> -0.3010
-0.3010 JOSSE </s> -0.3010
-0.3010 JOSSELIN </s> -0.3010
-0.3010 JOSéPHINE </s> -0.3010
-0.3010 JOURDAIN </s> -0.3010
-0.3010 JOëL </s> -0.3010
-0.3010 JOëLLE </s> -0.3010
-0.3010 JUDE </s> -0.3010
-0.3010 JUDICAëL </s> -0.3010
-0.3010 JUDITH </s> -0.3010
-0.3010 JULES </s> -0.3010
-0.3010 JULIE </s> -0.3010
-0.3010 JULIEN </s> -0.3010
-0.3010 JULIETTE </s> -0.3010
-0.3010 JUSTE </s> -0.3010
-0.3010 JUSTIN </s> -0.3010
-0.3010 JUSTINE </s> -0.3010
-0.3010 JéRéMIE </s> -0.3010
-0.3010 JéRôME </s> -0.3010
-0.3010 KéVIN </s> -0.3010
-0.3010 LAMBERT </s> -0.3010
-0.3010 LANDRY </s> -0.3010
-0.3010 LAURA </s> -0.3010
-0.3010 LAURANE </s> -0.3010
-0.3010 LAURE </s> -0.3010
-0.3010 LAURELINE </s> -0.3010
-0.3010 LAURENCE </s> -0.3010
-0.3010 LAURENT </s> -0.3010
-0.3010 LAURIANE </s> -0.3010
-0.3010 LAURINE </s> -0.3010
-0.3010 LAURèNE </s> -0.3010
-0.3010 LAZARE </s> -0.3010
-0.3010 LEU </s> -0.3010
-0.3010 LEUFROY </s> -0.3010
-0.3010 LIBèRE </s> -0.3010
-0.3010 LIONEL </s> -0.3010
-0.3010 LIéTALD </s> -0.3010
-0.3010 LONGIN </s> -0.3010
-0.3010 LORRAIN </s> -0.3010
-0.3010 LORRAINE </s> -0.3010
-0.3010 LOTHAIRE </s> -0.3010
-0.3010 LOUIS </s> -0.3010
-0.3010 LOUP </s> -0.3010
-0.3010 LOïC </s> -0.3010
-0.3010 LUC </s> -0.3010
-0.3010 LUCAS </s> -0.3010
-0.3010 LUCIE </s> -0.3010
-0.3010 LUCIEN </s> -0.3010
-0.3010 LUCIENNE </s> -0.3010
-0.3010 LUCILLE </s> -0.3010
-0.3010 LUDIVINE </s> -0.3010
-0.3010 LUDOLPHE </s> -0.3010
-0.3010 LUDOVIC </s> -0.3010
-0.3010 LYDIE </s> -0.3010
-0.3010 LéA </s> -0.3010
-0.3010 LéANDRE </s> -0.3010
-0.3010 LéNA </s> -0.3010
-0.3010 LéON </s> -0.3010
-0.3010 LéONARD </s> -0.3010
-0.3010 LéONIE </s> -0.3010
-0.3010 LéONNE </s> -0.3010
-0.3010 LéOPOLD </s> -0.3010
-0.3010 LéOPOLDINE </s> -0.3010
-0.3010 MACAIRE </s> -0.3010
-0.3010 MADELEINE </s> -0.3010
-0.3010 MAGALI </s> -0.3010
-0.3010 MAGUELONE </s> -0.3010
-0.3010 MAHAUT </s> -0.3010
-0.3010 MALLAURY </s> -0.3010
-0.3010 MALO </s> -0.3010
-0.3010 MAMERT </s> -0.3010
-0.3010 MANASSé, </s> -0.3010
-0.3010 MANON </s> -0.3010
-0.3010 MARC </s> -0.3010
-0.3010 MARCEAU </s> -0.3010
-0.3010 MARCEL </s> -0.3010
-0.3010 MARCELIN </s> -0.3010
-0.3010 MARCELINE </s> -0.3010
-0.3010 MARGOT </s> -0.3010
-0.3010 MARGUERITE </s> -0.3010
-0.3010 MARIANNE </s> -0.3010
-0.3010 MARIE </s> -0.3010
-0.3010 MARINE </s> -0.3010
-0.3010 MARION </s> -0.3010
-0.3010 MARIUS </s> -0.3010
-0.3010 MARLèNE </s> -0.3010
-0.3010 MARTHE </s> -0.3010
-0.3010 MARTIAL </s> -0.3010
-0.3010 MARTIN </s> -0.3010
-0.3010 MARTINE </s> -0.3010
-0.3010 MATHILDE </s> -0.3010
-0.3010 MATHURIN </s> -0.3010
-0.3010 MATTHIAS </s> -0.3010
-0.3010 MATTHIEU </s> -0.3010
-0.3010 MAUD </s> -0.3010
-0.3010 MAUGIS </s> -0.3010
-0.3010 MAUREEN </s> -0.3010
-0.3010 MAURICE </s> -0.3010
-0.3010 MAURICETTE </s> -0.3010
-0.3010 MAXENCE </s> -0.3010
-0.3010 MAXIME </s> -0.3010
-0.3010 MAXIMILIEN </s> -0.3010
-0.3010 MAYEUL </s> -0.3010
-0.3010 MELCHIOR </s> -0.3010
-0.3010 MENCE </s> -0.3010
-0.3010 MERLIN </s> -0.3010
-0.3010 MICHEL </s> -0.3010
-0.3010 MICHèLE </s> -0.3010
-0.3010 MIREILLE </s> -0.3010
-0.3010 MIRIAM </s> -0.3010
-0.3010 MONIQUE </s> -0.3010
-0.3010 MORGAN </s> -0.3010
-0.3010 MORGANE </s> -0.3010
-0.3010 MOïSE </s> -0.3010
-0.3010 MOïSETTE </s> -0.3010
-0.3010 MURIEL </s> -0.3010
-0.3010 MYLèNE </s> -0.3010
-0.3010 MéDéRIC </s> -0.3010
-0.3010 MéGANE </s> -0.3010
-0.3010 MéLANIE </s> -0.3010
-0.3010 MéLISANDE </s> -0.3010
-0.3010 MéLISSA </s> -0.3010
-0.3010 MéLISSANDRE </s> -0.3010
-0.3010 MéLODIE </s> -0.3010
-0.3010 MéROVéE </s> -0.3010
-0.3010 NADINE </s> -0.3010
-0.3010 NADèGE </s> -0.3010
-0.3010 NARCISSE </s> -0.3010
-0.3010 NATHALIE </s> -0.3010
-0.3010 NATHAN </s> -0.3010
-0.3010 NATHANAëL </s> -0.3010
-0.3010 NAUDET </s> -0.3010
-0.3010 NESTOR </s> -0.3010
-0.3010 NICOLAS </s> -0.3010
-0.3010 NICOLE </s> -0.3010
-0.3010 NICéPHORE </s> -0.3010
-0.3010 NINE </s> -0.3010
-0.3010 NORBERT </s> -0.3010
-0.3010 NORMAND </s> -0.3010
-0.3010 NOé </s> -0.3010
-0.3010 NOéMIE </s> -0.3010
-0.3010 NOëL </s> -0.3010
-0.3010 NOëLLE </s> -0.3010
-0.3010 NéHéMIE </s> -0.3010
-0.3010 OCTAVE </s> -0.3010
-0.3010 OCéANE </s> -0.3010
-0.3010 ODETTE </s> -0.3010
-0.3010 ODILE </s> -0.3010
-0.3010 ODILON </s> -0.3010
-0.3010 ODON </s> -0.3010
-0.3010 OGER </s> -0.3010
-0.3010 OLIVE </s> -0.3010
-0.3010 OLIVIER </s> -0.3010
-0.3010 OLYMPE </s> -0.3010
-0.3010 OMBLINE </s> -0.3010
-0.3010 OPHéLIE </s> -0.3010
-0.3010 ORIANDE </s> -0.3010
-0.3010 ORIANE </s> -0.3010
-0.3010 ORLANE </s> -0.3010
-0.3010 OURY </s> -0.3010
-0.3010 OXLENE </s> -0.3010
-0.3010 OZANNE </s> -0.3010
-0.3010 PACôME </s> -0.3010
-0.3010 PALéMON </s> -0.3010
-0.3010 PARFAIT </s> -0.3010
-0.3010 PASCAL </s> -0.3010
-0.3010 PASCALE </s> -0.3010
-0.3010 PATERNE </s> -0.3010
-0.3010 PATRICE </s> -0.3010
-0.3010 PAUL </s> -0.3010
-0.3010 PAULE </s> -0.3010
-0.3010 PAULETTE </s> -0.3010
-0.3010 PAULINE </s> -0.3010
-0.3010 PERCEVAL </s> -0.3010
-0.3010 PERRINE </s> -0.3010
-0.3010 PHILIBERT </s> -0.3010
-0.3010 PHILIPPE </s> -0.3010
-0.3010 PHILIPPINE </s> -0.3010
-0.3010 PHILOMèNE </s> -0.3010
-0.3010 PHILOTHéE </s> -0.3010
-0.3010 PHILéMON </s> -0.3010
-0.3010 PIE </s> -0.3010
-0.3010 PIERRE </s> -0.3010
-0.3010 PIERRICK </s> -0.3010
-0.3010 PRIMEROSE </s> -0.3010
-0.3010 PRISCILLE, </s> -0.3010
-0.3010 PROSPER </s> -0.3010
-0.3010 PRUDENCE </s> -0.3010
-0.3010 PULCHéRIE </s> -0.3010
-0.3010 PéCINE </s> -0.3010
-0.3010 PéLAGIE </s> -0.3010
-0.3010 PéNéLOPE </s> -0.3010
-0.3010 PéPIN </s> -0.3010
-0.3010 PéTRONILLE </s> -0.3010
-0.3010 QUENTIN </s> -0.3010
-0.3010 QUENTINE </s> -0.3010
-0.3010 QUINTIA </s> -0.3010
-0.3010 QUIéTA </s> -0.3010
-0.3010 RACHEL </s> -0.3010
-0.3010 RAOUL </s> -0.3010
-0.3010 RAPHAëL </s> -0.3010
-0.3010 RAPHAëLLE </s> -0.3010
-0.3010 RAYMOND </s> -0.3010
-0.3010 RAYMONDE </s> -0.3010
-0.3010 REBECCA </s> -0.3010
-0.3010 REINE </s> -0.3010
-0.3010 RENAUD </s> -0.3010
-0.3010 RENé </s> -0.3010
-0.3010 RENéE </s> -0.3010
-0.3010 REYBAUD </s> -0.3010
-0.3010 RICHARD </s> -0.3010
-0.3010 RITA </s> -0.3010
-0.3010 ROBERT </s> -0.3010
-0.3010 ROCH </s> -0.3010
-0.3010 RODOLPHE </s> -0.3010
-0.3010 RODRIGUE </s> -0.3010
-0.3010 ROGER </s> -0.3010
-0.3010 ROLAND </s> -0.3010
-0.3010 ROLANDE </s> -0.3010
-0.3010 ROMAIN </s> -0.3010
-0.3010 ROMANE </s> -0.3010
-0.3010 ROMUALD </s> -0.3010
-0.3010 ROMéO </s> -0.3010
-0.3010 RONAN </s> -0.3010
-0.3010 ROSALIE </s> -0.3010
-0.3010 ROSE </s> -0.3010
-0.3010 ROSELIN </s> -0.3010
-0.3010 ROSELINE </s> -0.3010
-0.3010 RéGINE </s> -0.3010
-0.3010 RéGIS </s> -0.3010
-0.3010 RéJEAN </s> -0.3010
-0.3010 RéJEANNE </s> -0.3010
-0.3010 RéMI </s> -0.3010
-0.3010 SABINE </s> -0.3010
-0.3010 SALOMON </s> -0.3010
-0.3010 SALOMé </s> -0.3010
-0.3010 SAMUEL </s> -0.3010
-0.3010 SANDRA </s> -0.3010
-0.3010 SANDRINE </s> -0.3010
-0.3010 SARAH </s> -0.3010
-0.3010 SAUVEUR </s> -0.3010
-0.3010 SAVIN </s> -0.3010
-0.3010 SCHOLASTIQUE </s> -0.3010
-0.3010 SERGE </s> -0.3010
-0.3010 SIBYLLE </s> -0.3010
-0.3010 SIDOINE </s> -0.3010
-0.3010 SIGEBERT </s> -0.3010
-0.3010 SIGISMOND </s> -0.3010
-0.3010 SILVèRE, </s> -0.3010
-0.3010 SIMON </s> -0.3010
-0.3010 SIMONE </s> -0.3010
-0.3010 SIXTE </s> -0.3010
-0.3010 SIXTINE </s> -0.3010
-0.3010 SOLANGE </s> -0.3010
-0.3010 SOLINE </s> -0.3010
-0.3010 SOPHIE </s> -0.3010
-0.3010 STANISLAS </s> -0.3010
-0.3010 STéPHANE </s> -0.3010
-0.3010 STéPHANIE </s> -0.3010
-0.3010 SUZANNE </s> -0.3010
-0.3010 SUZON, </s> -0.3010
-0.3010 SYLVAIN </s> -0.3010
-0.3010 SYLVESTRE </s> -0.3010
-0.3010 SYLVIANE </s> -0.3010
-0.3010 SYLVIE </s> -0.3010
-0.3010 SéBASTIEN </s> -0.3010
-0.3010 SéGOLèNE </s> -0.3010
-0.3010 SéRAPHIN </s> -0.3010
-0.3010 SéVERIN </s> -0.3010
-0.3010 SéVERINE </s> -0.3010
-0.3010 TANCRèDE </s> -0.3010
-0.3010 TANGUY </s> -0.3010
-0.3010 TATIANA </s> -0.3010
-0.3010 TAURIN </s> -0.3010
-0.3010 THAïS </s> -0.3010
-0.3010 THIBAULT </s> -0.3010
-0.3010 THIBERT </s> -0.3010
-0.3010 THIERRY </s> -0.3010
-0.3010 THOMAS </s> -0.3010
-0.3010 THéODORA </s> -0.3010
-0.3010 THéODORE </s> -0.3010
-0.3010 THéODOSE </s> -0.3010
-0.3010 THéOPHILE </s> -0.3010
-0.3010 THéOPHRASTE </s> -0.3010
-0.3010 THéRèSE </s> -0.3010
-0.3010 TIMOLéON </s> -0.3010
-0.3010 TIMOTHéE </s> -0.3010
-0.3010 TIPHAINE </s> -0.3010
-0.3010 TITIEN </s> -0.3010
-0.3010 TONNIN </s> -0.3010
-0.3010 TOUSSAINT </s> -0.3010
-0.3010 TRAJAN </s> -0.3010
-0.3010 TRISTAN </s> -0.3010
-0.3010 TUROLD </s> -0.3010
-0.3010 ULYSSE </s> -0.3010
-0.3010 URBAIN </s> -0.3010
-0.3010 URSULE </s> -0.3010
-0.3010 VALENTIN </s> -0.3010
-0.3010 VALENTINE </s> -0.3010
-0.3010 VALèRE </s> -0.3010
-0.3010 VALéRIE </s> -0.3010
-0.3010 VALéRY </s> -0.3010
-0.3010 VENANCE </s> -0.3010
-0.3010 VENCESLAS </s> -0.3010
-0.3010 VIANNEY </s> -0.3010
-0.3010 VICTOIRE </s> -0.3010
-0.3010 VICTOR </s> -0.3010
-0.3010 VICTORIEN </s> -0.3010
-0.3010 VICTORIN </s> -0.3010
-0.3010 VIGILE </s> -0.3010
-0.3010 VINCENT </s> -0.3010
-0.3010 VINCIANE </s> -0.3010
-0.3010 VIOLETTE </s> -0.3010
-0.3010 VIRGINIE </s> -0.3010
-0.3010 VITAL </s> -0.3010
-0.3010 VIVIANE </s> -0.3010
-0.3010 VIVIEN </s> -0.3010
-0.3010 VéRONIQUE </s> -0.3010
-0.3010 WALERAN </s> -0.3010
-0.3010 WANDRILLE </s> -0.3010
-0.3010 XAVIER </s> -0.3010
-0.3010 XAVIèRE </s> -0.3010
-0.3010 XéNOPHON </s> -0.3010
-0.3010 YOLANDE </s> -0.3010
-0.3010 YSALINE </s> -0.3010
-0.3010 YSEULT </s> -0.3010
-0.3010 YVES </s> -0.3010
-0.3010 YVETTE </s> -0.3010
-0.3010 YVONNE </s> -0.3010
-0.3010 ZACHARIE </s> -0.3010
-0.3010 ZACHé </s> -0.3010
-0.3010 ZITA </s> -0.3010
-0.3010 ZOé </s> -0.3010
-0.3010 ZéLIE </s> -0.3010
-0.3010 ZéPHIRIN </s> -0.3010
-0.3010 ÈVE </s> -0.3010
-0.3010 ÉDITH </s> -0.3010
-0.3010 ÉDOUARD </s> -0.3010
-0.3010 ÉLEUTHèRE </s> -0.3010
-0.3010 ÉLIA </s> -0.3010
-0.3010 ÉLIANE </s> -0.3010
-0.3010 ÉLIE </s> -0.3010
-0.3010 ÉLISABETH </s> -0.3010
-0.3010 ÉLISE </s> -0.3010
-0.3010 ÉLISéE </s> -0.3010
-0.3010 ÉLODIE </s> -0.3010
-0.3010 ÉLOïSE </s> -0.3010
-0.3010 ÉLéONORE </s> -0.3010
-0.3010 ÉMELINE </s> -0.3010
-0.3010 ÉMERIC </s> -0.3010
-0.3010 ÉMILE </s> -0.3010
-0.3010 ÉMILIE </s> -0.3010
-0.3010 ÉMéRANCE </s> -0.3010
-0.3010 ÉMéRENCIE </s> -0.3010
-0.3010 ÉPIPHANE </s> -0.3010
-0.3010 ÉRIC </s> -0.3010
-0.3010 ÉTIENNE </s> -0.3010
-0.3010 ÉVA </s> -0.3010
-0.3010 ÉVANGéLINE </s> -0.3010
-0.3010 ÉVARISTE </s> -0.3010
-0.3010 ÉVELYNE </s> -0.3010
-0.3010 ÉVRARD </s> -0.3010

\3-grams:
-0.3010 <s> AARON </s>
-0.3010 <s> ABDON </s>
-0.3010 <s> ABDONIE </s>
-0.3010 <s> ABEL </s>
-0.3010 <s> ABELIN </s>
-0.3010 <s> ABELINE </s>
-0.3010 <s> ABIGAELLE </s>
-0.3010 <s> ABIGAïL </s>
-0.3010 <s> ABONDANCE </s>
-0.3010 <s> ABRAHAM </s>
-0.3010 <s> ABSALON </s>
-0.3010 <s> ABéLARD </s>
-0.3010 <s> ACACE </s>
-0.3010 <s> ACACIE </s>
-0.3010 <s> ACANTHE </s>
-0.3010 <s> ACHAIRE </s>
-0.3010 <s> ACHILLE </s>
-0.3010 <s> ADALARD </s>
-0.3010 <s> ADALBALD </s>
-0.3010 <s> ADALBAUDE </s>
-0.3010 <s> ADALBERT </s>
-0.3010 <s> ADALBéRON </s>
-0.3010 <s> ADALRIC </s>
-0.3010 <s> ADALSINDE </s>
-0.3010 <s> ADAM </s>
-0.3010 <s> ADEGRIN </s>
-0.3010 <s> ADEGRINE </s>
-0.3010 <s> ADEL </s>
-0.3010 <s> ADELIN </s>
-0.3010 <s> ADELINE </s>
-0.3010 <s> ADELPHE </s>
-0.3010 <s> ADELTRUDE </s>
-0.3010 <s> ADENET </s>
-0.3010 <s> ADHéMAR </s>
-0.3010 <s> ADJUTOR </s>
-0.3010 <s> ADOLPHE </s>
-0.3010 <s> ADOLPHIE </s>
-0.3010 <s> ADONIS </s>
-0.3010 <s> ADONISE </s>
-0.3010 <s> ADRASTéE </s>
-0.3010 <s> ADREHILDE </s>
-0.3010 <s> ADRIEN </s>
-0.3010 <s> ADRIENNE </s>
-0.3010 <s> ADèLE </s>
-0.3010 <s> ADéLAïDE </s>
-0.3010 <s> ADéLIE </s>
-0.3010 <s> ADéODAT </s>
-0.3010 <s> AGAPET </s>
-0.3010 <s> AGATHANGE </s>
-0.3010 <s> AGATHE </s>
-0.3010 <s> AGATHON </s>
-0.3010 <s> AGILBERT </s>
-0.3010 <s> AGILBERTE </s>
-0.3010 <s> AGLAé </s>
-0.3010 <s> AGNAN </s>
-0.3010 <s> AGNANE </s>
-0.3010 <s> AGNEFLèTE </s>
-0.3010 <s> AGNèS </s>
-0.3010 <s> AGRIPPIN </s>
-0.3010 <s> AGRIPPINE </s>
-0.3010 <s> AIMABLE </s>
-0.3010 <s> AIMé </s>
-0.3010 <s> AIMéE </s>
-0.3010 <s> ALAIN </s>
-0.3010 <s> ALAINE </s>
-0.3010 <s> ALAïS1 </s>
-0.3010 <s> ALBAN </s>
-0.3010 <s> ALBANE </s>
-0.3010 <s> ALBERT </s>
-0.3010 <s> ALBERTE </s>
-0.3010 <s> ALBéRADE </s>
-0.3010 <s> ALBéRIC </s>
-0.3010 <s> ALCIBIADE </s>
-0.3010 <s> ALCIDE </s>
-0.3010 <s> ALCIDIE </s>
-0.3010 <s> ALCIME </s>
-0.3010 <s> ALCINE </s>
-0.3010 <s> ALCYONE </s>
-0.3010 <s> ALDEGONDE </s>
-0.3010 <s> ALDONCE </s>
-0.3010 <s> ALDRIC </s>
-0.3010 <s> ALEAUME </s>
-0.3010 <s> ALETH </s>
-0.3010 <s> ALEXANDRE </s>
-0.3010 <s> ALEXANDRINE </s>
-0.3010 <s> ALEXINE </s>
-0.3010 <s> ALEXIS </s>
-0.3010 <s> ALICE </s>
-0.3010 <s> ALIETTE </s>
-0.3010 <s> ALINE </s>
-0.3010 <s> ALIX </s>
-0.3010 <s> ALIZé </s>
-0.3010 <s> ALIéNOR </s>
-0.3010 <s> ALLIAUME: </s>
-0.3010 <s> ALMINE </s>
-0.3010 <s> ALMIRE </s>
-0.3010 <s> ALOYSE </s>
-0.3010 <s> ALOïS </s>
-0.3010 <s> ALOïSE </s>
-0.3010 <s> ALPHONSE </s>
-0.3010 <s> ALPHONSINE </s>
-0.3010 <s> ALPHéE </s>
-0.3010 <s> ALPINIEN </s>
-0.3010 <s> ALTHéE </s>
-0.3010 <s> ALVERèDE </s>
-0.3010 <s> AMALIANE </s>
-0.3010 <s> AMALRIC </s>
-0.3010 <s> AMALTHéE </s>
-0.3010 <s> AMANDE </s>
-0.3010 <s> AMANDIN </s>
-0.3010 <s> AMANDINE </s>
-0.3010 <s> AMANT </s>
-0.3010 <s> AMANTE </s>
-0.3010 <s> AMARANDE </s>
-0.3010 <s> AMARANTHE </s>
-0.3010 <s> AMARYLLIS </s>
-0.3010 <s> AMBRE </s>
-0.3010 <s> AMBROISE </s>
-0.3010 <s> AMBROISIE </s>
-0.3010 <s> AMELINE </s>
-0.3010 <s> AMIEL </s>
-0.3010 <s> AMINTE </s>
-0.3010 <s> AMOUR </s>
-0.3010 <s> AMéDéE </s>
-0.3010 <s> AMéLIANE </s>
-0.3010 <s> AMéLIE </s>
-0.3010 <s> AMéLIEN </s>
-0.3010 <s> AMéTHYSTE </s>
-0.3010 <s> ANASTASE </s>
-0.3010 <s> ANASTASIE </s>
-0.3010 <s> ANATOLE </s>
-0.3010 <s> ANATOLIE </s>
-0.3010 <s> ANAëL </s>
-0.3010 <s> ANAëLLE </s>
-0.3010 <s> ANAïS </s>
-0.3010 <s> ANCELIN </s>
-0.3010 <s> ANCELINE </s>
-0.3010 <s> ANDOCHE </s>
-0.3010 <s> ANDRé </s>
-0.3010 <s> ANDRéE </s>
-0.3010 <s> ANDéOL </s>
-0.3010 <s> ANGADRêME </s>
-0.3010 <s> ANGE </s>
-0.3010 <s> ANGELINE </s>
-0.3010 <s> ANGILBE </s>
-0.3010 <s> ANGILBERTE </s>
-0.3010 <s> ANGILRAN </s>
-0.3010 <s> ANGOUSTAN </s>
-0.3010 <s> ANGèLE </s>
-0.3010 <s> ANGéLIQUE </s>
-0.3010 <s> ANICET </s>
-0.3010 <s> ANICETTE </s>
-0.3010 <s> ANICéE </s>
-0.3010 <s> ANNABELLE </s>
-0.3010 <s> ANNE </s>
-0.3010 <s> ANNETTE </s>
-0.3010 <s> ANNIBAL </s>
-0.3010 <s> ANNONCIADE, </s>
-0.3010 <s> ANSBERT </s>
-0.3010 <s> ANSBERTE </s>
-0.3010 <s> ANSELME </s>
-0.3010 <s> ANSTRUDIE </s>
-0.3010 <s> ANTHELME </s>
-0.3010 <s> ANTHELMETTE </s>
-0.3010 <s> ANTIDE </s>
-0.3010 <s> ANTIGONE </s>
-0.3010 <s> ANTOINE </s>
-0.3010 <s> ANTOINETTE </s>
-0.3010 <s> ANTONIN </s>
-0.3010 <s> ANTONINE </s>
-0.3010 <s> ANéMONE </s>
-0.3010 <s> APHéLIE </s>
-0.3010 <s> APOLLINAIRE </s>
-0.3010 <s> APOLLINE </s>
-0.3010 <s> AQUILIN </s>
-0.3010 <s> AQUILINE </s>
-0.3010 <s> ARABELLE </s>
-0.3010 <s> ARCADE </s>
-0.3010 <s> ARCADIE </s>
-0.3010 <s> ARCHAMBAUD </s>
-0.3010 <s> ARCHANGE </s>
-0.3010 <s> ARCHIBALD </s>
-0.3010 <s> ARGINE </s>
-0.3010 <s> ARIAN </s>
-0.3010 <s> ARIANE </s>
-0.3010 <s> ARICIE </s>
-0.3010 <s> ARIEL </s>
-0.3010 <s> ARIELLE </s>
-0.3010 <s> ARISTE </s>
-0.3010 <s> ARISTIDE </s>
-0.3010 <s> ARLETTE </s>
-0.3010 <s> ARMANCE </s>
-0.3010 <s> ARMAND </s>
-0.3010 <s> ARMANDE </s>
-0.3010 <s> ARMANDINE </s>
-0.3010 <s> ARMEL </s>
-0.3010 <s> ARMELINE </s>
-0.3010 <s> ARMELLE </s>
-0.3010 <s> ARMIDE </s>
-0.3010 <s> ARMIN </s>
-0.3010 <s> ARMINE </s>
-0.3010 <s> ARNAUD, </s>
-0.3010 <s> ARNAUDE </s>
-0.3010 <s> ARNOULD, </s>
-0.3010 <s> AROLDE </s>
-0.3010 <s> ARSINOé </s>
-0.3010 <s> ARSèNE </s>
-0.3010 <s> ARSèNIE </s>
-0.3010 <s> ARTHAUD </s>
-0.3010 <s> ARTHUR </s>
-0.3010 <s> ARTHURINE </s>
-0.3010 <s> ARTHèME </s>
-0.3010 <s> ARTéMIS </s>
-0.3010 <s> ASCELIN </s>
-0.3010 <s> ASCELINE </s>
-0.3010 <s> ASCENSION </s>
-0.3010 <s> ASSOMPTION </s>
-0.3010 <s> ASTARTé </s>
-0.3010 <s> ASTRIDE </s>
-0.3010 <s> ASTRéE </s>
-0.3010 <s> ASTéRIE </s>
-0.3010 <s> ATHALIE </s>
-0.3010 <s> ATHANASE </s>
-0.3010 <s> ATHANASIE </s>
-0.3010 <s> ATHINA </s>
-0.3010 <s> ATHéNAïS </s>
-0.3010 <s> AUBE </s>
-0.3010 <s> AUBERTINE </s>
-0.3010 <s> AUBRY </s>
-0.3010 <s> AUDE </s>
-0.3010 <s> AUDEBERT </s>
-0.3010 <s> AUDELINE </s>
-0.3010 <s> AUDOUIN </s>
-0.3010 <s> AUDRAN </s>
-0.3010 <s> AUDREY </s>
-0.3010 <s> AUGUSTE </s>
-0.3010 <s> AUGUSTINE </s>
-0.3010 <s> AURE </s>
-0.3010 <s> AURELLE </s>
-0.3010 <s> AURIAN </s>
-0.3010 <s> AURIANE </s>
-0.3010 <s> AURORE </s>
-0.3010 <s> AURèLE </s>
-0.3010 <s> AURéLIE </s>
-0.3010 <s> AURéLIENNE </s>
-0.3010 <s> AUXANE </s>
-0.3010 <s> AUXENCE </s>
-0.3010 <s> AVELINE </s>
-0.3010 <s> AVIGAëLLE </s>
-0.3010 <s> AVOYE </s>
-0.3010 <s> AXEL </s>
-0.3010 <s> AXELINE </s>
-0.3010 <s> AXELLE </s>
-0.3010 <s> AYMARD </s>
-0.3010 <s> AYMARDINE </s>
-0.3010 <s> AYMERIC </s>
-0.3010 <s> AYMON </s>
-0.3010 <s> AYMONDE </s>
-0.3010 <s> AZALéE </s>
-0.3010 <s> AZELINE </s>
-0.3010 <s> AZéLIE </s>
-0.3010 <s> BALTHAZAR </s>
-0.3010 <s> BAPTISTE </s>
-0.3010 <s> BARBE </s>
-0.3010 <s> BARNABé </s>
-0.3010 <s> BARTHéLEMY </s>
-0.3010 <s> BARTIMéE </s>
-0.3010 <s> BASILE </s>
-0.3010 <s> BASILISSE </s>
-0.3010 <s> BASTIEN </s>
-0.3010 <s> BATHILDE </s>
-0.3010 <s> BAUDOUIN </s>
-0.3010 <s> BENJAMIN </s>
-0.3010 <s> BENOîT </s>
-0.3010 <s> BERNADETTE </s>
-0.3010 <s> BERNARD </s>
-0.3010 <s> BERTHE </s>
-0.3010 <s> BERTILLE </s>
-0.3010 <s> BERTRAND </s>
-0.3010 <s> BEUVE </s>
-0.3010 <s> BLAISE </s>
-0.3010 <s> BLANCHE </s>
-0.3010 <s> BLANDINE </s>
-0.3010 <s> BON </s>
-0.3010 <s> BONIFACE </s>
-0.3010 <s> BOUCHARD </s>
-0.3010 <s> BRICE </s>
-0.3010 <s> BRIEUC </s>
-0.3010 <s> BRIGITTE </s>
-0.3010 <s> BRUNEHAUT </s>
-0.3010 <s> BRUNEHILDE </s>
-0.3010 <s> BRUNO </s>
-0.3010 <s> BéATRICE </s>
-0.3010 <s> BéNIGNE </s>
-0.3010 <s> BéNéDICTE </s>
-0.3010 <s> BéRANGER </s>
-0.3010 <s> BéRANGèRE </s>
-0.3010 <s> BéRARD </s>
-0.3010 <s> CALIXTE </s>
-0.3010 <s> CAMILLE </s>
-0.3010 <s> CAMILLIEN </s>
-0.3010 <s> CAMéLIEN </s>
-0.3010 <s> CANDIDE </s>
-0.3010 <s> CAPUCINE </s>
-0.3010 <s> CARIBERT </s>
-0.3010 <s> CARINE </s>
-0.3010 <s> CARLOMAN </s>
-0.3010 <s> CAROLINE </s>
-0.3010 <s> CASSANDRE </s>
-0.3010 <s> CASSIEN </s>
-0.3010 <s> CATHERINE </s>
-0.3010 <s> CHANTAL </s>
-0.3010 <s> CHARLAINE </s>
-0.3010 <s> CHARLEMAGNE </s>
-0.3010 <s> CHARLES </s>
-0.3010 <s> CHARLINE </s>
-0.3010 <s> CHARLOTTE </s>
-0.3010 <s> CHILDEBERT </s>
-0.3010 <s> CHILPéRIC </s>
-0.3010 <s> CHLOé </s>
-0.3010 <s> CHRISTELLE </s>
-0.3010 <s> CHRISTIAN </s>
-0.3010 <s> CHRISTIANE </s>
-0.3010 <s> CHRISTINE </s>
-0.3010 <s> CHRISTODULE </s>
-0.3010 <s> CHRISTOPHE </s>
-0.3010 <s> CHRYSOSTOME </s>
-0.3010 <s> CHRéTIEN </s>
-0.3010 <s> CLAIRE </s>
-0.3010 <s> CLARA </s>
-0.3010 <s> CLARENCE </s>
-0.3010 <s> CLARISSE </s>
-0.3010 <s> CLAUDE </s>
-0.3010 <s> CLAUDIEN </s>
-0.3010 <s> CLAUDINE </s>
-0.3010 <s> CLIO: </s>
-0.3010 <s> CLOTAIRE </s>
-0.3010 <s> CLOTILDE </s>
-0.3010 <s> CLOVIS </s>
-0.3010 <s> CLéANDRE </s>
-0.3010 <s> CLéMENCE </s>
-0.3010 <s> CLéMENT </s>
-0.3010 <s> CLéMENTINE </s>
-0.3010 <s> COLIN </s>
-0.3010 <s> COLINE </s>
-0.3010 <s> CONCEPTION: </s>
-0.3010 <s> CONSTANCE </s>
-0.3010 <s> CONSTANT </s>
-0.3010 <s> CONSTANTIN </s>
-0.3010 <s> CORALIE </s>
-0.3010 <s> CORALINE </s>
-0.3010 <s> CORENTIN </s>
-0.3010 <s> CORENTINE </s>
-0.3010 <s> CORINNE </s>
-0.3010 <s> CYPRIEN </s>
-0.3010 <s> CYRIAQUE </s>
-0.3010 <s> CYRIELLE </s>
-0.3010 <s> CYRILLE </s>
-0.3010 <s> CéCILE </s>
-0.3010 <s> CéDRIC </s>
-0.3010 <s> CéLESTE </s>
-0.3010 <s> CéLESTIN </s>
-0.3010 <s> CéLESTINE </s>
-0.3010 <s> CéLIEN </s>
-0.3010 <s> CéLINE </s>
-0.3010 <s> CéSAIRE </s>
-0.3010 <s> CéSAR </s>
-0.3010 <s> CôME </s>
-0.3010 <s> DAMIEN </s>
-0.3010 <s> DANIEL </s>
-0.3010 <s> DANIELLE </s>
-0.3010 <s> DAPHNé </s>
-0.3010 <s> DAVID </s>
-0.3010 <s> DELPHIN </s>
-0.3010 <s> DELPHINE </s>
-0.3010 <s> DENIS </s>
-0.3010 <s> DENISE </s>
-0.3010 <s> DIANE </s>
-0.3010 <s> DIDIER </s>
-0.3010 <s> DIEUDONNé </s>
-0.3010 <s> DIEUDONNéE </s>
-0.3010 <s> DIMITRI </s>
-0.3010 <s> DOMINIQUE </s>
-0.3010 <s> DORIAN </s>
-0.3010 <s> DORIANE </s>
-0.3010 <s> DORINE </s>
-0.3010 <s> DOROTHéE </s>
-0.3010 <s> DOUCE </s>
-0.3010 <s> DOVE </s>
-0.3010 <s> DéBORA </s>
-0.3010 <s> DéSIRé </s>
-0.3010 <s> EDGARD </s>
-0.3010 <s> EDMOND </s>
-0.3010 <s> EDMéE </s>
-0.3010 <s> ELLA </s>
-0.3010 <s> ELSA </s>
-0.3010 <s> EMMA </s>
-0.3010 <s> EMMANUEL </s>
-0.3010 <s> EMMANUELLE </s>
-0.3010 <s> EMMELIE </s>
-0.3010 <s> ERNEST </s>
-0.3010 <s> ERNESTINE </s>
-0.3010 <s> ESTELLE </s>
-0.3010 <s> ESTHER </s>
-0.3010 <s> EUBERT </s>
-0.3010 <s> EUDES </s>
-0.3010 <s> EUDOXE </s>
-0.3010 <s> EUDOXIE </s>
-0.3010 <s> EUGèNE </s>
-0.3010 <s> EUGéNIE </s>
-0.3010 <s> EULALIE </s>
-0.3010 <s> EUPHRASIE </s>
-0.3010 <s> EUSTACHE </s>
-0.3010 <s> EUSèBE </s>
-0.3010 <s> EUSéBIE </s>
-0.3010 <s> FABIEN </s>
-0.3010 <s> FABRICE </s>
-0.3010 <s> FALBA </s>
-0.3010 <s> FANNY </s>
-0.3010 <s> FANTINE </s>
-0.3010 <s> FAUSTINE </s>
-0.3010 <s> FERDINAND </s>
-0.3010 <s> FERNANDE </s>
-0.3010 <s> FIACRE </s>
-0.3010 <s> FIDèLE </s>
-0.3010 <s> FIRMIN </s>
-0.3010 <s> FLAVIE </s>
-0.3010 <s> FLAVIEN </s>
-0.3010 <s> FLEUR </s>
-0.3010 <s> FLODOARD </s>
-0.3010 <s> FLORE </s>
-0.3010 <s> FLORENCE </s>
-0.3010 <s> FLORENT, </s>
-0.3010 <s> FLORIAN </s>
-0.3010 <s> FLORIE </s>
-0.3010 <s> FORTUNé </s>
-0.3010 <s> FORTUNéE </s>
-0.3010 <s> FOULQUES </s>
-0.3010 <s> FRANCE </s>
-0.3010 <s> FRANCIA </s>
-0.3010 <s> FRANCISQUE </s>
-0.3010 <s> FRANçOIS </s>
-0.3010 <s> FRANçOISE </s>
-0.3010 <s> FRéDéRIC </s>
-0.3010 <s> FULBERT </s>
-0.3010 <s> FULCRAN </s>
-0.3010 <s> FULGENCE </s>
-0.3010 <s> FéLICIE </s>
-0.3010 <s> FéLICITé </s>
-0.3010 <s> FéLIX </s>
-0.3010 <s> GABIN </s>
-0.3010 <s> GABRIEL </s>
-0.3010 <s> GABRIELLE </s>
-0.3010 <s> GARANCE </s>
-0.3010 <s> GARNIER </s>
-0.3010 <s> GASPARD </s>
-0.3010 <s> GASTON </s>
-0.3010 <s> GATIEN </s>
-0.3010 <s> GAUD </s>
-0.3010 <s> GAUTIER </s>
-0.3010 <s> GAëL </s>
-0.3010 <s> GAëLLE </s>
-0.3010 <s> GENEVIèVE </s>
-0.3010 <s> GEOFFROY </s>
-0.3010 <s> GEORGES </s>
-0.3010 <s> GEORGETTE </s>
-0.3010 <s> GERBERGE </s>
-0.3010 <s> GERBERT </s>
-0.3010 <s> GERMAIN </s>
-0.3010 <s> GERMAINE </s>
-0.3010 <s> GERTRUDE </s>
-0.3010 <s> GERVAIS </s>
-0.3010 <s> GHISLAIN </s>
-0.3010 <s> GILBERT </s>
-0.3010 <s> GILLES </s>
-0.3010 <s> GIRART </s>
-0.3010 <s> GISLEBERT </s>
-0.3010 <s> GISèLE </s>
-0.3010 <s> GONDEBAUD </s>
-0.3010 <s> GONTHIER </s>
-0.3010 <s> GONTRAN </s>
-0.3010 <s> GONZAGUE </s>
-0.3010 <s> GRéGOIRE </s>
-0.3010 <s> GUENIèVRE </s>
-0.3010 <s> GUI </s>
-0.3010 <s> GUILHEMINE </s>
-0.3010 <s> GUILLAUME </s>
-0.3010 <s> GUILLEMETTE </s>
-0.3010 <s> GUSTAVE </s>
-0.3010 <s> GUSTAVINE </s>
-0.3010 <s> GUY </s>
-0.3010 <s> GUYOT </s>
-0.3010 <s> GUéRIN </s>
-0.3010 <s> GWENAëLLE </s>
-0.3010 <s> GéDéON </s>
-0.3010 <s> GéRARD </s>
-0.3010 <s> GéRAUD </s>
-0.3010 <s> HARDOUIN </s>
-0.3010 <s> HECTOR </s>
-0.3010 <s> HENRI </s>
-0.3010 <s> HENRIETTE </s>
-0.3010 <s> HERBERT </s>
-0.3010 <s> HERLUIN </s>
-0.3010 <s> HERMINE </s>
-0.3010 <s> HERVé </s>
-0.3010 <s> HILAIRE </s>
-0.3010 <s> HILDEBERT </s>
-0.3010 <s> HINCMAR </s>
-0.3010 <s> HIPPOLYTE </s>
-0.3010 <s> HONORINE </s>
-0.3010 <s> HONORé </s>
-0.3010 <s> HORTENSE </s>
-0.3010 <s> HUBERT </s>
-0.3010 <s> HUGUES </s>
-0.3010 <s> HUGUETTE </s>
-0.3010 <s> HéDELIN </s>
-0.3010 <s> HéLIER </s>
-0.3010 <s> HéLOïSE </s>
-0.3010 <s> HéLèNE </s>
-0.3010 <s> INNOCENT </s>
-0.3010 <s> INèS </s>
-0.3010 <s> IRINA </s>
-0.3010 <s> IRIS </s>
-0.3010 <s> IRèNE </s>
-0.3010 <s> ISABEAU </s>
-0.3010 <s> ISABELLE </s>
-0.3010 <s> ISEULT </s>
-0.3010 <s> ISIDORE </s>
-0.3010 <s> ISMéRIE </s>
-0.3010 <s> JACINTHE </s>
-0.3010 <s> JACQUELINE </s>
-0.3010 <s> JACQUES </s>
-0.3010 <s> JADE </s>
-0.3010 <s> JANINE, </s>
-0.3010 <s> JAPHET </s>
-0.3010 <s> JASON </s>
-0.3010 <s> JEAN </s>
-0.3010 <s> JEANNE </s>
-0.3010 <s> JEANNEL </s>
-0.3010 <s> JEANNOT </s>
-0.3010 <s> JEHANNE, </s>
-0.3010 <s> JOACHIM </s>
-0.3010 <s> JOANNY </s>
-0.3010 <s> JOB </s>
-0.3010 <s> JOCELYN </s>
-0.3010 <s> JOCELYNE </s>
-0.3010 <s> JOHAN </s>
-0.3010 <s> JONAS </s>
-0.3010 <s> JONATHAN </s>
-0.3010 <s> JOSEPH </s>
-0.3010 <s> JOSSE </s>
-0.3010 <s> JOSSELIN </s>
-0.3010 <s> JOSéPHINE </s>
-0.3010 <s> JOURDAIN </s>
-0.3010 <s> JOëL </s>
-0.3010 <s> JOëLLE </s>
-0.3010 <s> JUDE </s>
-0.3010 <s> JUDICAëL </s>
-0.3010 <s> JUDITH </s>
-0.3010 <s> JULES </s>
-0.3010 <s> JULIE </s>
-0.3010 <s> JULIEN </s>
-0.3010 <s> JULIETTE </s>
-0.3010 <s> JUSTE </s>
-0.3010 <s> JUSTIN </s>
-0.3010 <s> JUSTINE </s>
-0.3010 <s> JéRéMIE </s>
-0.3010 <s> JéRôME </s>
-0.3010 <s> KéVIN </s>
-0.3010 <s> LAMBERT </s>
-0.3010 <s> LANDRY </s>
-0.3010 <s> LAURA </s>
-0.3010 <s> LAURANE </s>
-0.3010 <s> LAURE </s>
-0.3010 <s> LAURELINE </s>
-0.3010 <s> LAURENCE </s>
-0.3010 <s> LAURENT </s>
-0.3010 <s> LAURIANE </s>
-0.3010 <s> LAURINE </s>
-0.3010 <s> LAURèNE </s>
-0.3010 <s> LAZARE </s>
-0.3010 <s> LEU </s>
-0.3010 <s> LEUFROY </s>
-0.3010 <s> LIBèRE </s>
-0.3010 <s> LIONEL </s>
-0.3010 <s> LIéTALD </s>
-0.3010 <s> LONGIN </s>
-0.3010 <s> LORRAIN </s>
-0.3010 <s> LORRAINE </s>
-0.3010 <s> LOTHAIRE </s>
-0.3010 <s> LOUIS </s>
-0.3010 <s> LOUP </s>
-0.3010 <s> LOïC </s>
-0.3010 <s> LUC </s>
-0.3010 <s> LUCAS </s>
-0.3010 <s> LUCIE </s>
-0.3010 <s> LUCIEN </s>
-0.3010 <s> LUCIENNE </s>
-0.3010 <s> LUCILLE </s>
-0.3010 <s> LUDIVINE </s>
-0.3010 <s> LUDOLPHE </s>
-0.3010 <s> LUDOVIC </s>
-0.3010 <s> LYDIE </s>
-0.3010 <s> LéA </s>
-0.3010 <s> LéANDRE </s>
-0.3010 <s> LéNA </s>
-0.3010 <s> LéON </s>
-0.3010 <s> LéONARD </s>
-0.3010 <s> LéONIE </s>
-0.3010 <s> LéONNE </s>
-0.3010 <s> LéOPOLD </s>
-0.3010 <s> LéOPOLDINE </s>
-0.3010 <s> MACAIRE </s>
-0.3010 <s> MADELEINE </s>
-0.3010 <s> MAGALI </s>
-0.3010 <s> MAGUELONE </s>
-0.3010 <s> MAHAUT </s>
-0.3010 <s> MALLAURY </s>
-0.3010 <s> MALO </s>
-0.3010 <s> MAMERT </s>
-0.3010 <s> MANASSé, </s>
-0.3010 <s> MANON </s>
-0.3010 <s> MARC </s>
-0.3010 <s> MARCEAU </s>
-0.3010 <s> MARCEL </s>
-0.3010 <s> MARCELIN </s>
-0.3010 <s> MARCELINE </s>
-0.3010 <s> MARGOT </s>
-0.3010 <s> MARGUERITE </s>
-0.3010 <s> MARIANNE </s>
-0.3010 <s> MARIE </s>
-0.3010 <s> MARINE </s>
-0.3010 <s> MARION </s>
-0.3010 <s> MARIUS </s>
-0.3010 <s> MARLèNE </s>
-0.3010 <s> MARTHE </s>
-0.3010 <s> MARTIAL </s>
-0.3010 <s> MARTIN </s>
-0.3010 <s> MARTINE </s>
-0.3010 <s> MATHILDE </s>
-0.3010 <s> MATHURIN </s>
-0.3010 <s> MATTHIAS </s>
-0.3010 <s> MATTHIEU </s>
-0.3010 <s> MAUD </s>
-0.3010 <s> MAUGIS </s>
-0.3010 <s> MAUREEN </s>
-0.3010 <s> MAURICE </s>
-0.3010 <s> MAURICETTE </s>
-0.3010 <s> MAXENCE </s>
-0.3010 <s> MAXIME </s>
-0.3010 <s> MAXIMILIEN </s>
-0.3010 <s> MAYEUL </s>
-0.3010 <s> MELCHIOR </s>
-0.3010 <s> MENCE </s>
-0.3010 <s> MERLIN </s>
-0.3010 <s> MICHEL </s>
-0.3010 <s> MICHèLE </s>
-0.3010 <s> MIREILLE </s>
-0.3010 <s> MIRIAM </s>
-0.3010 <s> MONIQUE </s>
-0.3010 <s> MORGAN </s>
-0.3010 <s> MORGANE </s>
-0.3010 <s> MOïSE </s>
-0.3010 <s> MOïSETTE </s>
-0.3010 <s> MURIEL </s>
-0.3010 <s> MYLèNE </s>
-0.3010 <s> MéDéRIC </s>
-0.3010 <s> MéGANE </s>
-0.3010 <s> MéLANIE </s>
-0.3010 <s> MéLISANDE </s>
-0.3010 <s> MéLISSA </s>
-0.3010 <s> MéLISSANDRE </s>
-0.3010 <s> MéLODIE </s>
-0.3010 <s> MéROVéE </s>
-0.3010 <s> NADINE </s>
-0.3010 <s> NADèGE </s>
-0.3010 <s> NARCISSE </s>
-0.3010 <s> NATHALIE </s>
-0.3010 <s> NATHAN </s>
-0.3010 <s> NATHANAëL </s>
-0.3010 <s> NAUDET </s>
-0.3010 <s> NESTOR </s>
-0.3010 <s> NICOLAS </s>
-0.3010 <s> NICOLE </s>
-0.3010 <s> NICéPHORE </s>
-0.3010 <s> NINE </s>
-0.3010 <s> NORBERT </s>
-0.3010 <s> NORMAND </s>
-0.3010 <s> NOé </s>
-0.3010 <s> NOéMIE </s>
-0.3010 <s> NOëL </s>
-0.3010 <s> NOëLLE </s>
-0.3010 <s> NéHéMIE </s>
-0.3010 <s> OCTAVE </s>
-0.3010 <s> OCéANE </s>
-0.3010 <s> ODETTE </s>
-0.3010 <s> ODILE </s>
-0.3010 <s> ODILON </s>
-0.3010 <s> ODON </s>
-0.3010 <s> OGER </s>
-0.3010 <s> OLIVE </s>
-0.3010 <s> OLIVIER </s>
-0.3010 <s> OLYMPE </s>
-0.3010 <s> OMBLINE </s>
-0.3010 <s> OPHéLIE </s>
-0.3010 <s> ORIANDE </s>
-0.3010 <s> ORIANE </s>
-0.3010 <s> ORLANE </s>
-0.3010 <s> OURY </s>
-0.3010 <s> OXLENE </s>
-0.3010 <s> OZANNE </s>
-0.3010 <s> PACôME </s>
-0.3010 <s> PALéMON </s>
-0.3010 <s> PARFAIT </s>
-0.3010 <s> PASCAL </s>
-0.3010 <s> PASCALE </s>
-0.3010 <s> PATERNE </s>
-0.3010 <s> PATRICE </s>
-0.3010 <s> PAUL </s>
-0.3010 <s> PAULE </s>
-0.3010 <s> PAULETTE </s>
-0.3010 <s> PAULINE </s>
-0.3010 <s> PERCEVAL </s>
-0.3010 <s> PERRINE </s>
-0.3010 <s> PHILIBERT </s>
-0.3010 <s> PHILIPPE </s>
-0.3010 <s> PHILIPPINE </s>
-0.3010 <s> PHILOMèNE </s>
-0.3010 <s> PHILOTHéE </s>
-0.3010 <s> PHILéMON </s>
-0.3010 <s> PIE </s>
-0.3010 <s> PIERRE </s>
-0.3010 <s> PIERRICK </s>
-0.3010 <s> PRIMEROSE </s>
-0.3010 <s> PRISCILLE, </s>
-0.3010 <s> PROSPER </s>
-0.3010 <s> PRUDENCE </s>
-0.3010 <s> PULCHéRIE </s>
-0.3010 <s> PéCINE </s>
-0.3010 <s> PéLAGIE </s>
-0.3010 <s> PéNéLOPE </s>
-0.3010 <s> PéPIN </s>
-0.3010 <s> PéTRONILLE </s>
-0.3010 <s> QUENTIN </s>
-0.3010 <s> QUENTINE </s>
-0.3010 <s> QUINTIA </s>
-0.3010 <s> QUIéTA </s>
-0.3010 <s> RACHEL </s>
-0.3010 <s> RAOUL </s>
-0.3010 <s> RAPHAëL </s>
-0.3010 <s> RAPHAëLLE </s>
-0.3010 <s> RAYMOND </s>
-0.3010 <s> RAYMONDE </s>
-0.3010 <s> REBECCA </s>
-0.3010 <s> REINE </s>
-0.3010 <s> RENAUD </s>
-0.3010 <s> RENé </s>
-0.3010 <s> RENéE </s>
-0.3010 <s> REYBAUD </s>
-0.3010 <s> RICHARD </s>
-0.3010 <s> RITA </s>
-0.3010 <s> ROBERT </s>
-0.3010 <s> ROCH </s>
-0.3010 <s> RODOLPHE </s>
-0.3010 <s> RODRIGUE </s>
-0.3010 <s> ROGER </s>
-0.3010 <s> ROLAND </s>
-0.3010 <s> ROLANDE </s>
-0.3010 <s> ROMAIN </s>
-0.3010 <s> ROMANE </s>
-0.3010 <s> ROMUALD </s>
-0.3010 <s> ROMéO </s>
-0.3010 <s> RONAN </s>
-0.3010 <s> ROSALIE </s>
-0.3010 <s> ROSE </s>
-0.3010 <s> ROSELIN </s>
-0.3010 <s> ROSELINE </s>
-0.3010 <s> RéGINE </s>
-0.3010 <s> RéGIS </s>
-0.3010 <s> RéJEAN </s>
-0.3010 <s> RéJEANNE </s>
-0.3010 <s> RéMI </s>
-0.3010 <s> SABINE </s>
-0.3010 <s> SALOMON </s>
-0.3010 <s> SALOMé </s>
-0.3010 <s> SAMUEL </s>
-0.3010 <s> SANDRA </s>
-0.3010 <s> SANDRINE </s>
-0.3010 <s> SARAH </s>
-0.3010 <s> SAUVEUR </s>
-0.3010 <s> SAVIN </s>
-0.3010 <s> SCHOLASTIQUE </s>
-0.3010 <s> SERGE </s>
-0.3010 <s> SIBYLLE </s>
-0.3010 <s> SIDOINE </s>
-0.3010 <s> SIGEBERT </s>
-0.3010 <s> SIGISMOND </s>
-0.3010 <s> SILVèRE, </s>
-0.3010 <s> SIMON </s>
-0.3010 <s> SIMONE </s>
-0.3010 <s> SIXTE </s>
-0.3010 <s> SIXTINE </s>
-0.3010 <s> SOLANGE </s>
-0.3010 <s> SOLINE </s>
-0.3010 <s> SOPHIE </s>
-0.3010 <s> STANISLAS </s>
-0.3010 <s> STéPHANE </s>
-0.3010 <s> STéPHANIE </s>
-0.3010 <s> SUZANNE </s>
-0.3010 <s> SUZON, </s>
-0.3010 <s> SYLVAIN </s>
-0.3010 <s> SYLVESTRE </s>
-0.3010 <s> SYLVIANE </s>
-0.3010 <s> SYLVIE </s>
-0.3010 <s> SéBASTIEN </s>
-0.3010 <s> SéGOLèNE </s>
-0.3010 <s> SéRAPHIN </s>
-0.3010 <s> SéVERIN </s>
-0.3010 <s> SéVERINE </s>
-0.3010 <s> TANCRèDE </s>
-0.3010 <s> TANGUY </s>
-0.3010 <s> TATIANA </s>
-0.3010 <s> TAURIN </s>
-0.3010 <s> THAïS </s>
-0.3010 <s> THIBAULT </s>
-0.3010 <s> THIBERT </s>
-0.3010 <s> THIERRY </s>
-0.3010 <s> THOMAS </s>
-0.3010 <s> THéODORA </s>
-0.3010 <s> THéODORE </s>
-0.3010 <s> THéODOSE </s>
-0.3010 <s> THéOPHILE </s>
-0.3010 <s> THéOPHRASTE </s>
-0.3010 <s> THéRèSE </s>
-0.3010 <s> TIMOLéON </s>
-0.3010 <s> TIMOTHéE </s>
-0.3010 <s> TIPHAINE </s>
-0.3010 <s> TITIEN </s>
-0.3010 <s> TONNIN </s>
-0.3010 <s> TOUSSAINT </s>
-0.3010 <s> TRAJAN </s>
-0.3010 <s> TRISTAN </s>
-0.3010 <s> TUROLD </s>
-0.3010 <s> ULYSSE </s>
-0.3010 <s> URBAIN </s>
-0.3010 <s> URSULE </s>
-0.3010 <s> VALENTIN </s>
-0.3010 <s> VALENTINE </s>
-0.3010 <s> VALèRE </s>
-0.3010 <s> VALéRIE </s>
-0.3010 <s> VALéRY </s>
-0.3010 <s> VENANCE </s>
-0.3010 <s> VENCESLAS </s>
-0.3010 <s> VIANNEY </s>
-0.3010 <s> VICTOIRE </s>
-0.3010 <s> VICTOR </s>
-0.3010 <s> VICTORIEN </s>
-0.3010 <s> VICTORIN </s>
-0.3010 <s> VIGILE </s>
-0.3010 <s> VINCENT </s>
-0.3010 <s> VINCIANE </s>
-0.3010 <s> VIOLETTE </s>
-0.3010 <s> VIRGINIE </s>
-0.3010 <s> VITAL </s>
-0.3010 <s> VIVIANE </s>
-0.3010 <s> VIVIEN </s>
-0.3010 <s> VéRONIQUE </s>
-0.3010 <s> WALERAN </s>
-0.3010 <s> WANDRILLE </s>
-0.3010 <s> XAVIER </s>
-0.3010 <s> XAVIèRE </s>
-0.3010 <s> XéNOPHON </s>
-0.3010 <s> YOLANDE </s>
-0.3010 <s> YSALINE </s>
-0.3010 <s> YSEULT </s>
-0.3010 <s> YVES </s>
-0.3010 <s> YVETTE </s>
-0.3010 <s> YVONNE </s>
-0.3010 <s> ZACHARIE </s>
-0.3010 <s> ZACHé </s>
-0.3010 <s> ZITA </s>
-0.3010 <s> ZOé </s>
-0.3010 <s> ZéLIE </s>
-0.3010 <s> ZéPHIRIN </s>
-0.3010 <s> ÈVE </s>
-0.3010 <s> ÉDITH </s>
-0.3010 <s> ÉDOUARD </s>
-0.3010 <s> ÉLEUTHèRE </s>
-0.3010 <s> ÉLIA </s>
-0.3010 <s> ÉLIANE </s>
-0.3010 <s> ÉLIE </s>
-0.3010 <s> ÉLISABETH </s>
-0.3010 <s> ÉLISE </s>
-0.3010 <s> ÉLISéE </s>
-0.3010 <s> ÉLODIE </s>
-0.3010 <s> ÉLOïSE </s>
-0.3010 <s> ÉLéONORE </s>
-0.3010 <s> ÉMELINE </s>
-0.3010 <s> ÉMERIC </s>
-0.3010 <s> ÉMILE </s>
-0.3010 <s> ÉMILIE </s>
-0.3010 <s> ÉMéRANCE </s>
-0.3010 <s> ÉMéRENCIE </s>
-0.3010 <s> ÉPIPHANE </s>
-0.3010 <s> ÉRIC </s>
-0.3010 <s> ÉTIENNE </s>
-0.3010 <s> ÉVA </s>
-0.3010 <s> ÉVANGéLINE </s>
-0.3010 <s> ÉVARISTE </s>
-0.3010 <s> ÉVELYNE </s>
-0.3010 <s> ÉVRARD </s>

\end\
