Language model created by QuickLM on Thu Jun 30 05:56:59 EDT 2016
Copyright (c) 1996-2010 Carnegie Mellon University and Alexander I. Rudnicky

The model is in standard ARPA format, designed by Doug Paul while he was at MITRE.

The code that was used to produce this language model is available in Open Source.
Please visit http://www.speech.cs.cmu.edu/tools/ for more information

The (fixed) discount mass is 0.5. The backoffs are computed using the ratio method.
This model based on a corpus of 51 sentences and 165 words

\data\
ngram 1=165
ngram 2=289
ngram 3=324

\1-grams:
-2.9722 1989 -0.3006
-2.6712 28 -0.2982
-2.6712 31 -0.2982
-1.2646 </s> -0.3010
-1.2646 <s> -0.2683
-2.2732 A -0.2982
-2.9722 A-TEAM -0.2768
-2.9722 ALAN -0.3006
-2.9722 AN -0.3006
-2.9722 AND -0.3006
-2.9722 ANDROID -0.2768
-2.9722 ANY -0.3001
-2.9722 APOLLO -0.2996
-2.0691 ARE -0.2703
-2.9722 ARMS -0.2996
-2.9722 ASIMO -0.2768
-2.9722 BACH -0.3006
-2.9722 BE -0.2982
-2.9722 BETWEEN -0.2987
-2.9722 BIG -0.3006
-2.9722 BUG -0.3006
-2.9722 BURIED -0.2768
-2.9722 C -0.3001
-2.9722 CAPITAL -0.2940
-2.9722 CHANCELLOR -0.2940
-2.9722 CHARACTER -0.2940
-2.1941 CITY -0.2860
-2.9722 CLUMSY -0.3006
-2.9722 COFFEE -0.3006
-2.9722 COLOURS -0.2940
-2.9722 COME -0.3001
-2.6712 COMPANY -0.3001
-2.9722 COMPOSERS -0.2768
-2.9722 COMPUTER -0.3006
-2.9722 CONTINUOUS -0.3006
-2.9722 COUNTY -0.2936
-2.9722 CREATE -0.2768
-2.9722 CURRY -0.3006
-2.6712 CYBORG -0.2763
-2.9722 DARK -0.3006
-2.1941 DAYS -0.2698
-2.9722 DEVELOPED -0.2811
-2.6712 DID -0.2807
-2.9722 DIFFERENCE -0.3006
-2.4951 DO -0.2992
-2.9722 DOES -0.2811
-2.9722 DOG -0.2768
-2.9722 DONALD -0.3006
-2.9722 DRAGON -0.2945
-2.9722 DREAMS -0.2768
-2.9722 DUCK -0.3006
-2.9722 EACH -0.3006
-2.9722 EATEN -0.2945
-2.9722 ELEMENT -0.2768
-2.9722 ELEVEN -0.2982
-2.9722 EUROPE'S -0.3001
-2.9722 FAIR -0.2982
-2.9722 FALSE -0.2768
-2.6712 FEBRUARY -0.2987
-2.9722 FESTIVALS -0.2982
-2.6712 FIRST -0.2807
-2.9722 FLAG -0.2768
-2.6712 FROM -0.2768
-2.9722 FUNNY -0.3006
-2.6712 GALAXY -0.2698
-2.6712 GERMAN -0.3001
-2.3701 GERMANY -0.2763
-2.9722 GREATEST -0.3001
-2.9722 GUIDE -0.2996
-2.9722 HAMLET -0.3006
-2.2732 HAS -0.2792
-2.6712 HAVE -0.2763
-2.9722 HEAVIEST -0.3006
-2.9722 HELICOPTER -0.3006
-2.9722 HEY -0.3001
-2.9722 HITCHHIKER -0.3006
-2.1941 HOSTED -0.2753
-2.3701 HOW -0.2992
-1.8261 IN -0.2723
-2.9722 INDUSTRIAL -0.2982
-2.9722 INTEREST -0.2945
-2.9722 INVENTOR -0.2940
-2.9722 INVENTORS -0.2940
-1.7681 IS -0.2777
-2.6712 JANUARY -0.2987
-2.9722 JOHANN -0.3006
-2.9722 KNOW -0.3006
-2.9722 LAND -0.3001
-2.6712 LANGUAGE -0.2768
-2.9722 LARGEST -0.3006
-2.4951 LAST -0.2978
-2.9722 LEIPZIG -0.2768
-2.9722 LIVE -0.2945
-2.9722 LOCATED -0.2768
-2.9722 LORD -0.2940
-2.9722 LOVE -0.3006
-2.9722 MAIN -0.3006
-2.6712 MAKES -0.3001
-2.9722 MAN -0.2996
-2.3701 MANY -0.2992
-2.9722 METRES -0.2973
-2.9722 MILE -0.2768
-2.6712 MOON -0.2768
-2.6712 MOVIE -0.2758
-2.9722 MUSIC -0.3006
-2.3701 NAME -0.2703
-2.9722 NAMES -0.2940
-2.9722 NEPHEWS -0.2768
-2.9722 NEW -0.2996
-2.9722 NEXT -0.2996
-1.7961 OF -0.2768
-2.6712 OLDEST -0.3001
-2.6712 ON -0.2811
-2.6712 ONE -0.2940
-2.9722 OR -0.3006
-2.9722 ORIGIN -0.2987
-2.9722 PEACEFUL -0.3006
-2.9722 PEOPLE -0.3006
-2.9722 PILOT -0.2945
-2.9722 PLAY -0.2940
-2.9722 PREQUELS -0.2768
-2.9722 PRESIDENT -0.2940
-2.6712 PROGRAMMING -0.3001
-2.9722 PYTHON -0.3001
-2.9722 REVOLUTION -0.2940
-2.9722 RINGS -0.2768
-2.9722 RIVERS -0.3006
-2.4951 ROBOCUP -0.2733
-2.1941 ROBOT -0.2603
-2.9722 ROUND -0.2982
-2.9722 SAUSAGES -0.2973
-2.9722 SEBASTIAN -0.3006
-2.9722 SET -0.2768
-2.9722 SEVEN -0.2982
-2.9722 SHOP -0.2982
-2.4951 STAR -0.2936
-2.9722 START -0.2768
-2.9722 STEP -0.3001
-2.9722 SURROUNDING -0.3006
-2.9722 TERM -0.3006
-1.3490 THE -0.2763
-2.6712 THERE -0.2973
-2.6712 THIS -0.2968
-2.4951 TO -0.2802
-2.9722 TRADE -0.3006
-2.9722 TRUE -0.3006
-2.9722 TURING -0.3006
-2.9722 UP -0.2768
-2.9722 USED -0.3001
-2.6712 WALL-E -0.2768
-2.6712 WARS -0.2996
-2.4951 WAS -0.2811
-2.6712 WEEK -0.2768
-1.9308 WHAT -0.2840
-2.6712 WHAT'S -0.2807
-2.1271 WHERE -0.2921
-2.1271 WHICH -0.2940
-2.0691 WHO -0.2874
-2.9722 WILL -0.3006
-2.6712 WORD -0.2982
-2.6712 WORLD'S -0.2996
-2.9722 YEAR -0.2768
-2.4951 YEAR'S -0.2996
-2.3701 YOU -0.2987
-2.9722 ZOO -0.2940

\2-grams:
-0.3010 1989 START 0.0000
-0.3010 28 DAYS -0.1249
-0.3010 31 DAYS -0.1249
-1.7076 <s> DO 0.0000
-1.7076 <s> FEBRUARY 0.0000
-2.0086 <s> HEY 0.0000
-1.4065 <s> HOW 0.0000
-1.5315 <s> IN -0.2518
-1.7076 <s> JANUARY 0.0000
-1.5315 <s> NAME -0.0969
-1.7076 <s> THERE 0.0000
-2.0086 <s> TRUE 0.0000
-0.9672 <s> WHAT 0.0000
-2.0086 <s> WHAT'S -0.1761
-1.1635 <s> WHERE 0.0000
-1.4065 <s> WHICH -0.0580
-1.1055 <s> WHO 0.0000
-1.0000 A CYBORG -0.1761
-1.0000 A DRAGON 0.0000
-1.0000 A MILE 0.0000
-0.6990 A WEEK 0.0000
-0.3010 A-TEAM </s> -0.3010
-0.3010 ALAN TURING 0.0000
-0.3010 AN ANDROID 0.0000
-0.3010 AND AN 0.0000
-0.3010 ANDROID </s> -0.3010
-0.3010 ANY CYBORG -0.1761
-0.3010 APOLLO WAS 0.0000
-1.2041 ARE EATEN 0.0000
-1.2041 ARE ELEVEN 0.0000
-1.2041 ARE IN -0.2518
-1.2041 ARE NAMES 0.0000
-1.2041 ARE SEVEN 0.0000
-0.9031 ARE THE -0.2906
-1.2041 ARE YOU -0.2430
-0.3010 ARMS DO 0.0000
-0.3010 ASIMO </s> -0.3010
-0.3010 BACH BURIED 0.0000
-0.3010 BE HOSTED -0.0669
-0.3010 BETWEEN A -0.2553
-0.3010 BIG DOG 0.0000
-0.3010 BUG COME 0.0000
-0.3010 BURIED </s> -0.3010
-0.3010 C PROGRAMMING 0.0000
-0.3010 CAPITAL OF -0.1249
-0.3010 CHANCELLOR OF -0.2863
-0.3010 CHARACTER OF -0.1249
-1.0792 CITY ARE -0.2730
-1.0792 CITY HOSTED -0.2632
-0.7782 CITY IS -0.0969
-1.0792 CITY LOCATED 0.0000
-1.0792 CITY WILL 0.0000
-0.3010 CLUMSY CHARACTER 0.0000
-0.3010 COFFEE SHOP 0.0000
-0.3010 COLOURS OF -0.1249
-0.3010 COME FROM 0.0000
-0.3010 COMPANY MAKES 0.0000
-0.3010 COMPOSERS </s> -0.3010
-0.3010 COMPUTER BUG 0.0000
-0.3010 CONTINUOUS COFFEE 0.0000
-0.3010 COUNTY IS -0.1181
-0.3010 CREATE </s> -0.3010
-0.3010 CURRY SAUSAGES 0.0000
-0.6021 CYBORG </s> -0.3010
-0.6021 CYBORG AND 0.0000
-0.3010 DARK MUSIC 0.0000
-0.4771 DAYS </s> -0.3010
-0.7782 DAYS IN -0.2518
-0.3010 DEVELOPED THE -0.2958
-0.6021 DID ALAN 0.0000
-0.6021 DID THE -0.2958
-0.3010 DIFFERENCE BETWEEN 0.0000
-0.3010 DO YOU -0.0969
-0.3010 DOES THE -0.2958
-0.3010 DOG </s> -0.3010
-0.3010 DONALD DUCK 0.0000
-0.3010 DRAGON IN -0.1963
-0.3010 DREAMS </s> -0.3010
-0.3010 DUCK NEPHEWS 0.0000
-0.3010 EACH YEAR 0.0000
-0.3010 EATEN IN -0.2852
-0.3010 ELEMENT </s> -0.3010
-0.3010 ELEVEN DAYS -0.2218
-0.3010 EUROPE'S OLDEST -0.1761
-0.3010 FAIR HOSTED -0.0669
-0.3010 FALSE </s> -0.3010
-0.3010 FEBRUARY HAS -0.0792
-0.3010 FESTIVALS HOSTED -0.0669
-0.6021 FIRST INDUSTRIAL 0.0000
-0.6021 FIRST THE -0.2906
-0.3010 FLAG </s> -0.3010
-0.3010 FROM </s> -0.3010
-0.3010 FUNNY CLUMSY 0.0000
-0.6021 GALAXY </s> -0.3010
-0.6021 GALAXY IN -0.1963
-0.6021 GERMAN COMPOSERS 0.0000
-0.6021 GERMAN FLAG 0.0000
-0.4260 GERMANY </s> -0.3010
-0.9031 GERMANY EACH 0.0000
-0.3010 GREATEST GERMAN -0.1761
-0.3010 GUIDE TO -0.2218
-0.3010 HAMLET SET 0.0000
-0.6990 HAS 28 0.0000
-0.6990 HAS 31 0.0000
-1.0000 HAS THE -0.2906
-0.6021 HAVE </s> -0.3010
-0.6021 HAVE DREAMS 0.0000
-0.3010 HEAVIEST ELEMENT 0.0000
-0.3010 HELICOPTER PILOT 0.0000
-0.3010 HEY WHAT'S -0.1761
-0.3010 HITCHHIKER GUIDE 0.0000
-0.3802 HOSTED </s> -0.3010
-1.0792 HOSTED LAST -0.2218
-0.3010 HOW MANY 0.0000
-0.9700 IN A -0.1461
-1.4472 IN GERMANY -0.2430
-0.6690 IN THE -0.2632
-1.4472 IN WALL-E 0.0000
-0.9700 IN WHICH -0.1549
-0.3010 INDUSTRIAL ROBOT -0.1761
-0.3010 INTEREST IN -0.2852
-0.3010 INVENTOR OF -0.1249
-0.3010 INVENTORS OF -0.1249
-1.5051 IS EUROPE'S 0.0000
-1.5051 IS JOHANN 0.0000
-1.5051 IS ONE 0.0000
-1.5051 IS PRESIDENT 0.0000
-0.4638 IS THE -0.2341
-1.5051 IS THIS -0.1761
-0.3010 JANUARY HAS -0.0792
-0.3010 JOHANN SEBASTIAN 0.0000
-0.3010 KNOW ANY 0.0000
-0.3010 LAND ON 0.0000
-0.3010 LANGUAGE </s> -0.3010
-0.3010 LARGEST DARK 0.0000
-0.7782 LAST MAN 0.0000
-0.7782 LAST TO -0.2218
-0.7782 LAST YEAR'S 0.0000
-0.3010 LEIPZIG </s> -0.3010
-0.3010 LIVE IN -0.1963
-0.3010 LOCATED </s> -0.3010
-0.3010 LORD OF -0.1249
-0.3010 LOVE INTEREST 0.0000
-0.3010 MAIN RIVERS 0.0000
-0.6021 MAKES ASIMO 0.0000
-0.6021 MAKES BIG 0.0000
-0.3010 MAN TO -0.2218
-0.9031 MANY ARMS 0.0000
-0.9031 MANY CURRY 0.0000
-0.9031 MANY METRES 0.0000
-0.9031 MANY PEOPLE 0.0000
-0.3010 METRES ARE -0.2730
-0.3010 MILE </s> -0.3010
-0.3010 MOON </s> -0.3010
-0.6021 MOVIE </s> -0.3010
-0.6021 MOVIE WALL-E 0.0000
-0.3010 MUSIC FESTIVALS 0.0000
-0.9031 NAME A -0.2553
-0.9031 NAME OF -0.1249
-0.9031 NAME ONE 0.0000
-0.9031 NAME THE -0.2958
-0.3010 NAMES OF -0.2863
-0.3010 NEPHEWS </s> -0.3010
-0.3010 NEW STAR -0.1249
-0.3010 NEXT YEAR'S 0.0000
-1.4771 OF 1989 0.0000
-1.4771 OF DONALD 0.0000
-1.4771 OF GERMANY -0.0969
-1.4771 OF HAMLET 0.0000
-0.4771 OF THE -0.2218
-1.4771 OF THIS -0.1761
-0.6021 OLDEST CONTINUOUS 0.0000
-0.6021 OLDEST TRADE 0.0000
-0.3010 ON THE -0.2906
-0.3010 ONE OF -0.1249
-0.3010 OR FALSE 0.0000
-0.3010 ORIGIN HAS -0.2553
-0.3010 PEACEFUL REVOLUTION 0.0000
-0.3010 PEOPLE LIVE 0.0000
-0.3010 PILOT IN -0.1963
-0.3010 PLAY OF -0.2863
-0.3010 PREQUELS </s> -0.3010
-0.3010 PRESIDENT OF -0.1249
-0.3010 PROGRAMMING LANGUAGE 0.0000
-0.3010 PYTHON PROGRAMMING 0.0000
-0.3010 REVOLUTION OF -0.2863
-0.3010 RINGS </s> -0.3010
-0.3010 RIVERS SURROUNDING 0.0000
-0.7782 ROBOCUP </s> -0.3010
-0.7782 ROBOCUP BE 0.0000
-0.7782 ROBOCUP HOSTED -0.0669
-0.6021 ROBOT </s> -0.3010
-1.0792 ROBOT IN -0.1963
-1.0792 ROBOT IS -0.1181
-1.0792 ROBOT WAS 0.0000
-0.3010 ROUND ROBOT -0.2632
-0.3010 SAUSAGES ARE -0.2730
-0.3010 SEBASTIAN BACH 0.0000
-0.3010 SET </s> -0.3010
-0.3010 SEVEN DAYS -0.2218
-0.3010 SHOP HOSTED -0.0669
-0.7782 STAR IN -0.1963
-0.4771 STAR WARS 0.0000
-0.3010 START </s> -0.3010
-0.3010 STEP ON 0.0000
-0.3010 SURROUNDING LEIPZIG 0.0000
-0.3010 TERM COMPUTER 0.0000
-1.9243 THE A-TEAM 0.0000
-1.9243 THE C 0.0000
-1.9243 THE CAPITAL 0.0000
-1.9243 THE CHANCELLOR 0.0000
-1.9243 THE COLOURS 0.0000
-1.9243 THE DIFFERENCE 0.0000
-1.9243 THE FIRST -0.1761
-1.9243 THE FUNNY 0.0000
-1.6232 THE GALAXY 0.0000
-1.9243 THE GERMAN -0.1761
-1.6232 THE GERMANY -0.0969
-1.9243 THE GREATEST 0.0000
-1.9243 THE HEAVIEST 0.0000
-1.9243 THE HELICOPTER 0.0000
-1.9243 THE HITCHHIKER 0.0000
-1.9243 THE INVENTOR 0.0000
-1.9243 THE INVENTORS 0.0000
-1.6232 THE LAST -0.1249
-1.9243 THE LORD 0.0000
-1.9243 THE LOVE 0.0000
-1.9243 THE MAIN 0.0000
-1.6232 THE MOON 0.0000
-1.9243 THE MOVIE -0.1761
-1.9243 THE NAME -0.2430
-1.9243 THE NEW 0.0000
-1.9243 THE PEACEFUL 0.0000
-1.9243 THE PLAY 0.0000
-1.9243 THE PYTHON 0.0000
-1.9243 THE RINGS 0.0000
-1.9243 THE ROUND 0.0000
-1.6232 THE STAR 0.0000
-1.9243 THE TERM 0.0000
-1.6232 THE WORD 0.0000
-1.6232 THE WORLD'S 0.0000
-1.9243 THE ZOO 0.0000
-0.3010 THERE ARE -0.2430
-0.6021 THIS CITY -0.2632
-0.6021 THIS YEAR'S 0.0000
-0.7782 TO LAND 0.0000
-0.7782 TO STEP 0.0000
-0.7782 TO THE -0.2906
-0.3010 TRADE FAIR 0.0000
-0.3010 TRUE OR 0.0000
-0.3010 TURING CREATE 0.0000
-0.3010 UP </s> -0.3010
-0.3010 USED FIRST -0.1761
-0.3010 WALL-E </s> -0.3010
-0.6021 WARS MOVIE -0.1761
-0.6021 WARS PREQUELS 0.0000
-0.3010 WAS THE -0.2798
-0.3010 WEEK </s> -0.3010
-1.3424 WHAT APOLLO 0.0000
-1.0414 WHAT ARE -0.2109
-1.0414 WHAT CITY -0.1761
-1.3424 WHAT COMPANY 0.0000
-1.3424 WHAT DID -0.1761
-0.8653 WHAT IS -0.1181
-1.3424 WHAT ORIGIN 0.0000
-0.6021 WHAT'S THE -0.2958
-0.6021 WHAT'S UP 0.0000
-1.1461 WHERE DID -0.1761
-1.1461 WHERE DOES 0.0000
-0.4472 WHERE IS -0.0512
-0.6690 WHICH CITY -0.1249
-1.1461 WHICH COMPANY 0.0000
-1.1461 WHICH COUNTY 0.0000
-0.8451 WHICH ROBOT -0.2218
-1.2041 WHO ARE -0.2430
-1.2041 WHO DEVELOPED 0.0000
-0.6021 WHO IS -0.0969
-1.2041 WHO USED 0.0000
-1.2041 WHO WAS 0.0000
-0.3010 WILL NEXT 0.0000
-0.3010 WORD ROBOT -0.1761
-0.6021 WORLD'S LARGEST 0.0000
-0.6021 WORLD'S OLDEST -0.1761
-0.3010 YEAR </s> -0.3010
-0.3010 YEAR'S ROBOCUP 0.0000
-0.9031 YOU FROM 0.0000
-0.6021 YOU HAVE 0.0000
-0.9031 YOU KNOW 0.0000
-0.3010 ZOO OF -0.2863

\3-grams:
-0.3010 1989 START </s>
-0.3010 28 DAYS </s>
-0.3010 31 DAYS </s>
-0.3010 <s> DO YOU
-0.3010 <s> FEBRUARY HAS
-0.3010 <s> HEY WHAT'S
-0.3010 <s> HOW MANY
-0.3010 <s> IN WHICH
-0.3010 <s> JANUARY HAS
-0.7782 <s> NAME A
-0.7782 <s> NAME ONE
-0.7782 <s> NAME THE
-0.3010 <s> THERE ARE
-0.3010 <s> TRUE OR
-1.3424 <s> WHAT APOLLO
-1.0414 <s> WHAT ARE
-1.0414 <s> WHAT CITY
-1.3424 <s> WHAT COMPANY
-1.3424 <s> WHAT DID
-0.8653 <s> WHAT IS
-1.3424 <s> WHAT ORIGIN
-0.3010 <s> WHAT'S THE
-1.1461 <s> WHERE DID
-1.1461 <s> WHERE DOES
-0.4472 <s> WHERE IS
-0.9031 <s> WHICH CITY
-0.9031 <s> WHICH COMPANY
-0.6021 <s> WHICH ROBOT
-1.2041 <s> WHO ARE
-1.2041 <s> WHO DEVELOPED
-0.6021 <s> WHO IS
-1.2041 <s> WHO USED
-1.2041 <s> WHO WAS
-0.3010 A CYBORG AND
-0.3010 A DRAGON IN
-0.3010 A MILE </s>
-0.3010 A WEEK </s>
-0.3010 ALAN TURING CREATE
-0.3010 AN ANDROID </s>
-0.3010 AND AN ANDROID
-0.3010 ANY CYBORG </s>
-0.3010 APOLLO WAS THE
-0.3010 ARE EATEN IN
-0.3010 ARE ELEVEN DAYS
-0.3010 ARE IN A
-0.3010 ARE NAMES OF
-0.3010 ARE SEVEN DAYS
-0.6021 ARE THE COLOURS
-0.6021 ARE THE INVENTORS
-0.3010 ARE YOU FROM
-0.3010 ARMS DO YOU
-0.3010 BACH BURIED </s>
-0.3010 BE HOSTED </s>
-0.3010 BETWEEN A CYBORG
-0.3010 BIG DOG </s>
-0.3010 BUG COME FROM
-0.3010 C PROGRAMMING LANGUAGE
-0.3010 CAPITAL OF THE
-0.3010 CHANCELLOR OF GERMANY
-0.3010 CHARACTER OF THE
-0.3010 CITY ARE YOU
-0.3010 CITY HOSTED LAST
-0.6021 CITY IS THE
-0.6021 CITY IS THIS
-0.3010 CITY LOCATED </s>
-0.3010 CITY WILL NEXT
-0.3010 CLUMSY CHARACTER OF
-0.3010 COFFEE SHOP HOSTED
-0.3010 COLOURS OF THE
-0.3010 COME FROM </s>
-0.6021 COMPANY MAKES ASIMO
-0.6021 COMPANY MAKES BIG
-0.3010 COMPUTER BUG COME
-0.3010 CONTINUOUS COFFEE SHOP
-0.3010 COUNTY IS THE
-0.3010 CURRY SAUSAGES ARE
-0.3010 CYBORG AND AN
-0.3010 DARK MUSIC FESTIVALS
-0.3010 DAYS IN A
-0.3010 DEVELOPED THE FIRST
-0.3010 DID ALAN TURING
-0.3010 DID THE PEACEFUL
-0.3010 DIFFERENCE BETWEEN A
-0.4771 DO YOU HAVE
-0.7782 DO YOU KNOW
-0.3010 DOES THE TERM
-0.3010 DONALD DUCK NEPHEWS
-0.3010 DRAGON IN THE
-0.3010 DUCK NEPHEWS </s>
-0.3010 EACH YEAR </s>
-0.3010 EATEN IN GERMANY
-0.3010 ELEVEN DAYS IN
-0.3010 EUROPE'S OLDEST CONTINUOUS
-0.3010 FAIR HOSTED </s>
-0.6021 FEBRUARY HAS 28
-0.6021 FEBRUARY HAS 31
-0.3010 FESTIVALS HOSTED </s>
-0.3010 FIRST INDUSTRIAL ROBOT
-0.3010 FIRST THE WORD
-0.3010 FUNNY CLUMSY CHARACTER
-0.3010 GALAXY IN THE
-0.3010 GERMAN COMPOSERS </s>
-0.3010 GERMAN FLAG </s>
-0.3010 GERMANY EACH YEAR
-0.3010 GREATEST GERMAN COMPOSERS
-0.3010 GUIDE TO THE
-0.3010 HAMLET SET </s>
-0.3010 HAS 28 DAYS
-0.3010 HAS 31 DAYS
-0.3010 HAS THE WORD
-0.3010 HAVE DREAMS </s>
-0.3010 HEAVIEST ELEMENT </s>
-0.3010 HELICOPTER PILOT IN
-0.3010 HEY WHAT'S UP
-0.3010 HITCHHIKER GUIDE TO
-0.3010 HOSTED LAST YEAR'S
-0.9031 HOW MANY ARMS
-0.9031 HOW MANY CURRY
-0.9031 HOW MANY METRES
-0.9031 HOW MANY PEOPLE
-0.7782 IN A MILE
-0.4771 IN A WEEK
-0.3010 IN GERMANY EACH
-1.0792 IN THE A-TEAM
-1.0792 IN THE GERMANY
-1.0792 IN THE HITCHHIKER
-1.0792 IN THE LORD
-1.0792 IN THE MOVIE
-1.0792 IN THE NEW
-0.3010 IN WALL-E </s>
-0.4771 IN WHICH CITY
-0.7782 IN WHICH COUNTY
-0.3010 INDUSTRIAL ROBOT </s>
-0.3010 INTEREST IN WALL-E
-0.3010 INVENTOR OF THE
-0.3010 INVENTORS OF THE
-0.3010 IS EUROPE'S OLDEST
-0.3010 IS JOHANN SEBASTIAN
-0.3010 IS ONE OF
-0.3010 IS PRESIDENT OF
-1.3424 IS THE CAPITAL
-1.3424 IS THE CHANCELLOR
-1.3424 IS THE FUNNY
-1.3424 IS THE HEAVIEST
-1.3424 IS THE HELICOPTER
-1.3424 IS THE INVENTOR
-1.3424 IS THE LOVE
-1.3424 IS THE NAME
-1.3424 IS THE PLAY
-1.3424 IS THE WORLD'S
-1.3424 IS THE ZOO
-0.3010 IS THIS YEAR'S
-0.6021 JANUARY HAS 28
-0.6021 JANUARY HAS 31
-0.3010 JOHANN SEBASTIAN BACH
-0.3010 KNOW ANY CYBORG
-0.3010 LAND ON THE
-0.3010 LARGEST DARK MUSIC
-0.3010 LAST MAN TO
-0.3010 LAST TO LAND
-0.3010 LAST YEAR'S ROBOCUP
-0.3010 LIVE IN THE
-0.3010 LORD OF THE
-0.3010 LOVE INTEREST IN
-0.3010 MAIN RIVERS SURROUNDING
-0.3010 MAKES ASIMO </s>
-0.3010 MAKES BIG DOG
-0.3010 MAN TO STEP
-0.3010 MANY ARMS DO
-0.3010 MANY CURRY SAUSAGES
-0.3010 MANY METRES ARE
-0.3010 MANY PEOPLE LIVE
-0.3010 METRES ARE IN
-0.3010 MOVIE WALL-E </s>
-0.3010 MUSIC FESTIVALS HOSTED
-0.3010 NAME A DRAGON
-0.3010 NAME OF THE
-0.3010 NAME ONE OF
-0.3010 NAME THE MAIN
-0.3010 NAMES OF DONALD
-0.3010 NEW STAR WARS
-0.3010 NEXT YEAR'S ROBOCUP
-0.3010 OF 1989 START
-0.3010 OF DONALD DUCK
-0.3010 OF GERMANY </s>
-0.3010 OF HAMLET SET
-1.3010 OF THE C
-1.3010 OF THE GALAXY
-1.3010 OF THE GERMAN
-1.3010 OF THE GERMANY
-1.3010 OF THE GREATEST
-1.3010 OF THE PYTHON
-1.3010 OF THE RINGS
-1.3010 OF THE ROUND
-1.3010 OF THE STAR
-1.3010 OF THE WORLD'S
-0.3010 OF THIS CITY
-0.3010 OLDEST CONTINUOUS COFFEE
-0.3010 OLDEST TRADE FAIR
-0.3010 ON THE MOON
-0.3010 ONE OF THE
-0.3010 OR FALSE </s>
-0.3010 ORIGIN HAS THE
-0.3010 PEACEFUL REVOLUTION OF
-0.3010 PEOPLE LIVE IN
-0.3010 PILOT IN THE
-0.3010 PLAY OF HAMLET
-0.3010 PRESIDENT OF THE
-0.3010 PROGRAMMING LANGUAGE </s>
-0.3010 PYTHON PROGRAMMING LANGUAGE
-0.3010 REVOLUTION OF 1989
-0.3010 RIVERS SURROUNDING LEIPZIG
-0.3010 ROBOCUP BE HOSTED
-0.3010 ROBOCUP HOSTED </s>
-0.3010 ROBOT IN THE
-0.3010 ROBOT IS THE
-0.3010 ROBOT WAS THE
-0.3010 ROUND ROBOT IN
-0.3010 SAUSAGES ARE EATEN
-0.3010 SEBASTIAN BACH BURIED
-0.3010 SEVEN DAYS IN
-0.3010 SHOP HOSTED </s>
-0.3010 STAR IN THE
-0.6021 STAR WARS MOVIE
-0.6021 STAR WARS PREQUELS
-0.3010 STEP ON THE
-0.3010 SURROUNDING LEIPZIG </s>
-0.3010 TERM COMPUTER BUG
-0.3010 THE A-TEAM </s>
-0.3010 THE C PROGRAMMING
-0.3010 THE CAPITAL OF
-0.3010 THE CHANCELLOR OF
-0.3010 THE COLOURS OF
-0.3010 THE DIFFERENCE BETWEEN
-0.3010 THE FIRST INDUSTRIAL
-0.3010 THE FUNNY CLUMSY
-0.6021 THE GALAXY </s>
-0.6021 THE GALAXY IN
-0.3010 THE GERMAN FLAG
-0.3010 THE GERMANY </s>
-0.3010 THE GREATEST GERMAN
-0.3010 THE HEAVIEST ELEMENT
-0.3010 THE HELICOPTER PILOT
-0.3010 THE HITCHHIKER GUIDE
-0.3010 THE INVENTOR OF
-0.3010 THE INVENTORS OF
-0.6021 THE LAST MAN
-0.6021 THE LAST TO
-0.3010 THE LORD OF
-0.3010 THE LOVE INTEREST
-0.3010 THE MAIN RIVERS
-0.3010 THE MOON </s>
-0.3010 THE MOVIE WALL-E
-0.3010 THE NAME OF
-0.3010 THE NEW STAR
-0.3010 THE PEACEFUL REVOLUTION
-0.3010 THE PLAY OF
-0.3010 THE PYTHON PROGRAMMING
-0.3010 THE RINGS </s>
-0.3010 THE ROUND ROBOT
-0.6021 THE STAR IN
-0.6021 THE STAR WARS
-0.3010 THE TERM COMPUTER
-0.3010 THE WORD ROBOT
-0.6021 THE WORLD'S LARGEST
-0.6021 THE WORLD'S OLDEST
-0.3010 THE ZOO OF
-0.6021 THERE ARE ELEVEN
-0.6021 THERE ARE SEVEN
-0.3010 THIS CITY LOCATED
-0.3010 THIS YEAR'S ROBOCUP
-0.3010 TO LAND ON
-0.3010 TO STEP ON
-0.3010 TO THE GALAXY
-0.3010 TRADE FAIR HOSTED
-0.3010 TRUE OR FALSE
-0.3010 TURING CREATE </s>
-0.3010 USED FIRST THE
-0.3010 WARS MOVIE </s>
-0.3010 WARS PREQUELS </s>
-0.4771 WAS THE LAST
-0.7782 WAS THE STAR
-0.3010 WHAT APOLLO WAS
-0.6021 WHAT ARE NAMES
-0.6021 WHAT ARE THE
-0.6021 WHAT CITY ARE
-0.6021 WHAT CITY IS
-0.3010 WHAT COMPANY MAKES
-0.3010 WHAT DID ALAN
-0.3010 WHAT IS THE
-0.3010 WHAT ORIGIN HAS
-0.3010 WHAT'S THE DIFFERENCE
-0.3010 WHAT'S UP </s>
-0.3010 WHERE DID THE
-0.3010 WHERE DOES THE
-1.0000 WHERE IS EUROPE'S
-1.0000 WHERE IS JOHANN
-1.0000 WHERE IS ONE
-0.6990 WHERE IS THE
-0.7782 WHICH CITY HOSTED
-0.7782 WHICH CITY IS
-0.7782 WHICH CITY WILL
-0.3010 WHICH COMPANY MAKES
-0.3010 WHICH COUNTY IS
-0.6021 WHICH ROBOT IS
-0.6021 WHICH ROBOT WAS
-0.3010 WHO ARE THE
-0.3010 WHO DEVELOPED THE
-0.9031 WHO IS PRESIDENT
-0.4260 WHO IS THE
-0.3010 WHO USED FIRST
-0.3010 WHO WAS THE
-0.3010 WILL NEXT YEAR'S
-0.3010 WORD ROBOT </s>
-0.3010 WORLD'S LARGEST DARK
-0.3010 WORLD'S OLDEST TRADE
-0.7782 YEAR'S ROBOCUP </s>
-0.7782 YEAR'S ROBOCUP BE
-0.7782 YEAR'S ROBOCUP HOSTED
-0.3010 YOU FROM </s>
-0.6021 YOU HAVE </s>
-0.6021 YOU HAVE DREAMS
-0.3010 YOU KNOW ANY
-0.3010 ZOO OF THIS

\end\
