Language model created by QuickLM on Sat Jun 18 12:15:23 EDT 2016
Copyright (c) 1996-2010 Carnegie Mellon University and Alexander I. Rudnicky

The model is in standard ARPA format, designed by Doug Paul while he was at MITRE.

The code that was used to produce this language model is available in Open Source.
Please visit http://www.speech.cs.cmu.edu/tools/ for more information

The (fixed) discount mass is 0.5. The backoffs are computed using the ratio method.
This model based on a corpus of 113 sentences and 115 words

\data\
ngram 1=115
ngram 2=226
ngram 3=113

\1-grams:
-0.7782 </s> -0.3010
-0.7782 <s> -0.2218
-2.8312 ALBERT -0.2218
-2.8312 ALICE -0.2218
-2.8312 AMANDA -0.2218
-2.8312 AMY -0.2218
-2.8312 ANDREW -0.2218
-2.8312 ANGELA -0.2218
-2.8312 ANN -0.2218
-2.8312 ANNA -0.2218
-2.8312 ANTHONY -0.2218
-2.8312 ARTHUR -0.2218
-2.8312 BARBARA -0.2218
-2.8312 BETTY -0.2218
-2.8312 BRENDA -0.2218
-2.8312 BRIAN -0.2218
-2.8312 CARL -0.2218
-2.8312 CAROL -0.2218
-2.8312 CAROLYN -0.2218
-2.8312 CATHERINE -0.2218
-2.8312 CHARLES -0.2218
-2.8312 CHERYL -0.2218
-2.8312 CHRISTINE -0.2218
-2.8312 CHRISTOPHER -0.2218
-2.8312 CYNTHIA -0.2218
-2.8312 DANIEL -0.2218
-2.8312 DAVID -0.2218
-2.8312 DEBORAH -0.2218
-2.8312 DEBRA -0.2218
-2.8312 DENNIS -0.2218
-2.8312 DIANE -0.2218
-2.8312 DONALD -0.2218
-2.8312 DONNA -0.2218
-2.8312 DORIS -0.2218
-2.8312 DOROTHY -0.2218
-2.8312 DOUGLAS -0.2218
-2.8312 EDWARD -0.2218
-2.8312 ELIZABETH -0.2218
-2.8312 ERIC -0.2218
-2.8312 EVELYN -0.2218
-2.8312 FRANCES -0.2218
-2.8312 FRANK -0.2218
-2.8312 GARY -0.2218
-2.8312 GEORGE -0.2218
-2.8312 GLORIA -0.2218
-2.8312 GREGORY -0.2218
-2.8312 HAROLD -0.2218
-2.8312 HEATHER -0.2218
-2.8312 HELEN -0.2218
-2.8312 HENRY -0.2218
-2.8312 JACK -0.2218
-2.8312 JAMES -0.2218
-2.8312 JANET -0.2218
-2.8312 JASON -0.2218
-2.8312 JEAN -0.2218
-2.8312 JEFFREY -0.2218
-2.8312 JENNIFER -0.2218
-2.8312 JERRY -0.2218
-2.8312 JESSICA -0.2218
-2.8312 JOE -0.2218
-2.8312 JOHN -0.2218
-2.8312 JOSE -0.2218
-2.8312 JOSEPH -0.2218
-2.8312 JOSHUA -0.2218
-2.8312 JOYCE -0.2218
-2.8312 JUAN -0.2218
-2.8312 JULIE -0.2218
-2.8312 KAREN -0.2218
-2.8312 KATHLEEN -0.2218
-2.8312 KENNETH -0.2218
-2.8312 KEVIN -0.2218
-2.8312 KIMBERLY -0.2218
-2.8312 LARRY -0.2218
-2.8312 LAURA -0.2218
-2.8312 LINDA -0.2218
-2.8312 LISA -0.2218
-2.8312 MARGARET -0.2218
-2.8312 MARIA -0.2218
-2.8312 MARIE -0.2218
-2.8312 MARK -0.2218
-2.8312 MARTHA -0.2218
-2.8312 MARY -0.2218
-2.8312 MATTHEW -0.2218
-2.8312 MELISSA -0.2218
-2.8312 MICHAEL -0.2218
-2.8312 MICHELLE -0.2218
-2.8312 NANCY -0.2218
-2.8312 PAMELA -0.2218
-2.8312 PATRICIA -0.2218
-2.8312 PATRICK -0.2218
-2.8312 PAUL -0.2218
-2.8312 PETER -0.2218
-2.8312 RAYMOND -0.2218
-2.8312 REBECCA -0.2218
-2.8312 RICHARDS -0.2218
-2.8312 ROBERT -0.2218
-2.8312 ROGER -0.2218
-2.8312 RONALD -0.2218
-2.8312 RUTH -0.2218
-2.8312 RYAN -0.2218
-2.8312 SANDRA -0.2218
-2.8312 SARAH -0.2218
-2.8312 SCOTT -0.2218
-2.8312 SHARON -0.2218
-2.8312 SHIRLEY -0.2218
-2.8312 STEPHANIE -0.2218
-2.8312 STEPHEN -0.2218
-2.8312 STEVEN -0.2218
-2.8312 SUSAN -0.2218
-2.8312 TERESA -0.2218
-2.8312 THOMAS -0.2218
-2.8312 TIMOTHY -0.2218
-2.8312 VIRGINIA -0.2218
-2.8312 WALTER -0.2218
-2.8312 WILLIAM -0.2218

\2-grams:
-2.3541 <s> ALBERT 0.0000
-2.3541 <s> ALICE 0.0000
-2.3541 <s> AMANDA 0.0000
-2.3541 <s> AMY 0.0000
-2.3541 <s> ANDREW 0.0000
-2.3541 <s> ANGELA 0.0000
-2.3541 <s> ANN 0.0000
-2.3541 <s> ANNA 0.0000
-2.3541 <s> ANTHONY 0.0000
-2.3541 <s> ARTHUR 0.0000
-2.3541 <s> BARBARA 0.0000
-2.3541 <s> BETTY 0.0000
-2.3541 <s> BRENDA 0.0000
-2.3541 <s> BRIAN 0.0000
-2.3541 <s> CARL 0.0000
-2.3541 <s> CAROL 0.0000
-2.3541 <s> CAROLYN 0.0000
-2.3541 <s> CATHERINE 0.0000
-2.3541 <s> CHARLES 0.0000
-2.3541 <s> CHERYL 0.0000
-2.3541 <s> CHRISTINE 0.0000
-2.3541 <s> CHRISTOPHER 0.0000
-2.3541 <s> CYNTHIA 0.0000
-2.3541 <s> DANIEL 0.0000
-2.3541 <s> DAVID 0.0000
-2.3541 <s> DEBORAH 0.0000
-2.3541 <s> DEBRA 0.0000
-2.3541 <s> DENNIS 0.0000
-2.3541 <s> DIANE 0.0000
-2.3541 <s> DONALD 0.0000
-2.3541 <s> DONNA 0.0000
-2.3541 <s> DORIS 0.0000
-2.3541 <s> DOROTHY 0.0000
-2.3541 <s> DOUGLAS 0.0000
-2.3541 <s> EDWARD 0.0000
-2.3541 <s> ELIZABETH 0.0000
-2.3541 <s> ERIC 0.0000
-2.3541 <s> EVELYN 0.0000
-2.3541 <s> FRANCES 0.0000
-2.3541 <s> FRANK 0.0000
-2.3541 <s> GARY 0.0000
-2.3541 <s> GEORGE 0.0000
-2.3541 <s> GLORIA 0.0000
-2.3541 <s> GREGORY 0.0000
-2.3541 <s> HAROLD 0.0000
-2.3541 <s> HEATHER 0.0000
-2.3541 <s> HELEN 0.0000
-2.3541 <s> HENRY 0.0000
-2.3541 <s> JACK 0.0000
-2.3541 <s> JAMES 0.0000
-2.3541 <s> JANET 0.0000
-2.3541 <s> JASON 0.0000
-2.3541 <s> JEAN 0.0000
-2.3541 <s> JEFFREY 0.0000
-2.3541 <s> JENNIFER 0.0000
-2.3541 <s> JERRY 0.0000
-2.3541 <s> JESSICA 0.0000
-2.3541 <s> JOE 0.0000
-2.3541 <s> JOHN 0.0000
-2.3541 <s> JOSE 0.0000
-2.3541 <s> JOSEPH 0.0000
-2.3541 <s> JOSHUA 0.0000
-2.3541 <s> JOYCE 0.0000
-2.3541 <s> JUAN 0.0000
-2.3541 <s> JULIE 0.0000
-2.3541 <s> KAREN 0.0000
-2.3541 <s> KATHLEEN 0.0000
-2.3541 <s> KENNETH 0.0000
-2.3541 <s> KEVIN 0.0000
-2.3541 <s> KIMBERLY 0.0000
-2.3541 <s> LARRY 0.0000
-2.3541 <s> LAURA 0.0000
-2.3541 <s> LINDA 0.0000
-2.3541 <s> LISA 0.0000
-2.3541 <s> MARGARET 0.0000
-2.3541 <s> MARIA 0.0000
-2.3541 <s> MARIE 0.0000
-2.3541 <s> MARK 0.0000
-2.3541 <s> MARTHA 0.0000
-2.3541 <s> MARY 0.0000
-2.3541 <s> MATTHEW 0.0000
-2.3541 <s> MELISSA 0.0000
-2.3541 <s> MICHAEL 0.0000
-2.3541 <s> MICHELLE 0.0000
-2.3541 <s> NANCY 0.0000
-2.3541 <s> PAMELA 0.0000
-2.3541 <s> PATRICIA 0.0000
-2.3541 <s> PATRICK 0.0000
-2.3541 <s> PAUL 0.0000
-2.3541 <s> PETER 0.0000
-2.3541 <s> RAYMOND 0.0000
-2.3541 <s> REBECCA 0.0000
-2.3541 <s> RICHARDS 0.0000
-2.3541 <s> ROBERT 0.0000
-2.3541 <s> ROGER 0.0000
-2.3541 <s> RONALD 0.0000
-2.3541 <s> RUTH 0.0000
-2.3541 <s> RYAN 0.0000
-2.3541 <s> SANDRA 0.0000
-2.3541 <s> SARAH 0.0000
-2.3541 <s> SCOTT 0.0000
-2.3541 <s> SHARON 0.0000
-2.3541 <s> SHIRLEY 0.0000
-2.3541 <s> STEPHANIE 0.0000
-2.3541 <s> STEPHEN 0.0000
-2.3541 <s> STEVEN 0.0000
-2.3541 <s> SUSAN 0.0000
-2.3541 <s> TERESA 0.0000
-2.3541 <s> THOMAS 0.0000
-2.3541 <s> TIMOTHY 0.0000
-2.3541 <s> VIRGINIA 0.0000
-2.3541 <s> WALTER 0.0000
-2.3541 <s> WILLIAM 0.0000
-0.3010 ALBERT </s> -0.3010
-0.3010 ALICE </s> -0.3010
-0.3010 AMANDA </s> -0.3010
-0.3010 AMY </s> -0.3010
-0.3010 ANDREW </s> -0.3010
-0.3010 ANGELA </s> -0.3010
-0.3010 ANN </s> -0.3010
-0.3010 ANNA </s> -0.3010
-0.3010 ANTHONY </s> -0.3010
-0.3010 ARTHUR </s> -0.3010
-0.3010 BARBARA </s> -0.3010
-0.3010 BETTY </s> -0.3010
-0.3010 BRENDA </s> -0.3010
-0.3010 BRIAN </s> -0.3010
-0.3010 CARL </s> -0.3010
-0.3010 CAROL </s> -0.3010
-0.3010 CAROLYN </s> -0.3010
-0.3010 CATHERINE </s> -0.3010
-0.3010 CHARLES </s> -0.3010
-0.3010 CHERYL </s> -0.3010
-0.3010 CHRISTINE </s> -0.3010
-0.3010 CHRISTOPHER </s> -0.3010
-0.3010 CYNTHIA </s> -0.3010
-0.3010 DANIEL </s> -0.3010
-0.3010 DAVID </s> -0.3010
-0.3010 DEBORAH </s> -0.3010
-0.3010 DEBRA </s> -0.3010
-0.3010 DENNIS </s> -0.3010
-0.3010 DIANE </s> -0.3010
-0.3010 DONALD </s> -0.3010
-0.3010 DONNA </s> -0.3010
-0.3010 DORIS </s> -0.3010
-0.3010 DOROTHY </s> -0.3010
-0.3010 DOUGLAS </s> -0.3010
-0.3010 EDWARD </s> -0.3010
-0.3010 ELIZABETH </s> -0.3010
-0.3010 ERIC </s> -0.3010
-0.3010 EVELYN </s> -0.3010
-0.3010 FRANCES </s> -0.3010
-0.3010 FRANK </s> -0.3010
-0.3010 GARY </s> -0.3010
-0.3010 GEORGE </s> -0.3010
-0.3010 GLORIA </s> -0.3010
-0.3010 GREGORY </s> -0.3010
-0.3010 HAROLD </s> -0.3010
-0.3010 HEATHER </s> -0.3010
-0.3010 HELEN </s> -0.3010
-0.3010 HENRY </s> -0.3010
-0.3010 JACK </s> -0.3010
-0.3010 JAMES </s> -0.3010
-0.3010 JANET </s> -0.3010
-0.3010 JASON </s> -0.3010
-0.3010 JEAN </s> -0.3010
-0.3010 JEFFREY </s> -0.3010
-0.3010 JENNIFER </s> -0.3010
-0.3010 JERRY </s> -0.3010
-0.3010 JESSICA </s> -0.3010
-0.3010 JOE </s> -0.3010
-0.3010 JOHN </s> -0.3010
-0.3010 JOSE </s> -0.3010
-0.3010 JOSEPH </s> -0.3010
-0.3010 JOSHUA </s> -0.3010
-0.3010 JOYCE </s> -0.3010
-0.3010 JUAN </s> -0.3010
-0.3010 JULIE </s> -0.3010
-0.3010 KAREN </s> -0.3010
-0.3010 KATHLEEN </s> -0.3010
-0.3010 KENNETH </s> -0.3010
-0.3010 KEVIN </s> -0.3010
-0.3010 KIMBERLY </s> -0.3010
-0.3010 LARRY </s> -0.3010
-0.3010 LAURA </s> -0.3010
-0.3010 LINDA </s> -0.3010
-0.3010 LISA </s> -0.3010
-0.3010 MARGARET </s> -0.3010
-0.3010 MARIA </s> -0.3010
-0.3010 MARIE </s> -0.3010
-0.3010 MARK </s> -0.3010
-0.3010 MARTHA </s> -0.3010
-0.3010 MARY </s> -0.3010
-0.3010 MATTHEW </s> -0.3010
-0.3010 MELISSA </s> -0.3010
-0.3010 MICHAEL </s> -0.3010
-0.3010 MICHELLE </s> -0.3010
-0.3010 NANCY </s> -0.3010
-0.3010 PAMELA </s> -0.3010
-0.3010 PATRICIA </s> -0.3010
-0.3010 PATRICK </s> -0.3010
-0.3010 PAUL </s> -0.3010
-0.3010 PETER </s> -0.3010
-0.3010 RAYMOND </s> -0.3010
-0.3010 REBECCA </s> -0.3010
-0.3010 RICHARDS </s> -0.3010
-0.3010 ROBERT </s> -0.3010
-0.3010 ROGER </s> -0.3010
-0.3010 RONALD </s> -0.3010
-0.3010 RUTH </s> -0.3010
-0.3010 RYAN </s> -0.3010
-0.3010 SANDRA </s> -0.3010
-0.3010 SARAH </s> -0.3010
-0.3010 SCOTT </s> -0.3010
-0.3010 SHARON </s> -0.3010
-0.3010 SHIRLEY </s> -0.3010
-0.3010 STEPHANIE </s> -0.3010
-0.3010 STEPHEN </s> -0.3010
-0.3010 STEVEN </s> -0.3010
-0.3010 SUSAN </s> -0.3010
-0.3010 TERESA </s> -0.3010
-0.3010 THOMAS </s> -0.3010
-0.3010 TIMOTHY </s> -0.3010
-0.3010 VIRGINIA </s> -0.3010
-0.3010 WALTER </s> -0.3010
-0.3010 WILLIAM </s> -0.3010

\3-grams:
-0.3010 <s> ALBERT </s>
-0.3010 <s> ALICE </s>
-0.3010 <s> AMANDA </s>
-0.3010 <s> AMY </s>
-0.3010 <s> ANDREW </s>
-0.3010 <s> ANGELA </s>
-0.3010 <s> ANN </s>
-0.3010 <s> ANNA </s>
-0.3010 <s> ANTHONY </s>
-0.3010 <s> ARTHUR </s>
-0.3010 <s> BARBARA </s>
-0.3010 <s> BETTY </s>
-0.3010 <s> BRENDA </s>
-0.3010 <s> BRIAN </s>
-0.3010 <s> CARL </s>
-0.3010 <s> CAROL </s>
-0.3010 <s> CAROLYN </s>
-0.3010 <s> CATHERINE </s>
-0.3010 <s> CHARLES </s>
-0.3010 <s> CHERYL </s>
-0.3010 <s> CHRISTINE </s>
-0.3010 <s> CHRISTOPHER </s>
-0.3010 <s> CYNTHIA </s>
-0.3010 <s> DANIEL </s>
-0.3010 <s> DAVID </s>
-0.3010 <s> DEBORAH </s>
-0.3010 <s> DEBRA </s>
-0.3010 <s> DENNIS </s>
-0.3010 <s> DIANE </s>
-0.3010 <s> DONALD </s>
-0.3010 <s> DONNA </s>
-0.3010 <s> DORIS </s>
-0.3010 <s> DOROTHY </s>
-0.3010 <s> DOUGLAS </s>
-0.3010 <s> EDWARD </s>
-0.3010 <s> ELIZABETH </s>
-0.3010 <s> ERIC </s>
-0.3010 <s> EVELYN </s>
-0.3010 <s> FRANCES </s>
-0.3010 <s> FRANK </s>
-0.3010 <s> GARY </s>
-0.3010 <s> GEORGE </s>
-0.3010 <s> GLORIA </s>
-0.3010 <s> GREGORY </s>
-0.3010 <s> HAROLD </s>
-0.3010 <s> HEATHER </s>
-0.3010 <s> HELEN </s>
-0.3010 <s> HENRY </s>
-0.3010 <s> JACK </s>
-0.3010 <s> JAMES </s>
-0.3010 <s> JANET </s>
-0.3010 <s> JASON </s>
-0.3010 <s> JEAN </s>
-0.3010 <s> JEFFREY </s>
-0.3010 <s> JENNIFER </s>
-0.3010 <s> JERRY </s>
-0.3010 <s> JESSICA </s>
-0.3010 <s> JOE </s>
-0.3010 <s> JOHN </s>
-0.3010 <s> JOSE </s>
-0.3010 <s> JOSEPH </s>
-0.3010 <s> JOSHUA </s>
-0.3010 <s> JOYCE </s>
-0.3010 <s> JUAN </s>
-0.3010 <s> JULIE </s>
-0.3010 <s> KAREN </s>
-0.3010 <s> KATHLEEN </s>
-0.3010 <s> KENNETH </s>
-0.3010 <s> KEVIN </s>
-0.3010 <s> KIMBERLY </s>
-0.3010 <s> LARRY </s>
-0.3010 <s> LAURA </s>
-0.3010 <s> LINDA </s>
-0.3010 <s> LISA </s>
-0.3010 <s> MARGARET </s>
-0.3010 <s> MARIA </s>
-0.3010 <s> MARIE </s>
-0.3010 <s> MARK </s>
-0.3010 <s> MARTHA </s>
-0.3010 <s> MARY </s>
-0.3010 <s> MATTHEW </s>
-0.3010 <s> MELISSA </s>
-0.3010 <s> MICHAEL </s>
-0.3010 <s> MICHELLE </s>
-0.3010 <s> NANCY </s>
-0.3010 <s> PAMELA </s>
-0.3010 <s> PATRICIA </s>
-0.3010 <s> PATRICK </s>
-0.3010 <s> PAUL </s>
-0.3010 <s> PETER </s>
-0.3010 <s> RAYMOND </s>
-0.3010 <s> REBECCA </s>
-0.3010 <s> RICHARDS </s>
-0.3010 <s> ROBERT </s>
-0.3010 <s> ROGER </s>
-0.3010 <s> RONALD </s>
-0.3010 <s> RUTH </s>
-0.3010 <s> RYAN </s>
-0.3010 <s> SANDRA </s>
-0.3010 <s> SARAH </s>
-0.3010 <s> SCOTT </s>
-0.3010 <s> SHARON </s>
-0.3010 <s> SHIRLEY </s>
-0.3010 <s> STEPHANIE </s>
-0.3010 <s> STEPHEN </s>
-0.3010 <s> STEVEN </s>
-0.3010 <s> SUSAN </s>
-0.3010 <s> TERESA </s>
-0.3010 <s> THOMAS </s>
-0.3010 <s> TIMOTHY </s>
-0.3010 <s> VIRGINIA </s>
-0.3010 <s> WALTER </s>
-0.3010 <s> WILLIAM </s>

\end\
